{"learner":{"attributes":{"scikit_learn":"{\"_estimator_type\": \"regressor\"}"},"feature_names":[],"feature_types":[],"gradient_booster":{"model":{"gbtree_model_param":{"num_parallel_tree":"1","num_trees":"200"},"iteration_indptr":[0,1,2,3,4,5,6,7,8,9,10,11,12,13,14,15,16,17,18,19,20,21,22,23,24,25,26,27,28,29,30,31,32,33,34,35,36,37,38,39,40,41,42,43,44,45,46,47,48,49,50,51,52,53,54,55,56,57,58,59,60,61,62,63,64,65,66,67,68,69,70,71,72,73,74,75,76,77,78,79,80,81,82,83,84,85,86,87,88,89,90,91,92,93,94,95,96,97,98,99,100,101,102,103,104,105,106,107,108,109,110,111,112,113,114,115,116,117,118,119,120,121,122,123,124,125,126,127,128,129,130,131,132,133,134,135,136,137,138,139,140,141,142,143,144,145,146,147,148,149,150,151,152,153,154,155,156,157,158,159,160,161,162,163,164,165,166,167,168,169,170,171,172,173,174,175,176,177,178,179,180,181,182,183,184,185,186,187,188,189,190,191,192,193,194,195,196,197,198,199,200],"tree_info":[0,0,0,0,0,0,0,0,0,0,0,0,0,0,0,0,0,0,0,0,0,0,0,0,0,0,0,0,0,0,0,0,0,0,0,0,0,0,0,0,0,0,0,0,0,0,0,0,0,0,0,0,0,0,0,0,0,0,0,0,0,0,0,0,0,0,0,0,0,0,0,0,0,0,0,0,0,0,0,0,0,0,0,0,0,0,0,0,0,0,0,0,0,0,0,0,0,0,0,0,0,0,0,0,0,0,0,0,0,0,0,0,0,0,0,0,0,0,0,0,0,0,0,0,0,0,0,0,0,0,0,0,0,0,0,0,0,0,0,0,0,0,0,0,0,0,0,0,0,0,0,0,0,0,0,0,0,0,0,0,0,0,0,0,0,0,0,0,0,0,0,0,0,0,0,0,0,0,0,0,0,0,0,0,0,0,0,0,0,0,0,0,0,0,0,0,0,0,0,0],"trees":[{"base_weights":[1.2262953E-1,5.495837E0,-6.251115E0,-2.3152389E-1,7.5247507E0,-7.3525004E0,4.169384E0,4.922652E0,-1.9758689E0,6.4405837E0,1.3868243E1,-2.6426542E0,-9.657026E0,5.786258E0,-1.1888056E-1,7.187528E-2,3.01026E-1,5.0492E-2,-1.8704726E-1,3.3977625E-1,1.3767464E-1,1.264352E-1,7.511827E-1,-2.2608474E-1,1.1356006E-1,-2.7775458E-1,-5.750254E-1,3.5242558E-1,5.314308E-2],"categories":[],"categories_nodes":[],"categories_segments":[],"categories_sizes":[],"default_left":[0,0,0,0,0,0,0,0,0,0,0,0,0,0,0,0,0,0,0,0,0,0,0,0,0,0,0,0,0],"id":0,"left_children":[1,3,5,7,9,11,13,15,17,19,21,23,25,27,-1,-1,-1,-1,-1,-1,-1,-1,-1,-1,-1,-1,-1,-1,-1],"loss_changes":[3.0241576E4,5.5835547E3,4.943258E3,1.3110043E3,1.5414043E3,3.7499102E3,6.1392975E2,5.5025146E1,6.069379E2,2.3297949E2,1.8347559E2,1.3491968E3,1.2062266E3,1.5760693E2,0E0,0E0,0E0,0E0,0E0,0E0,0E0,0E0,0E0,0E0,0E0,0E0,0E0,0E0,0E0],"parents":[2147483647,0,0,1,1,2,2,3,3,4,4,5,5,6,6,7,7,8,8,9,9,10,10,11,11,12,12,13,13],"right_children":[2,4,6,8,10,12,14,16,18,20,22,24,26,28,-1,-1,-1,-1,-1,-1,-1,-1,-1,-1,-1,-1,-1,-1,-1],"split_conditions":[-1.8485007E-1,-2.1892121E-1,1.038382E0,-1.2593193E0,1.3836111E0,1.7919199E-1,-4.5227864E-1,-1.8960215E0,3.304574E-1,-3.769041E-1,8.9405817E-1,5.356688E-2,7.833412E-2,1.9801679E0,-1.1888056E-1,7.187528E-2,3.01026E-1,5.0492E-2,-1.8704726E-1,3.3977625E-1,1.3767464E-1,1.264352E-1,7.511827E-1,-2.2608474E-1,1.1356006E-1,-2.7775458E-1,-5.750254E-1,3.5242558E-1,5.314308E-2],"split_indices":[0,8,5,1,5,0,3,4,6,0,8,9,3,5,0,0,0,0,0,0,0,0,0,0,0,0,0,0,0],"split_type":[0,0,0,0,0,0,0,0,0,0,0,0,0,0,0,0,0,0,0,0,0,0,0,0,0,0,0,0,0],"sum_hessian":[8.63E2,4.69E2,3.94E2,1.25E2,3.44E2,3.59E2,3.5E1,2.7E1,9.8E1,3.11E2,3.3E1,1.25E2,2.34E2,2.9E1,6E0,1.2E1,1.5E1,3.8E1,6E1,2.76E2,3.5E1,6E0,2.7E1,9.1E1,3.4E1,8.5E1,1.49E2,1.9E1,1E1],"tree_param":{"num_deleted":"0","num_feature":"10","num_nodes":"29","size_leaf_vector":"1"}},{"base_weights":[-2.8255162E-1,4.945362E0,-6.1275783E0,-5.178586E-1,7.011259E0,-7.5789533E0,3.6327791E0,2.4685653E-1,-1.6379498E0,1.2227984E1,6.0149674E0,-2.8393285E0,-9.842547E0,5.948631E0,-2.081499E0,-1.5912667E-1,1.385281E-1,1.0646366E-1,6.763969E-1,3.1060073E-1,1.1315483E-1,-2.3690842E-1,5.1483285E-2,-4.055449E-2,-5.017671E-1,3.9139006E-1,-2.0409552E-2,1.49425035E-2,-1.933816E-1],"categories":[],"categories_nodes":[],"categories_segments":[],"categories_sizes":[],"default_left":[0,0,0,0,0,0,0,0,0,0,0,0,0,0,0,0,0,0,0,0,0,0,0,0,0,0,0,0,0],"id":1,"left_children":[1,3,5,7,9,11,13,-1,15,17,19,21,23,25,27,-1,-1,-1,-1,-1,-1,-1,-1,-1,-1,-1,-1,-1,-1],"loss_changes":[2.7132338E4,5.3296533E3,6.2108535E3,9.240595E2,1.0367969E3,3.6686562E3,9.3105927E2,0E0,9.189104E2,3.0270605E2,8.5640625E1,1.0258851E3,3.4520117E2,5.8144763E2,1.1784891E2,0E0,0E0,0E0,0E0,0E0,0E0,0E0,0E0,0E0,0E0,0E0,0E0,0E0,0E0],"parents":[2147483647,0,0,1,1,2,2,3,3,4,4,5,5,6,6,8,8,9,9,10,10,11,11,12,12,13,13,14,14],"right_children":[2,4,6,8,10,12,14,-1,16,18,20,22,24,26,28,-1,-1,-1,-1,-1,-1,-1,-1,-1,-1,-1,-1,-1,-1],"split_conditions":[-1.7820266E-1,-2.1892121E-1,5.8894014E-1,-1.5890112E0,-1.4945318E0,1.7919199E-1,6.6353136E-1,2.4685653E-1,4.6099833E-1,-1.5141796E0,-3.0844712E-1,6.1063033E-1,-1.5821422E0,-6.515393E-1,1.5221744E0,-1.5912667E-1,1.385281E-1,1.0646366E-1,6.763969E-1,3.1060073E-1,1.1315483E-1,-2.3690842E-1,5.1483285E-2,-4.055449E-2,-5.017671E-1,3.9139006E-1,-2.0409552E-2,1.49425035E-2,-1.933816E-1],"split_indices":[0,8,8,1,3,0,2,0,2,1,0,2,2,3,2,0,0,0,0,0,0,0,0,0,0,0,0,0,0],"split_type":[0,0,0,0,0,0,0,0,0,0,0,0,0,0,0,0,0,0,0,0,0,0,0,0,0,0,0,0,0],"sum_hessian":[8.68E2,4.59E2,4.09E2,1.28E2,3.31E2,3.58E2,5.1E1,1.6E1,1.12E2,3.5E1,2.96E2,1.23E2,2.35E2,3.6E1,1.5E1,8.5E1,2.7E1,7E0,2.8E1,2.75E2,2.1E1,8.1E1,4.2E1,6E0,2.29E2,2.6E1,1E1,1E1,5E0],"tree_param":{"num_deleted":"0","num_feature":"10","num_nodes":"29","size_leaf_vector":"1"}},{"base_weights":[1.23709984E-1,5.3159657E0,-5.3663716E0,5.128213E-1,6.8977323E0,-7.7144217E0,-5.512848E-1,5.5311875E0,-1.7839828E0,1.3737958E1,5.873103E0,-3.3020632E0,-9.37204E0,5.7269053E0,-2.8596656E0,3.1085122E-1,5.8141794E-2,-1.8633975E-1,5.267362E-2,9.473487E-2,7.6832384E-1,3.1708822E-1,1.7639226E-1,7.201298E-2,-2.2905472E-1,-4.9426373E-2,-4.7645307E-1,3.3961198E-1,3.471085E-2,1.4777176E-1,-2.751157E-1],"categories":[],"categories_nodes":[],"categories_segments":[],"categories_sizes":[],"default_left":[0,0,0,0,0,0,0,0,0,0,0,0,0,0,0,0,0,0,0,0,0,0,0,0,0,0,0,0,0,0,0],"id":2,"left_children":[1,3,5,7,9,11,13,15,17,19,21,23,25,27,29,-1,-1,-1,-1,-1,-1,-1,-1,-1,-1,-1,-1,-1,-1,-1,-1],"loss_changes":[2.5798062E4,3.4974443E3,4.9321416E3,1.5509772E3,1.6391895E3,1.8481621E3,2.4101006E3,5.353723E1,5.574491E2,4.4175635E2,1.2909375E2,6.4827515E2,1.8092773E2,1.9411438E2,2.0066892E3,0E0,0E0,0E0,0E0,0E0,0E0,0E0,0E0,0E0,0E0,0E0,0E0,0E0,0E0,0E0,0E0],"parents":[2147483647,0,0,1,1,2,2,3,3,4,4,5,5,6,6,7,7,8,8,9,9,10,10,11,11,12,12,13,13,14,14],"right_children":[2,4,6,8,10,12,14,16,18,20,22,24,26,28,30,-1,-1,-1,-1,-1,-1,-1,-1,-1,-1,-1,-1,-1,-1,-1,-1],"split_conditions":[-2.215528E-1,-2.1892121E-1,-1.7620905E-1,-1.2593193E0,-1.8031176E0,7.9401925E-2,-9.4828564E-1,-1.3705558E0,-6.976853E-2,-1.4507473E0,-5.0062525E-1,-6.2533724E-1,-1.1281922E0,-7.4209315E-1,9.638811E-2,3.1085122E-1,5.8141794E-2,-1.8633975E-1,5.267362E-2,9.473487E-2,7.6832384E-1,3.1708822E-1,1.7639226E-1,7.201298E-2,-2.2905472E-1,-4.9426373E-2,-4.7645307E-1,3.3961198E-1,3.471085E-2,1.4777176E-1,-2.751157E-1],"split_indices":[0,8,8,1,3,0,3,1,4,1,0,1,1,6,0,0,0,0,0,0,0,0,0,0,0,0,0,0,0,0,0],"split_type":[0,0,0,0,0,0,0,0,0,0,0,0,0,0,0,0,0,0,0,0,0,0,0,0,0,0,0,0,0,0,0],"sum_hessian":[8.85E2,4.55E2,4.3E2,1.16E2,3.39E2,2.85E2,1.45E2,3.2E1,8.4E1,2.8E1,3.11E2,8.6E1,1.99E2,3.5E1,1.1E2,2.4E1,8E0,4.8E1,3.6E1,6E0,2.2E1,2.45E2,6.6E1,1.8E1,6.8E1,5E0,1.94E2,2.6E1,9E0,3.4E1,7.6E1],"tree_param":{"num_deleted":"0","num_feature":"10","num_nodes":"31","size_leaf_vector":"1"}},{"base_weights":[7.602759E-2,4.7441635E0,-5.1277843E0,4.7029996E-1,6.460259E0,-6.6485233E0,2.9557693E0,2.811504E-1,-1.2284235E0,5.5032535E0,1.2091746E1,-2.558353E0,-8.188417E0,5.1635957E0,-2.3578134E0,-1.1339121E-1,1.4055401E-1,3.696121E-1,2.2056232E-1,1.257598E-1,6.7003095E-1,-1.776669E-1,1.5183705E-1,-4.2663962E-1,1.0537958E-3,3.378314E-1,-1.1236819E-2,8.963799E-2,-2.0197864E-1],"categories":[],"categories_nodes":[],"categories_segments":[],"categories_sizes":[],"default_left":[0,0,0,0,0,0,0,0,0,0,0,0,0,0,0,0,0,0,0,0,0,0,0,0,0,0,0,0,0],"id":3,"left_children":[1,3,5,7,9,11,13,-1,15,17,19,21,23,25,27,-1,-1,-1,-1,-1,-1,-1,-1,-1,-1,-1,-1,-1,-1],"loss_changes":[2.1110188E4,3.328753E3,5.2489287E3,1.3120039E3,1.0914932E3,1.9886611E3,9.664135E2,0E0,5.465966E2,2.8655762E2,1.5179297E2,7.202795E2,7.0575977E2,4.787091E2,2.6786725E2,0E0,0E0,0E0,0E0,0E0,0E0,0E0,0E0,0E0,0E0,0E0,0E0,0E0,0E0],"parents":[2147483647,0,0,1,1,2,2,3,3,4,4,5,5,6,6,8,8,9,9,10,10,11,11,12,12,13,13,14,14],"right_children":[2,4,6,8,10,12,14,-1,16,18,20,22,24,26,28,-1,-1,-1,-1,-1,-1,-1,-1,-1,-1,-1,-1,-1,-1],"split_conditions":[-2.118798E-1,-2.1892121E-1,3.9317137E-1,-1.3437773E0,1.3836111E0,9.638811E-2,-5.303623E-2,2.811504E-1,7.812677E-1,-9.408639E-1,-1.0917507E0,1.5701783E-1,7.202197E-1,6.6353136E-1,2.763674E-1,-1.1339121E-1,1.4055401E-1,3.696121E-1,2.2056232E-1,1.257598E-1,6.7003095E-1,-1.776669E-1,1.5183705E-1,-4.2663962E-1,1.0537958E-3,3.378314E-1,-1.1236819E-2,8.963799E-2,-2.0197864E-1],"split_indices":[0,8,8,1,5,0,6,0,2,0,1,9,5,2,4,0,0,0,0,0,0,0,0,0,0,0,0,0,0],"split_type":[0,0,0,0,0,0,0,0,0,0,0,0,0,0,0,0,0,0,0,0,0,0,0,0,0,0,0,0,0],"sum_hessian":[8.49E2,4.48E2,4.01E2,1.32E2,3.16E2,3.39E2,6.2E1,2.7E1,1.05E2,2.87E2,2.9E1,1E2,2.39E2,4.4E1,1.8E1,8.7E1,1.8E1,8.4E1,2.03E2,7E0,2.2E1,8.8E1,1.2E1,2.29E2,1E1,3.2E1,1.2E1,5E0,1.3E1],"tree_param":{"num_deleted":"0","num_feature":"10","num_nodes":"29","size_leaf_vector":"1"}},{"base_weights":[5.600006E-2,-5.0154524E0,3.9751074E0,1.0279623E0,-7.1265564E0,5.641989E0,-1.2382877E0,2.827501E-1,-8.239913E-1,-5.2764096E0,-9.701446E0,4.253275E0,9.604642E0,4.7272465E-1,-6.309066E0,-2.1634905E-1,8.669656E-2,-2.9770467E-1,4.217703E-2,-5.059074E-1,-1.4456158E-2,2.66709E-1,7.465961E-2,5.217013E-1,1.5875545E-1,2.1180764E-1,-7.9628564E-2,-2.6355008E-2,-3.9427006E-1],"categories":[],"categories_nodes":[],"categories_segments":[],"categories_sizes":[],"default_left":[0,0,0,0,0,0,0,0,0,0,0,0,0,0,0,0,0,0,0,0,0,0,0,0,0,0,0,0,0],"id":4,"left_children":[1,3,5,7,9,11,13,-1,15,17,19,21,23,25,27,-1,-1,-1,-1,-1,-1,-1,-1,-1,-1,-1,-1,-1,-1],"loss_changes":[1.8007877E4,5.1127783E3,4.510512E3,9.977627E2,8.887051E2,1.7321523E3,1.1750781E3,0E0,8.6354E2,8.506704E2,4.0610352E2,8.332671E2,1.6463672E2,9.069037E2,2.6832263E2,0E0,0E0,0E0,0E0,0E0,0E0,0E0,0E0,0E0,0E0,0E0,0E0,0E0,0E0],"parents":[2147483647,0,0,1,1,2,2,3,3,4,4,5,5,6,6,8,8,9,9,10,10,11,11,12,12,13,13,14,14],"right_children":[2,4,6,8,10,12,14,-1,16,18,20,22,24,26,28,-1,-1,-1,-1,-1,-1,-1,-1,-1,-1,-1,-1,-1,-1],"split_conditions":[-2.1892121E-1,-5.3142625E-1,7.2946167E-1,-1.3705558E0,5.6911826E-1,1.012592E0,1.5311428E0,2.827501E-1,-8.594103E-1,9.946541E-2,5.8339316E-1,-4.439831E-2,1.1376601E0,-7.108838E-2,-4.8629597E-2,-2.1634905E-1,8.669656E-2,-2.9770467E-1,4.217703E-2,-5.059074E-1,-1.4456158E-2,2.66709E-1,7.465961E-2,5.217013E-1,1.5875545E-1,2.1180764E-1,-7.9628564E-2,-2.6355008E-2,-3.9427006E-1],"split_indices":[8,1,2,1,1,5,2,0,8,5,7,1,1,7,8,0,0,0,0,0,0,0,0,0,0,0,0,0,0],"split_type":[0,0,0,0,0,0,0,0,0,0,0,0,0,0,0,0,0,0,0,0,0,0,0,0,0,0,0,0,0],"sum_hessian":[8.86E2,3.85E2,5.01E2,1.01E2,2.84E2,3.79E2,1.22E2,2.3E1,7.8E1,1.83E2,1.01E2,2.96E2,8.3E1,9.8E1,2.4E1,3E1,4.8E1,1.65E2,1.8E1,9.6E1,5E0,2.06E2,9E1,6.8E1,1.5E1,3.1E1,6.7E1,8E0,1.6E1],"tree_param":{"num_deleted":"0","num_feature":"10","num_nodes":"29","size_leaf_vector":"1"}},{"base_weights":[-1.5742737E-1,4.7706847E0,-4.655893E0,1.1011766E0,5.865702E0,-7.261543E0,-4.802184E-1,2.8894672E-1,-2.8964627E-1,1.0621369E1,5.070335E0,-4.5390487E0,-9.788978E0,5.1443944E0,-2.4526176E0,1.202234E-1,-2.1965562E-1,5.768611E-1,8.238468E-2,2.6821017E-1,1.4448698E-1,-1.8412193E-2,-2.8102884E-1,-2.7607828E-2,-5.050883E-1,3.2467592E-1,-9.675308E-3,7.1347475E-2,-3.1841114E-1],"categories":[],"categories_nodes":[],"categories_segments":[],"categories_sizes":[],"default_left":[0,0,0,0,0,0,0,0,0,0,0,0,0,0,0,0,0,0,0,0,0,0,0,0,0,0,0,0,0],"id":5,"left_children":[1,3,5,7,9,11,13,-1,15,17,19,21,23,25,27,-1,-1,-1,-1,-1,-1,-1,-1,-1,-1,-1,-1,-1,-1],"loss_changes":[1.9132223E4,1.5908965E3,4.872166E3,7.128732E2,6.5294824E2,1.4616904E3,2.1674653E3,0E0,1.12271E3,1.0577051E2,3.0182129E1,6.649502E2,3.3426074E2,3.7984106E2,2.2631633E3,0E0,0E0,0E0,0E0,0E0,0E0,0E0,0E0,0E0,0E0,0E0,0E0,0E0,0E0],"parents":[2147483647,0,0,1,1,2,2,3,3,4,4,5,5,6,6,8,8,9,9,10,10,11,11,12,12,13,13,14,14],"right_children":[2,4,6,8,10,12,14,-1,16,18,20,22,24,26,28,-1,-1,-1,-1,-1,-1,-1,-1,-1,-1,-1,-1,-1,-1],"split_conditions":[-3.4206986E-1,-2.0253812E-1,-2.367198E-1,-1.0179542E0,-1.8031176E0,5.7563645E-1,-9.4828564E-1,2.8894672E-1,6.405566E-1,7.5534403E-1,-5.0062525E-1,2.0773166E-1,-1.5821422E0,6.6353136E-1,2.1024354E-1,1.202234E-1,-2.1965562E-1,5.768611E-1,8.238468E-2,2.6821017E-1,1.4448698E-1,-1.8412193E-2,-2.8102884E-1,-2.7607828E-2,-5.050883E-1,3.2467592E-1,-9.675308E-3,7.1347475E-2,-3.1841114E-1],"split_indices":[0,8,8,0,3,0,3,0,6,6,0,3,2,2,0,0,0,0,0,0,0,0,0,0,0,0,0,0,0],"split_type":[0,0,0,0,0,0,0,0,0,0,0,0,0,0,0,0,0,0,0,0,0,0,0,0,0,0,0,0,0],"sum_hessian":[8.43E2,4.02E2,4.41E2,9.7E1,3.05E2,2.67E2,1.74E2,1.5E1,8.2E1,2.6E1,2.79E2,1.42E2,1.25E2,4.1E1,1.33E2,5.2E1,3E1,2.1E1,5E0,2.33E2,4.6E1,3.2E1,1.1E2,5E0,1.2E2,3.1E1,1E1,7E1,6.3E1],"tree_param":{"num_deleted":"0","num_feature":"10","num_nodes":"29","size_leaf_vector":"1"}},{"base_weights":[-1.2418533E-2,4.1857915E0,-4.932374E0,1.5258086E0,6.461059E0,-6.140436E0,3.0776565E0,3.2059002E0,-9.873707E-1,1.1234655E1,5.3201914E0,-2.2668972E0,-7.8874936E0,5.46611E0,-2.78257E0,2.7280933E-1,9.799508E-2,-2.17494E-1,3.128017E-2,1.4656876E-1,6.5126455E-1,5.4915488E-2,2.7229187E-1,-1.8715711E-1,1.12791575E-1,-2.4247849E-1,-4.698566E-1,3.2830176E-1,7.556939E-2,9.512476E-3,-1.8325111E-1],"categories":[],"categories_nodes":[],"categories_segments":[],"categories_sizes":[],"default_left":[0,0,0,0,0,0,0,0,0,0,0,0,0,0,0,0,0,0,0,0,0,0,0,0,0,0,0,0,0,0,0],"id":6,"left_children":[1,3,5,7,9,11,13,15,17,19,21,23,25,27,29,-1,-1,-1,-1,-1,-1,-1,-1,-1,-1,-1,-1,-1,-1,-1,-1],"loss_changes":[1.8258934E4,2.7883027E3,4.1273633E3,1.0154666E3,7.8558984E2,2.237124E3,9.919111E2,2.9121143E2,5.750006E2,2.1290625E2,5.901123E1,9.190208E2,6.5413086E2,1.0085693E2,6.993359E1,0E0,0E0,0E0,0E0,0E0,0E0,0E0,0E0,0E0,0E0,0E0,0E0,0E0,0E0,0E0,0E0],"parents":[2147483647,0,0,1,1,2,2,3,3,4,4,5,5,6,6,7,7,8,8,9,9,10,10,11,11,12,12,13,13,14,14],"right_children":[2,4,6,8,10,12,14,16,18,20,22,24,26,28,30,-1,-1,-1,-1,-1,-1,-1,-1,-1,-1,-1,-1,-1,-1,-1,-1],"split_conditions":[-1.7820266E-1,7.6439447E-4,5.7314134E-1,-5.1545405E-1,-1.4945318E0,1.7919199E-1,-4.5227864E-1,-9.408639E-1,-4.1986358E-1,5.4960954E-1,-7.4209315E-1,5.356688E-2,2.0199975E-1,1.9801679E0,9.108723E-2,2.7280933E-1,9.799508E-2,-2.17494E-1,3.128017E-2,1.4656876E-1,6.5126455E-1,5.4915488E-2,2.7229187E-1,-1.8715711E-1,1.12791575E-1,-2.4247849E-1,-4.698566E-1,3.2830176E-1,7.556939E-2,9.512476E-3,-1.8325111E-1],"split_indices":[0,8,8,0,3,0,3,0,4,8,6,9,3,5,1,0,0,0,0,0,0,0,0,0,0,0,0,0,0,0,0],"split_type":[0,0,0,0,0,0,0,0,0,0,0,0,0,0,0,0,0,0,0,0,0,0,0,0,0,0,0,0,0,0,0],"sum_hessian":[8.64E2,4.67E2,3.97E2,2.23E2,2.44E2,3.47E2,5E1,1.32E2,9.1E1,3E1,2.14E2,1.15E2,2.32E2,3.6E1,1.4E1,3.5E1,9.7E1,2.4E1,6.7E1,1E1,2E1,9E0,2.05E2,8.8E1,2.7E1,9.1E1,1.41E2,2.3E1,1.3E1,5E0,9E0],"tree_param":{"num_deleted":"0","num_feature":"10","num_nodes":"31","size_leaf_vector":"1"}},{"base_weights":[1.5810353E-1,4.7256117E0,-3.8153026E0,1.1256282E1,3.8009658E0,-8.426678E-1,-6.0109415E0,6.970132E-1,2.2760995E-1,5.9226546E0,2.8288584E0,-1.9122794E0,4.947445E0,5.0870633E-1,-8.092807E0,2.0449905E-2,3.0742037E-1,1.780277E-1,7.823948E-3,-1.310224E-1,9.559471E-2,2.764014E-1,5.2338816E-2,-2.8033683E-1,1.7117684E-1,-1.3195673E-1,-4.284608E-1],"categories":[],"categories_nodes":[],"categories_segments":[],"categories_sizes":[],"default_left":[0,0,0,0,0,0,0,0,0,0,0,0,0,0,0,0,0,0,0,0,0,0,0,0,0,0,0],"id":7,"left_children":[1,3,5,7,9,11,13,-1,-1,15,17,19,21,23,25,-1,-1,-1,-1,-1,-1,-1,-1,-1,-1,-1,-1],"loss_changes":[1.6078439E4,2.060038E3,3.0430664E3,1.9311865E2,6.0795996E2,1.4137546E3,3.719458E3,0E0,0E0,1.10528076E2,5.360657E2,5.565259E2,2.3661743E1,1.5288594E3,3.0907227E2,0E0,0E0,0E0,0E0,0E0,0E0,0E0,0E0,0E0,0E0,0E0,0E0],"parents":[2147483647,0,0,1,1,2,2,3,3,4,4,5,5,6,6,9,9,10,10,11,11,12,12,13,13,14,14],"right_children":[2,4,6,8,10,12,14,-1,-1,16,18,20,22,24,26,-1,-1,-1,-1,-1,-1,-1,-1,-1,-1,-1,-1],"split_conditions":[-3.575661E-1,-1.8586731E0,2.1024354E-1,-3.430059E-1,-9.408639E-1,3.6593384E-1,-4.2898276E-1,6.970132E-1,2.2760995E-1,-1.5890112E0,6.288092E-1,9.521442E-1,1.154792E-1,-6.0345274E-1,-1.6842045E-1,2.0449905E-2,3.0742037E-1,1.780277E-1,7.823948E-3,-1.310224E-1,9.559471E-2,2.764014E-1,5.2338816E-2,-2.8033683E-1,1.7117684E-1,-1.3195673E-1,-4.284608E-1],"split_indices":[0,3,0,6,0,9,3,0,0,1,6,2,0,5,1,0,0,0,0,0,0,0,0,0,0,0,0],"split_type":[0,0,0,0,0,0,0,0,0,0,0,0,0,0,0,0,0,0,0,0,0,0,0,0,0,0,0],"sum_hessian":[8.66E2,4.02E2,4.64E2,3.6E1,3.66E2,2.03E2,2.61E2,1.8E1,1.8E1,9.9E1,2.67E2,1.77E2,2.6E1,6.5E1,1.96E2,5E0,9.4E1,2.07E2,6E1,1.52E2,2.5E1,1.9E1,7E0,1.8E1,4.7E1,2.1E1,1.75E2],"tree_param":{"num_deleted":"0","num_feature":"10","num_nodes":"27","size_leaf_vector":"1"}},{"base_weights":[6.2305253E-2,3.1314156E0,-5.8084364E0,-1.3657601E0,5.0640364E0,-7.002373E0,1.8190655E0,3.5883296E0,-3.2095315E0,9.227592E0,4.0211306E0,-4.1331897E0,-8.920296E0,-1.588539E0,3.5386155E0,-9.3944184E-4,2.2687624E-1,-1.9616084E-1,3.7597183E-2,6.218653E-1,2.3548226E-1,2.3309846E-1,1.2019265E-1,-3.7996194E-1,-3.8283583E-2,-5.3044975E-2,-4.561878E-1,7.663069E-2,-1.79583E-1,6.980028E-2,2.4930406E-1],"categories":[],"categories_nodes":[],"categories_segments":[],"categories_sizes":[],"default_left":[0,0,0,0,0,0,0,0,0,0,0,0,0,0,0,0,0,0,0,0,0,0,0,0,0,0,0,0,0,0,0],"id":8,"left_children":[1,3,5,7,9,11,13,15,17,19,21,23,25,27,29,-1,-1,-1,-1,-1,-1,-1,-1,-1,-1,-1,-1,-1,-1,-1,-1],"loss_changes":[1.5533183E4,4.988458E3,2.8229775E3,1.7410576E3,1.3571416E3,1.0510488E3,3.3747052E2,1.8231708E2,4.111786E2,4.583418E2,2.3616846E2,1.3657964E3,1.3667285E2,1.9884335E2,3.8941437E1,0E0,0E0,0E0,0E0,0E0,0E0,0E0,0E0,0E0,0E0,0E0,0E0,0E0,0E0,0E0,0E0],"parents":[2147483647,0,0,1,1,2,2,3,3,4,4,5,5,6,6,7,7,8,8,9,9,10,10,11,11,12,12,13,13,14,14],"right_children":[2,4,6,8,10,12,14,16,18,20,22,24,26,28,30,-1,-1,-1,-1,-1,-1,-1,-1,-1,-1,-1,-1,-1,-1,-1,-1],"split_conditions":[7.9401925E-2,-2.769906E-1,5.7314134E-1,-1.0917507E0,-3.430059E-1,3.2858488E-1,2.6825196E-1,-1.242516E0,6.2477195E-1,-1.6778855E0,-5.0062525E-1,-8.0281895E-1,-7.7972233E-1,-9.4828564E-1,1.8949617E0,-9.3944184E-4,2.2687624E-1,-1.9616084E-1,3.7597183E-2,6.218653E-1,2.3548226E-1,2.3309846E-1,1.2019265E-1,-3.7996194E-1,-3.8283583E-2,-5.3044975E-2,-4.561878E-1,7.663069E-2,-1.79583E-1,6.980028E-2,2.4930406E-1],"split_indices":[0,8,8,1,6,3,9,8,2,3,0,8,1,3,9,0,0,0,0,0,0,0,0,0,0,0,0,0,0,0,0],"split_type":[0,0,0,0,0,0,0,0,0,0,0,0,0,0,0,0,0,0,0,0,0,0,0,0,0,0,0,0,0,0,0],"sum_hessian":[8.42E2,5.56E2,2.86E2,1.68E2,3.88E2,2.48E2,3.8E1,4.3E1,1.25E2,6.2E1,3.26E2,1.12E2,1.36E2,1.3E1,2.5E1,1.1E1,3.2E1,1.06E2,1.9E1,2.6E1,3.6E1,2.2E2,1.06E2,4.9E1,6.3E1,5E0,1.31E2,6E0,7E0,1.8E1,7E0],"tree_param":{"num_deleted":"0","num_feature":"10","num_nodes":"31","size_leaf_vector":"1"}},{"base_weights":[-6.2791705E-2,4.138306E0,-3.6354475E0,9.438995E0,3.3557236E0,-5.444529E0,2.1261595E-1,5.668015E-1,2.017694E-1,-1.0589067E0,4.2219715E0,-3.1088612E0,-7.327441E0,3.9118712E0,-2.8220987E0,-1.6526726E-1,2.311997E-1,2.7232438E-1,1.7324828E-1,-1.9428702E-1,3.2495867E-2,-1.0966598E-2,-3.825471E-1,6.2719785E-2,3.3688173E-1,6.612091E-2,-2.0351696E-1],"categories":[],"categories_nodes":[],"categories_segments":[],"categories_sizes":[],"default_left":[0,0,0,0,0,0,0,0,0,0,0,0,0,0,0,0,0,0,0,0,0,0,0,0,0,0,0],"id":9,"left_children":[1,3,5,7,9,11,13,-1,-1,15,17,19,21,23,25,-1,-1,-1,-1,-1,-1,-1,-1,-1,-1,-1,-1],"loss_changes":[1.3583569E4,1.4089155E3,3.4157295E3,3.4586914E1,1.4902407E3,1.2366855E3,1.9739434E3,0E0,0E0,1.0464789E3,1.0605713E2,5.0999316E2,3.9022656E2,5.087257E2,5.556423E2,0E0,0E0,0E0,0E0,0E0,0E0,0E0,0E0,0E0,0E0,0E0,0E0],"parents":[2147483647,0,0,1,1,2,2,3,3,4,4,5,5,6,6,9,9,10,10,11,11,12,12,13,13,14,14],"right_children":[2,4,6,8,10,12,14,-1,-1,16,18,20,22,24,26,-1,-1,-1,-1,-1,-1,-1,-1,-1,-1,-1,-1],"split_conditions":[-3.4206986E-1,-1.8031176E0,-1.0352837E-1,-3.430059E-1,-3.5497826E-1,3.7683746E-1,6.4597374E-1,5.668015E-1,2.017694E-1,6.2477195E-1,-9.408639E-1,9.1947186E-1,-1.1601498E0,1.0536846E0,6.6672206E-2,-1.6526726E-1,2.311997E-1,2.7232438E-1,1.7324828E-1,-1.9428702E-1,3.2495867E-2,-1.0966598E-2,-3.825471E-1,6.2719785E-2,3.3688173E-1,6.612091E-2,-2.0351696E-1],"split_indices":[0,3,8,6,8,0,2,0,0,2,0,2,2,5,0,0,0,0,0,0,0,0,0,0,0,0,0],"split_type":[0,0,0,0,0,0,0,0,0,0,0,0,0,0,0,0,0,0,0,0,0,0,0,0,0,0,0],"sum_hessian":[8.85E2,4.06E2,4.79E2,3.8E1,3.68E2,3.23E2,1.56E2,2E1,1.8E1,6E1,3.08E2,1.56E2,1.67E2,6.9E1,8.7E1,4.6E1,1.4E1,9.4E1,2.14E2,1.29E2,2.7E1,8E0,1.59E2,4.3E1,2.6E1,2E1,6.7E1],"tree_param":{"num_deleted":"0","num_feature":"10","num_nodes":"27","size_leaf_vector":"1"}},{"base_weights":[2.4871168E-1,3.7073703E0,-3.5331817E0,1.4160691E-1,4.989402E0,-4.386279E0,2.3875422E0,4.6003237E0,-1.1565464E0,9.878761E0,4.107326E0,-1.1620684E0,-6.2794123E0,3.6807165E0,-1.9728962E-1,2.518713E-1,3.733292E-2,-1.08212784E-1,1.1428436E-1,1.4621286E-1,6.0380983E-1,2.1051697E-1,6.0017006E-3,-1.0214745E-1,1.3760637E-1,-1.8605581E-1,-3.7073678E-1,2.5835082E-1,-4.48688E-2],"categories":[],"categories_nodes":[],"categories_segments":[],"categories_sizes":[],"default_left":[0,0,0,0,0,0,0,0,0,0,0,0,0,0,0,0,0,0,0,0,0,0,0,0,0,0,0,0,0],"id":10,"left_children":[1,3,5,7,9,11,13,15,17,19,21,23,25,27,-1,-1,-1,-1,-1,-1,-1,-1,-1,-1,-1,-1,-1,-1,-1],"loss_changes":[1.1628553E4,2.1140737E3,2.2513804E3,8.2302185E2,1.0649072E3,2.215976E3,6.366398E2,1.6289795E1,4.3450162E2,3.345547E2,1.2063428E2,5.7686334E2,4.0374023E2,4.2061035E2,0E0,0E0,0E0,0E0,0E0,0E0,0E0,0E0,0E0,0E0,0E0,0E0,0E0,0E0,0E0],"parents":[2147483647,0,0,1,1,2,2,3,3,4,4,5,5,6,6,7,7,8,8,9,9,10,10,11,11,12,12,13,13],"right_children":[2,4,6,8,10,12,14,16,18,20,22,24,26,28,-1,-1,-1,-1,-1,-1,-1,-1,-1,-1,-1,-1,-1,-1,-1],"split_conditions":[-2.118798E-1,-2.1892121E-1,5.7314134E-1,-1.3705558E0,-1.4945318E0,1.7919199E-1,1.5221744E0,-5.182094E-1,6.3924056E-1,-1.0917507E0,1.2006446E0,1.1386739E0,7.833412E-2,-4.5227864E-1,-1.9728962E-1,2.518713E-1,3.733292E-2,-1.08212784E-1,1.1428436E-1,1.4621286E-1,6.0380983E-1,2.1051697E-1,6.0017006E-3,-1.0214745E-1,1.3760637E-1,-1.8605581E-1,-3.7073678E-1,2.5835082E-1,-4.48688E-2],"split_indices":[0,8,8,1,3,0,2,8,2,1,3,2,3,3,0,0,0,0,0,0,0,0,0,0,0,0,0,0,0],"split_type":[0,0,0,0,0,0,0,0,0,0,0,0,0,0,0,0,0,0,0,0,0,0,0,0,0,0,0,0,0],"sum_hessian":[8.69E2,4.54E2,4.15E2,1.23E2,3.31E2,3.65E2,5E1,2.2E1,1.01E2,3.5E1,2.96E2,1.41E2,2.24E2,4.5E1,5E0,1.7E1,5E0,8.1E1,2E1,1.4E1,2.1E1,2.88E2,8E0,1.19E2,2.2E1,8.2E1,1.42E2,3.3E1,1.2E1],"tree_param":{"num_deleted":"0","num_feature":"10","num_nodes":"29","size_leaf_vector":"1"}},{"base_weights":[2.0741953E-1,2.7505744E0,-4.5553446E0,-9.359411E-1,4.3695126E0,-5.90629E0,3.0588803E0,-2.2055607E0,2.907751E0,9.20987E0,3.7168174E0,-3.6696172E0,-7.376431E0,4.7767715E0,-1.2646659E-1,1.15411334E-1,-1.9910626E-1,-5.6332286E-2,1.913262E-1,6.945713E-2,5.0768346E-1,2.1115673E-1,1.1283409E-1,-3.5440722E-1,-8.067243E-2,-3.755652E-1,-5.775205E-2,2.8235647E-1,6.697686E-2],"categories":[],"categories_nodes":[],"categories_segments":[],"categories_sizes":[],"default_left":[0,0,0,0,0,0,0,0,0,0,0,0,0,0,0,0,0,0,0,0,0,0,0,0,0,0,0,0,0],"id":11,"left_children":[1,3,5,7,9,11,13,15,17,19,21,23,25,27,-1,-1,-1,-1,-1,-1,-1,-1,-1,-1,-1,-1,-1,-1,-1],"loss_changes":[1.0711577E4,3.478602E3,3.3488774E3,9.62057E2,9.2771533E2,6.006924E2,6.296172E2,1.2466572E3,2.2844614E2,1.6157983E2,1.7897461E2,7.642699E2,3.9106445E1,5.5986023E1,0E0,0E0,0E0,0E0,0E0,0E0,0E0,0E0,0E0,0E0,0E0,0E0,0E0,0E0,0E0],"parents":[2147483647,0,0,1,1,2,2,3,3,4,4,5,5,6,6,7,7,8,8,9,9,10,10,11,11,12,12,13,13],"right_children":[2,4,6,8,10,12,14,16,18,20,22,24,26,28,-1,-1,-1,-1,-1,-1,-1,-1,-1,-1,-1,-1,-1,-1,-1],"split_conditions":[7.9401925E-2,-2.769906E-1,5.7314134E-1,6.4597374E-1,-1.6778855E0,3.2858488E-1,-4.5227864E-1,-7.634738E-1,-4.852092E-1,-5.356458E-1,-4.8377693E-1,-4.4653606E-1,7.965393E-1,1.8642261E0,-1.2646659E-1,1.15411334E-1,-1.9910626E-1,-5.6332286E-2,1.913262E-1,6.945713E-2,5.0768346E-1,2.1115673E-1,1.1283409E-1,-3.5440722E-1,-8.067243E-2,-3.755652E-1,-5.775205E-2,2.8235647E-1,6.697686E-2],"split_indices":[0,8,8,2,3,3,3,0,4,5,0,7,9,7,0,0,0,0,0,0,0,0,0,0,0,0,0,0,0],"split_type":[0,0,0,0,0,0,0,0,0,0,0,0,0,0,0,0,0,0,0,0,0,0,0,0,0,0,0,0,0],"sum_hessian":[8.64E2,5.66E2,2.98E2,1.74E2,3.92E2,2.55E2,4.3E1,1.34E2,4E1,3.1E1,3.61E2,1.15E2,1.4E2,3.4E1,9E0,3.7E1,9.7E1,7E0,3.3E1,6E0,2.5E1,2.54E2,1.07E2,3.4E1,8.1E1,1.35E2,5E0,2.2E1,1.2E1],"tree_param":{"num_deleted":"0","num_feature":"10","num_nodes":"29","size_leaf_vector":"1"}},{"base_weights":[2.1285836E-1,-3.4480743E0,3.039845E0,1.3824526E0,-5.3538446E0,4.526629E0,1.4475816E-1,4.739452E0,-2.4392371E-1,-3.901628E0,-7.138966E0,8.095808E0,3.2824028E0,9.789481E-1,-4.380314E0,2.6542968E-1,5.6311734E-2,-1.08661175E-1,1.16268955E-1,-2.1877198E-1,2.6649242E-2,-3.7102887E-1,-9.1267124E-2,4.5491382E-1,1.0037681E-1,1.7568949E-1,-6.429216E-2,1.3885783E-1,-1.222937E-2,-2.7040824E-1,1.2648995E-2],"categories":[],"categories_nodes":[],"categories_segments":[],"categories_sizes":[],"default_left":[0,0,0,0,0,0,0,0,0,0,0,0,0,0,0,0,0,0,0,0,0,0,0,0,0,0,0,0,0,0,0],"id":12,"left_children":[1,3,5,7,9,11,13,15,17,19,21,23,25,27,29,-1,-1,-1,-1,-1,-1,-1,-1,-1,-1,-1,-1,-1,-1,-1,-1],"loss_changes":[9.232993E3,3.6550996E3,2.1585444E3,6.5581036E2,4.4992334E2,1.2086309E3,7.261143E2,2.0413696E1,4.9170468E2,3.9522803E2,3.513672E1,2.995088E2,3.2318164E2,3.6102026E2,1.5655164E2,0E0,0E0,0E0,0E0,0E0,0E0,0E0,0E0,0E0,0E0,0E0,0E0,0E0,0E0,0E0,0E0],"parents":[2147483647,0,0,1,1,2,2,3,3,4,4,5,5,6,6,7,7,8,8,9,9,10,10,11,11,12,12,13,13,14,14],"right_children":[2,4,6,8,10,12,14,16,18,20,22,24,26,28,30,-1,-1,-1,-1,-1,-1,-1,-1,-1,-1,-1,-1,-1,-1,-1,-1],"split_conditions":[-2.4425305E-1,-5.3142625E-1,4.456309E-1,-1.3437773E0,5.043178E-1,-3.430059E-1,1.5311428E0,-6.2034357E-1,-2.7460518E-1,9.946541E-2,5.6712437E-1,9.7976714E-1,8.969343E-1,-5.1461052E-2,8.3242166E-1,2.6542968E-1,5.6311734E-2,-1.08661175E-1,1.16268955E-1,-2.1877198E-1,2.6649242E-2,-3.7102887E-1,-9.1267124E-2,4.5491382E-1,1.0037681E-1,1.7568949E-1,-6.429216E-2,1.3885783E-1,-1.222937E-2,-2.7040824E-1,1.2648995E-2],"split_indices":[8,1,2,1,1,6,2,8,4,5,7,1,1,7,1,0,0,0,0,0,0,0,0,0,0,0,0,0,0,0,0],"split_type":[0,0,0,0,0,0,0,0,0,0,0,0,0,0,0,0,0,0,0,0,0,0,0,0,0,0,0,0,0,0,0],"sum_hessian":[8.72E2,3.79E2,4.93E2,1.08E2,2.71E2,3.22E2,1.71E2,2.9E1,7.9E1,1.67E2,1.04E2,6.9E1,2.53E2,1.51E2,2E1,2.1E1,8E0,4.6E1,3.3E1,1.51E2,1.6E1,9.5E1,9E0,5.5E1,1.4E1,2.43E2,1E1,5.6E1,9.5E1,1.5E1,5E0],"tree_param":{"num_deleted":"0","num_feature":"10","num_nodes":"31","size_leaf_vector":"1"}},{"base_weights":[-6.0013585E-2,3.2864118E0,-3.5201917E0,8.271313E0,2.61378E0,-9.525302E-1,-4.8886123E0,5.2995944E-1,1.7502743E-1,-1.3675771E0,3.4405477E0,-2.5972831E0,2.501205E0,-1.207962E0,-6.389092E0,-1.5584747E-1,5.9050646E-2,2.5305614E-1,1.3744985E-1,2.4677273E-2,-1.9968788E-1,-1.8872557E-2,1.6671066E-1,-2.4752234E-1,1.10779464E-1,-1.1311495E-1,-3.414144E-1],"categories":[],"categories_nodes":[],"categories_segments":[],"categories_sizes":[],"default_left":[0,0,0,0,0,0,0,0,0,0,0,0,0,0,0,0,0,0,0,0,0,0,0,0,0,0,0],"id":13,"left_children":[1,3,5,7,9,11,13,-1,-1,15,17,19,21,23,25,-1,-1,-1,-1,-1,-1,-1,-1,-1,-1,-1,-1],"loss_changes":[1.0270671E4,1.2960098E3,1.4853818E3,1.7315234E2,1.4032146E3,9.9657214E2,1.4802358E3,0E0,0E0,3.845693E2,2.4639429E2,5.2039764E2,1.516658E2,1.3140647E3,2.0439209E2,0E0,0E0,0E0,0E0,0E0,0E0,0E0,0E0,0E0,0E0,0E0,0E0],"parents":[2147483647,0,0,1,1,2,2,3,3,4,4,5,5,6,6,9,9,10,10,11,11,12,12,13,13,14,14],"right_children":[2,4,6,8,10,12,14,-1,-1,16,18,20,22,24,26,-1,-1,-1,-1,-1,-1,-1,-1,-1,-1,-1,-1],"split_conditions":[-2.118798E-1,-1.8031176E0,1.7919199E-1,-6.4910036E-1,-3.7896964E-1,1.7816454E-2,-1.9418116E-1,5.2995944E-1,1.7502743E-1,-2.5505295E-1,-9.408639E-1,2.0199975E-1,-4.839682E-1,5.325591E-3,-6.2235266E-1,-1.5584747E-1,5.9050646E-2,2.5305614E-1,1.3744985E-1,2.4677273E-2,-1.9968788E-1,-1.8872557E-2,1.6671066E-1,-2.4752234E-1,1.10779464E-1,-1.1311495E-1,-3.414144E-1],"split_indices":[0,3,0,6,8,9,3,0,0,4,0,3,8,7,4,0,0,0,0,0,0,0,0,0,0,0,0],"split_type":[0,0,0,0,0,0,0,0,0,0,0,0,0,0,0,0,0,0,0,0,0,0,0,0,0,0,0],"sum_hessian":[8.67E2,4.41E2,4.26E2,3.9E1,4.02E2,1.54E2,2.72E2,1.8E1,2.1E1,6.8E1,3.34E2,1.06E2,4.8E1,8.4E1,1.88E2,3.9E1,2.9E1,8.1E1,2.53E2,3.5E1,7.1E1,1.2E1,3.6E1,3.8E1,4.6E1,2.4E1,1.64E2],"tree_param":{"num_deleted":"0","num_feature":"10","num_nodes":"27","size_leaf_vector":"1"}},{"base_weights":[-6.627451E-2,-3.186925E0,2.4094353E0,2.1076853E0,-4.518897E0,3.6419246E0,-1.3624686E0,-1.4903266E0,3.333339E0,-3.6115732E0,-7.216429E0,8.621353E0,2.7764578E0,1.5944189E0,-3.5463161E0,1.1215726E-1,-1.7640789E-1,2.2950499E-1,6.162281E-2,-2.0835929E-1,4.1667733E-2,-4.9483534E-2,-3.7794814E-1,4.0973615E-2,5.085954E-1,1.7783292E-1,4.4336822E-2,1.2398583E-1,-1.3573092E-1,-2.0921598E-1,5.4588266E-2],"categories":[],"categories_nodes":[],"categories_segments":[],"categories_sizes":[],"default_left":[0,0,0,0,0,0,0,0,0,0,0,0,0,0,0,0,0,0,0,0,0,0,0,0,0,0,0,0,0,0,0],"id":14,"left_children":[1,3,5,7,9,11,13,15,17,19,21,23,25,27,29,-1,-1,-1,-1,-1,-1,-1,-1,-1,-1,-1,-1,-1,-1,-1,-1],"loss_changes":[6.620561E3,2.7680552E3,2.2717615E3,4.1570068E2,4.8831934E2,1.3249912E3,8.63717E2,2.9217087E2,1.1504907E2,6.496726E2,6.8093994E1,5.0940918E2,4.4615503E2,2.9620172E2,2.6761627E2,0E0,0E0,0E0,0E0,0E0,0E0,0E0,0E0,0E0,0E0,0E0,0E0,0E0,0E0,0E0,0E0],"parents":[2147483647,0,0,1,1,2,2,3,3,4,4,5,5,6,6,7,7,8,8,9,9,10,10,11,11,12,12,13,13,14,14],"right_children":[2,4,6,8,10,12,14,16,18,20,22,24,26,28,30,-1,-1,-1,-1,-1,-1,-1,-1,-1,-1,-1,-1,-1,-1,-1,-1],"split_conditions":[-2.4425305E-1,-9.089796E-1,7.2946167E-1,-1.242516E0,8.858909E-1,-1.8253242E0,1.8896364E-1,-1.5618285E0,-7.165056E-1,9.946541E-2,-6.2877226E-1,-1.0917507E0,-3.0640239E-2,1.1379467E0,3.0854508E-1,1.1215726E-1,-1.7640789E-1,2.2950499E-1,6.162281E-2,-2.0835929E-1,4.1667733E-2,-4.9483534E-2,-3.7794814E-1,4.0973615E-2,5.085954E-1,1.7783292E-1,4.4336822E-2,1.2398583E-1,-1.3573092E-1,-2.0921598E-1,5.4588266E-2],"split_indices":[8,1,2,8,3,3,5,1,8,5,1,1,1,3,6,0,0,0,0,0,0,0,0,0,0,0,0,0,0,0,0],"split_type":[0,0,0,0,0,0,0,0,0,0,0,0,0,0,0,0,0,0,0,0,0,0,0,0,0,0,0,0,0,0,0],"sum_hessian":[8.37E2,3.69E2,4.68E2,7.3E1,2.96E2,3.53E2,1.15E2,1.8E1,5.5E1,2.39E2,5.7E1,3.9E1,3.14E2,5E1,6.5E1,6E0,1.2E1,2.7E1,2.8E1,2.13E2,2.6E1,5E0,5.2E1,9E0,3E1,2.16E2,9.8E1,4.5E1,5E0,5.8E1,7E0],"tree_param":{"num_deleted":"0","num_feature":"10","num_nodes":"31","size_leaf_vector":"1"}},{"base_weights":[-1.5411519E-2,-2.9021523E0,2.6376162E0,9.855208E-1,-4.264564E0,3.167751E0,-5.734162E0,-6.166306E-1,3.4879687E0,-2.503867E0,-6.2010646E0,8.527067E0,2.3064322E0,-1.4683813E-2,-6.7047887E0,1.5947717E-1,-1.2395128E-1,2.3462088E-1,2.0553502E-3,-2.084928E-1,-9.140057E-3,-2.2189195E-1,-3.9049086E-1,4.820884E-1,6.701943E-2,1.6552691E-1,3.7853606E-2,-5.4852784E-2,-3.7790972E-1],"categories":[],"categories_nodes":[],"categories_segments":[],"categories_sizes":[],"default_left":[0,0,0,0,0,0,0,0,0,0,0,0,0,0,0,0,0,0,0,0,0,0,0,0,0,0,0,0,0],"id":15,"left_children":[1,3,5,7,9,11,13,15,17,19,21,23,25,-1,27,-1,-1,-1,-1,-1,-1,-1,-1,-1,-1,-1,-1,-1,-1],"loss_changes":[6.525092E3,2.203046E3,2.1521921E3,4.785681E2,8.81249E2,1.7605469E3,1.3873004E2,6.3198035E2,1.8904327E2,6.7294653E2,4.4862793E1,3.113672E2,5.645553E2,0E0,3.672412E1,0E0,0E0,0E0,0E0,0E0,0E0,0E0,0E0,0E0,0E0,0E0,0E0,0E0,0E0],"parents":[2147483647,0,0,1,1,2,2,3,3,4,4,5,5,6,6,7,7,8,8,9,9,10,10,11,11,12,12,14,14],"right_children":[2,4,6,8,10,12,14,16,18,20,22,24,26,-1,28,-1,-1,-1,-1,-1,-1,-1,-1,-1,-1,-1,-1,-1,-1],"split_conditions":[-1.7371021E-1,-5.3142625E-1,1.5311428E0,6.4597374E-1,6.540317E-1,-1.6778855E0,-1.0177302E-1,-1.4834188E0,1.379402E0,-6.046081E-1,1.0495799E0,-6.4910036E-1,-5.8441307E-2,-1.4683813E-2,1.5398434E-1,1.5947717E-1,-1.2395128E-1,2.3462088E-1,2.0553502E-3,-2.084928E-1,-9.140057E-3,-2.2189195E-1,-3.9049086E-1,4.820884E-1,6.701943E-2,1.6552691E-1,3.7853606E-2,-5.4852784E-2,-3.7790972E-1],"split_indices":[8,1,2,2,3,3,9,2,2,8,3,6,1,0,8,0,0,0,0,0,0,0,0,0,0,0,0,0,0],"split_type":[0,0,0,0,0,0,0,0,0,0,0,0,0,0,0,0,0,0,0,0,0,0,0,0,0,0,0,0,0],"sum_hessian":[8.32E2,3.98E2,4.34E2,1.04E2,2.94E2,4.14E2,2E1,6.8E1,3.6E1,1.66E2,1.28E2,4.5E1,3.69E2,5E0,1.5E1,2E1,4.8E1,2.4E1,1.2E1,9.2E1,7.4E1,7.9E1,4.9E1,3.6E1,9E0,2.17E2,1.52E2,5E0,1E1],"tree_param":{"num_deleted":"0","num_feature":"10","num_nodes":"29","size_leaf_vector":"1"}},{"base_weights":[2.114562E-1,3.1066356E0,-2.701487E0,7.6220474E0,2.398582E0,-3.656692E0,1.6494362E0,3.3194294E0,9.614954E0,-2.9286215E-2,3.174227E0,-1.0690413E0,-5.075701E0,4.921362E0,-1.8923349E0,1.927291E-1,5.37625E-3,9.579181E-2,5.3081506E-1,8.6852215E-2,-1.5882376E-1,2.1775356E-1,1.275008E-1,5.0240356E-2,-1.2009764E-1,-2.638124E-1,4.8346795E-2,3.240056E-2,2.6337814E-1,1.1420089E-2,-2.4143735E-1],"categories":[],"categories_nodes":[],"categories_segments":[],"categories_sizes":[],"default_left":[0,0,0,0,0,0,0,0,0,0,0,0,0,0,0,0,0,0,0,0,0,0,0,0,0,0,0,0,0,0,0],"id":16,"left_children":[1,3,5,7,9,11,13,15,17,19,21,23,25,27,29,-1,-1,-1,-1,-1,-1,-1,-1,-1,-1,-1,-1,-1,-1,-1,-1],"loss_changes":[7.5222656E3,1.2463066E3,1.9097454E3,1.6102246E2,7.5607837E2,1.2969976E3,1.1013204E3,5.257773E1,5.1021973E1,6.499872E2,1.1302222E2,4.194237E2,3.3579834E2,3.6878784E1,3.161694E2,0E0,0E0,0E0,0E0,0E0,0E0,0E0,0E0,0E0,0E0,0E0,0E0,0E0,0E0,0E0,0E0],"parents":[2147483647,0,0,1,1,2,2,3,3,4,4,5,5,6,6,7,7,8,8,9,9,10,10,11,11,12,12,13,13,14,14],"right_children":[2,4,6,8,10,12,14,16,18,20,22,24,26,28,30,-1,-1,-1,-1,-1,-1,-1,-1,-1,-1,-1,-1,-1,-1,-1,-1],"split_conditions":[-2.5357458E-1,-1.6778855E0,7.67284E-1,5.4960954E-1,-2.1892121E-1,1.7919199E-1,-4.5227864E-1,-9.6407974E-1,-1.0917507E0,6.405566E-1,-9.408639E-1,-1.3439736E-1,3.3331714E0,1.416551E-1,6.958259E-1,1.927291E-1,5.37625E-3,9.579181E-2,5.3081506E-1,8.6852215E-2,-1.5882376E-1,2.1775356E-1,1.275008E-1,5.0240356E-2,-1.2009764E-1,-2.638124E-1,4.8346795E-2,3.240056E-2,2.6337814E-1,1.1420089E-2,-2.4143735E-1],"split_indices":[0,3,7,8,8,0,3,0,1,6,0,1,0,8,0,0,0,0,0,0,0,0,0,0,0,0,0,0,0,0,0],"split_type":[0,0,0,0,0,0,0,0,0,0,0,0,0,0,0,0,0,0,0,0,0,0,0,0,0,0,0,0,0,0,0],"sum_hessian":[8.72E2,4.37E2,4.35E2,4.6E1,3.91E2,3.58E2,7.7E1,2.3E1,2.3E1,9.7E1,2.94E2,1.33E2,2.25E2,3.8E1,3.9E1,1.8E1,5E0,6E0,1.7E1,6.5E1,3.2E1,8.1E1,2.13E2,5.3E1,8E1,2.19E2,6E0,5E0,3.3E1,2.8E1,1.1E1],"tree_param":{"num_deleted":"0","num_feature":"10","num_nodes":"31","size_leaf_vector":"1"}},{"base_weights":[4.9186774E-2,3.1401012E0,-2.5641923E0,7.496562E0,2.4626052E0,-3.5827527E0,1.0911751E0,3.202455E0,5.2281564E-1,-4.8321056E-1,3.1024437E0,-1.2534254E0,-4.387752E0,2.4974244E0,-2.6264057E-1,2.0251559E-1,-1.4141417E-2,-1.2437928E-1,2.2810169E-1,2.2835043E-1,1.1584152E-1,-1.2301856E-1,8.086812E-2,-1.647512E-1,-2.921536E-1,2.4117792E-1,1.8600514E-2],"categories":[],"categories_nodes":[],"categories_segments":[],"categories_sizes":[],"default_left":[0,0,0,0,0,0,0,0,0,0,0,0,0,0,0,0,0,0,0,0,0,0,0,0,0,0,0],"id":17,"left_children":[1,3,5,7,9,11,13,15,-1,17,19,21,23,25,-1,-1,-1,-1,-1,-1,-1,-1,-1,-1,-1,-1,-1],"loss_changes":[6.930434E3,9.7532275E2,1.7703877E3,2.751963E2,6.841118E2,6.312925E2,1.1035989E3,1.1192612E2,0E0,8.415889E2,2.3131055E2,4.140008E2,2.3366113E2,4.5667963E2,0E0,0E0,0E0,0E0,0E0,0E0,0E0,0E0,0E0,0E0,0E0,0E0,0E0],"parents":[2147483647,0,0,1,1,2,2,3,3,4,4,5,5,6,6,7,7,9,9,10,10,11,11,12,12,13,13],"right_children":[2,4,6,8,10,12,14,16,-1,18,20,22,24,26,-1,-1,-1,-1,-1,-1,-1,-1,-1,-1,-1,-1,-1],"split_conditions":[-3.575661E-1,-1.8783014E0,1.5398434E-1,-1.0917507E0,-3.1343207E-1,-1.3001055E-1,1.5311428E0,-9.8318774E-1,5.2281564E-1,4.1270313E-1,-9.408639E-1,-4.4500683E-2,5.0612974E-1,-6.515393E-1,-2.6264057E-1,2.0251559E-1,-1.4141417E-2,-1.2437928E-1,2.2810169E-1,2.2835043E-1,1.1584152E-1,-1.2301856E-1,8.086812E-2,-1.647512E-1,-2.921536E-1,2.4117792E-1,1.8600514E-2],"split_indices":[0,3,8,1,8,1,2,0,0,2,0,9,2,3,0,0,0,0,0,0,0,0,0,0,0,0,0],"split_type":[0,0,0,0,0,0,0,0,0,0,0,0,0,0,0,0,0,0,0,0,0,0,0,0,0,0,0],"sum_hessian":[8.38E2,3.83E2,4.55E2,3.8E1,3.45E2,3.56E2,9.9E1,2.4E1,1.4E1,6.2E1,2.83E2,9.8E1,2.58E2,8.6E1,1.3E1,1.8E1,6E0,4.8E1,1.4E1,8.2E1,2.01E2,7E1,2.8E1,1.66E2,9.2E1,3.5E1,5.1E1],"tree_param":{"num_deleted":"0","num_feature":"10","num_nodes":"27","size_leaf_vector":"1"}},{"base_weights":[1.9962069E-2,2.048046E0,-3.948988E0,-5.558357E-1,3.3475664E0,-4.3628936E0,1.8138056E-1,1.9460969E-1,-1.1955479E0,7.635854E0,2.6311507E0,-2.6087577E0,-5.902303E0,-1.045105E-1,1.2391539E-1,4.7388697E-1,6.364005E-2,-2.890177E-2,1.3807087E-1,-2.8021434E-1,-3.292645E-2,-3.907422E-2,-3.014234E-1],"categories":[],"categories_nodes":[],"categories_segments":[],"categories_sizes":[],"default_left":[0,0,0,0,0,0,0,0,0,0,0,0,0,0,0,0,0,0,0,0,0,0,0],"id":18,"left_children":[1,3,5,7,9,11,-1,-1,13,15,17,19,21,-1,-1,-1,-1,-1,-1,-1,-1,-1,-1],"loss_changes":[7.1401694E3,2.004896E3,1.0990684E3,6.270066E2,1.0064619E3,6.2641943E2,0E0,0E0,6.631576E2,4.7708838E2,1.6311548E2,8.5691504E2,4.7213867E1,0E0,0E0,0E0,0E0,0E0,0E0,0E0,0E0,0E0,0E0],"parents":[2147483647,0,0,1,1,2,2,3,3,4,4,5,5,8,8,9,9,10,10,11,11,12,12],"right_children":[2,4,6,8,10,12,-1,-1,14,16,18,20,22,-1,-1,-1,-1,-1,-1,-1,-1,-1,-1],"split_conditions":[9.638811E-2,-2.4425305E-1,1.2483313E0,-1.0029148E0,-1.4945318E0,3.5742354E-1,1.8138056E-1,1.9460969E-1,8.1800115E-1,-3.430059E-1,-9.041713E-1,-8.0281895E-1,-9.814283E-1,-1.045105E-1,1.2391539E-1,4.7388697E-1,6.364005E-2,-2.890177E-2,1.3807087E-1,-2.8021434E-1,-3.292645E-2,-3.907422E-2,-3.014234E-1],"split_indices":[0,8,4,0,3,3,0,0,2,6,6,8,6,0,0,0,0,0,0,0,0,0,0],"split_type":[0,0,0,0,0,0,0,0,0,0,0,0,0,0,0,0,0,0,0,0,0,0,0],"sum_hessian":[8.67E2,5.77E2,2.9E2,1.94E2,3.83E2,2.79E2,1.1E1,1.8E1,1.76E2,4.1E1,3.42E2,1.43E2,1.36E2,1.45E2,3.1E1,2.8E1,1.3E1,1.2E1,3.3E2,4.9E1,9.4E1,5E0,1.31E2],"tree_param":{"num_deleted":"0","num_feature":"10","num_nodes":"23","size_leaf_vector":"1"}},{"base_weights":[1.5522604E-2,1.9741557E0,-3.541599E0,7.8761826E0,1.3331499E0,-4.7651887E-1,-4.7847476E0,3.086841E0,5.102109E-1,-1.4389052E0,2.3704612E0,-3.6604804E-1,1.3458109E0,-1.2177676E0,-5.3185997E0,1.8203883E-1,1.5931575E-3,-1.3360193E-1,1.7770748E-1,1.9356962E-1,9.307201E-2,1.5811566E-1,-1.1438576E-2,-1.7649774E-1,1.1135316E-1,-2.711327E-1,-3.9567243E-2],"categories":[],"categories_nodes":[],"categories_segments":[],"categories_sizes":[],"default_left":[0,0,0,0,0,0,0,0,0,0,0,0,0,0,0,0,0,0,0,0,0,0,0,0,0,0,0],"id":19,"left_children":[1,3,5,7,9,11,13,15,-1,17,19,-1,21,23,25,-1,-1,-1,-1,-1,-1,-1,-1,-1,-1,-1,-1],"loss_changes":[6.1800596E3,2.0590083E3,1.17746E3,2.8709863E2,1.552364E3,1.3707549E3,3.5987744E2,5.299225E1,0E0,1.0185335E3,2.2437036E2,0E0,2.617951E2,4.1314825E2,4.7064453E1,0E0,0E0,0E0,0E0,0E0,0E0,0E0,0E0,0E0,0E0,0E0,0E0],"parents":[2147483647,0,0,1,1,2,2,3,3,4,4,5,5,6,6,7,7,9,9,10,10,12,12,13,13,14,14],"right_children":[2,4,6,8,10,12,14,16,-1,18,20,-1,22,24,26,-1,-1,-1,-1,-1,-1,-1,-1,-1,-1,-1,-1],"split_conditions":[9.638811E-2,-1.6778855E0,-1.9418116E-1,5.4960954E-1,-3.3501875E-1,-1.7079297E0,-1.6842045E-1,-9.618504E-1,5.102109E-1,7.9272413E-1,-9.408639E-1,-3.6604804E-1,-9.8593396E-1,-5.5638485E-2,2.49035E0,1.8203883E-1,1.5931575E-3,-1.3360193E-1,1.7770748E-1,1.9356962E-1,9.307201E-2,1.5811566E-1,-1.1438576E-2,-1.7649774E-1,1.1135316E-1,-2.711327E-1,-3.9567243E-2],"split_indices":[0,3,3,8,8,4,1,0,0,2,0,0,3,9,0,0,0,0,0,0,0,0,0,0,0,0,0],"split_type":[0,0,0,0,0,0,0,0,0,0,0,0,0,0,0,0,0,0,0,0,0,0,0,0,0,0,0],"sum_hessian":[8.67E2,5.62E2,3.05E2,4.4E1,5.18E2,9.2E1,2.13E2,2.2E1,2.2E1,1.4E2,3.78E2,1.3E1,7.9E1,3.2E1,1.81E2,1.7E1,5E0,1.16E2,2.4E1,7.9E1,2.99E2,3.2E1,4.7E1,1.9E1,1.3E1,1.75E2,6E0],"tree_param":{"num_deleted":"0","num_feature":"10","num_nodes":"27","size_leaf_vector":"1"}},{"base_weights":[1.5241595E-1,2.0548747E0,-3.3159199E0,1.3360429E0,6.601857E0,-4.2439914E0,2.2657773E0,-6.22995E-1,2.2429762E0,8.5858023E-1,7.3533487E0,-2.4351974E0,-5.5827055E0,3.5908957E0,-1.583604E0,9.481547E-2,-1.3418815E-1,1.394479E-1,5.059575E-2,1.336938E-1,-7.6455116E-2,5.428955E-1,1.8504913E-1,-2.1819623E-1,-4.765079E-2,-6.98579E-2,-2.957868E-1,5.8218376E-3,2.1989524E-1,1.0114244E-2,-1.1568784E-1],"categories":[],"categories_nodes":[],"categories_segments":[],"categories_sizes":[],"default_left":[0,0,0,0,0,0,0,0,0,0,0,0,0,0,0,0,0,0,0,0,0,0,0,0,0,0,0,0,0,0,0],"id":20,"left_children":[1,3,5,7,9,11,13,15,17,19,21,23,25,27,29,-1,-1,-1,-1,-1,-1,-1,-1,-1,-1,-1,-1,-1,-1,-1,-1],"loss_changes":[5.8087163E3,1.7683135E3,1.712386E3,9.0766205E2,2.6056738E2,5.202656E2,3.1701074E2,9.179065E2,2.0433752E2,1.27573296E2,4.3014697E2,3.3862134E2,1.2364697E2,1.09839905E2,3.0759811E1,0E0,0E0,0E0,0E0,0E0,0E0,0E0,0E0,0E0,0E0,0E0,0E0,0E0,0E0,0E0,0E0],"parents":[2147483647,0,0,1,1,2,2,3,3,4,4,5,5,6,6,7,7,8,8,9,9,10,10,11,11,12,12,13,13,14,14],"right_children":[2,4,6,8,10,12,14,16,18,20,22,24,26,28,30,-1,-1,-1,-1,-1,-1,-1,-1,-1,-1,-1,-1,-1,-1,-1,-1],"split_conditions":[7.9401925E-2,1.012592E0,5.7314134E-1,-3.3501875E-1,-1.0917507E0,3.4316468E-1,-4.040798E-2,-6.843449E-1,-5.0062525E-1,1.6352602E0,-1.6778855E0,-8.594103E-1,-4.0111047E-1,4.993177E-1,4.5492035E-1,9.481547E-2,-1.3418815E-1,1.394479E-1,5.059575E-2,1.336938E-1,-7.6455116E-2,5.428955E-1,1.8504913E-1,-2.1819623E-1,-4.765079E-2,-6.98579E-2,-2.957868E-1,5.8218376E-3,2.1989524E-1,1.0114244E-2,-1.1568784E-1],"split_indices":[0,5,8,8,1,3,3,1,0,4,3,8,1,0,2,0,0,0,0,0,0,0,0,0,0,0,0,0,0,0,0],"split_type":[0,0,0,0,0,0,0,0,0,0,0,0,0,0,0,0,0,0,0,0,0,0,0,0,0,0,0,0,0,0,0],"sum_hessian":[8.6E2,5.58E2,3.02E2,4.93E2,6.5E1,2.61E2,4.1E1,1.57E2,3.36E2,1E1,5.5E1,1.23E2,1.38E2,3.1E1,1E1,7.1E1,8.6E1,2.24E2,1.12E2,5E0,5E0,1.8E1,3.7E1,4.5E1,7.8E1,1.4E1,1.24E2,8E0,2.3E1,5E0,5E0],"tree_param":{"num_deleted":"0","num_feature":"10","num_nodes":"31","size_leaf_vector":"1"}},{"base_weights":[-7.858448E-2,2.4499378E0,-2.328095E0,6.3534746E0,1.8983049E0,-6.4700335E-1,-3.4558353E0,3.087777E0,4.4631743E-1,-7.594966E-1,2.5398047E0,-2.2358434E0,1.7006406E0,-6.2741524E-1,-4.619012E0,2.06006E-1,-3.888637E-2,-1.21182196E-1,1.9688255E-1,1.9399965E-1,9.37993E-2,3.7890315E-2,-1.3449363E-1,3.5591037E-3,1.6567725E-1,-2.8485504E-1,5.0646294E-2,-4.249975E-2,-2.513695E-1],"categories":[],"categories_nodes":[],"categories_segments":[],"categories_sizes":[],"default_left":[0,0,0,0,0,0,0,0,0,0,0,0,0,0,0,0,0,0,0,0,0,0,0,0,0,0,0,0,0],"id":21,"left_children":[1,3,5,7,9,11,13,15,-1,17,19,21,23,25,27,-1,-1,-1,-1,-1,-1,-1,-1,-1,-1,-1,-1,-1,-1],"loss_changes":[4.9998545E3,7.7086597E2,8.592036E2,1.1927905E2,6.6206665E2,7.8029974E2,8.790464E2,1.7570227E2,0E0,7.2859106E2,1.9944226E2,1.8756604E2,2.236632E2,8.2278064E2,2.5586963E2,0E0,0E0,0E0,0E0,0E0,0E0,0E0,0E0,0E0,0E0,0E0,0E0,0E0,0E0],"parents":[2147483647,0,0,1,1,2,2,3,3,4,4,5,5,6,6,7,7,9,9,10,10,11,11,12,12,13,13,14,14],"right_children":[2,4,6,8,10,12,14,16,-1,18,20,22,24,26,28,-1,-1,-1,-1,-1,-1,-1,-1,-1,-1,-1,-1,-1,-1],"split_conditions":[-3.0844712E-1,-1.8031176E0,1.7919199E-1,1.2587374E-1,-3.1343207E-1,-4.4500683E-2,-1.9418116E-1,-9.8318774E-1,4.4631743E-1,6.2477195E-1,-9.408639E-1,-2.7753344E-1,-1.3401033E-2,-1.7079297E0,-1.6842045E-1,2.06006E-1,-3.888637E-2,-1.21182196E-1,1.9688255E-1,1.9399965E-1,9.37993E-2,3.7890315E-2,-1.3449363E-1,3.5591037E-3,1.6567725E-1,-2.8485504E-1,5.0646294E-2,-4.249975E-2,-2.513695E-1],"split_indices":[0,3,0,9,8,9,3,0,0,2,0,3,0,4,1,0,0,0,0,0,0,0,0,0,0,0,0,0,0],"split_type":[0,0,0,0,0,0,0,0,0,0,0,0,0,0,0,0,0,0,0,0,0,0,0,0,0,0,0,0,0],"sum_hessian":[8.59E2,4.04E2,4.55E2,3.7E1,3.67E2,1.89E2,2.66E2,2.6E1,1.1E1,7.1E1,2.96E2,1.13E2,7.6E1,8.2E1,1.84E2,2E1,6E0,5.6E1,1.5E1,8.2E1,2.14E2,1.4E1,9.9E1,4.3E1,3.3E1,1.4E1,6.8E1,2.1E1,1.63E2],"tree_param":{"num_deleted":"0","num_feature":"10","num_nodes":"29","size_leaf_vector":"1"}},{"base_weights":[3.9194424E-2,2.506761E0,-2.25531E0,6.613338E0,1.9644779E0,-1.4464122E0,-5.5484533E0,4.1274196E-1,9.9910066E-2,2.5027866E0,5.581754E-1,-4.7266427E-1,-3.63223E0,2.0856299E-2,-5.968196E0,-6.869396E-2,1.3122796E-1,1.1728102E-1,-3.7231714E-2,-6.873E-2,8.419614E-2,-2.3073757E-1,1.1521342E-1,-3.1261608E-1,-4.5311857E-2],"categories":[],"categories_nodes":[],"categories_segments":[],"categories_sizes":[],"default_left":[0,0,0,0,0,0,0,0,0,0,0,0,0,0,0,0,0,0,0,0,0,0,0,0,0],"id":22,"left_children":[1,3,5,7,9,11,13,-1,-1,15,17,19,21,-1,23,-1,-1,-1,-1,-1,-1,-1,-1,-1,-1],"loss_changes":[4.959691E3,8.098457E2,1.1291194E3,1.7596057E2,2.7899878E2,7.873803E2,2.402395E2,0E0,0E0,1.6682202E2,2.9691037E2,5.541603E2,7.7710095E2,0E0,5.9835693E1,0E0,0E0,0E0,0E0,0E0,0E0,0E0,0E0,0E0,0E0],"parents":[2147483647,0,0,1,1,2,2,3,3,4,4,5,5,6,6,9,9,10,10,11,11,12,12,14,14],"right_children":[2,4,6,8,10,12,14,-1,-1,16,18,20,22,-1,24,-1,-1,-1,-1,-1,-1,-1,-1,-1,-1],"split_conditions":[-3.0844712E-1,-1.8783014E0,9.08169E-1,-6.4910036E-1,6.003918E-1,1.1321721E0,-7.7972233E-1,4.1274196E-1,9.9910066E-2,-1.8488822E0,-9.249996E-1,1.7051499E-1,1.0942718E0,2.0856299E-2,1.4496773E0,-6.869396E-2,1.3122796E-1,1.1728102E-1,-3.7231714E-2,-6.873E-2,8.419614E-2,-2.3073757E-1,1.1521342E-1,-3.1261608E-1,-4.5311857E-2],"split_indices":[0,3,3,6,6,0,1,0,0,4,0,9,7,0,1,0,0,0,0,0,0,0,0,0,0],"split_type":[0,0,0,0,0,0,0,0,0,0,0,0,0,0,0,0,0,0,0,0,0,0,0,0,0],"sum_hessian":[8.56E2,4.12E2,4.44E2,3.5E1,3.77E2,3.68E2,7.6E1,2E1,1.5E1,2.67E2,1.1E2,2.63E2,1.05E2,5E0,7.1E1,5E0,2.62E2,4.3E1,6.7E1,1.88E2,7.5E1,9.2E1,1.3E1,6.5E1,6E0],"tree_param":{"num_deleted":"0","num_feature":"10","num_nodes":"25","size_leaf_vector":"1"}},{"base_weights":[1.7498078E-2,1.6757662E0,-2.9668694E0,6.7716208E0,1.1178612E0,-4.0466003E0,2.5374045E0,4.5046005E-2,3.6022392E-1,-1.1864102E0,2.1063662E0,-2.235772E0,-5.303607E0,3.5360024E0,-8.1073606E-1,-7.980024E-2,1.4429972E-1,-4.9851354E-2,1.10763825E-1,-3.4451637E-1,-4.7565628E-2,-8.970882E-2,-2.9257068E-1,-2.4696356E-2,2.1413198E-1,6.690451E-2,-1.2811634E-1],"categories":[],"categories_nodes":[],"categories_segments":[],"categories_sizes":[],"default_left":[0,0,0,0,0,0,0,0,0,0,0,0,0,0,0,0,0,0,0,0,0,0,0,0,0,0,0],"id":23,"left_children":[1,3,5,7,9,11,13,-1,-1,15,17,19,21,23,25,-1,-1,-1,-1,-1,-1,-1,-1,-1,-1,-1,-1],"loss_changes":[4.211727E3,1.4794255E3,1.9093921E3,6.7234375E1,1.1752709E3,4.6868896E2,2.1590067E2,0E0,0E0,3.0961005E2,1.4274976E2,6.698177E2,1.7377588E2,1.565534E2,1.13327385E2,0E0,0E0,0E0,0E0,0E0,0E0,0E0,0E0,0E0,0E0,0E0,0E0],"parents":[2147483647,0,0,1,1,2,2,3,3,4,4,5,5,6,6,9,9,10,10,11,11,12,12,13,13,14,14],"right_children":[2,4,6,8,10,12,14,-1,-1,16,18,20,22,24,26,-1,-1,-1,-1,-1,-1,-1,-1,-1,-1,-1,-1],"split_conditions":[7.9401925E-2,-1.8031176E0,5.7314134E-1,-7.885214E-1,-3.3501875E-1,2.9870456E-1,-4.5227864E-1,4.5046005E-2,3.6022392E-1,2.509478E-1,-9.446889E-1,-1.6269375E0,-2.9116735E-1,4.993177E-1,4.190071E-1,-7.980024E-2,1.4429972E-1,-4.9851354E-2,1.10763825E-1,-3.4451637E-1,-4.7565628E-2,-8.970882E-2,-2.9257068E-1,-2.4696356E-2,2.1413198E-1,6.690451E-2,-1.2811634E-1],"split_indices":[0,3,8,9,8,3,3,0,0,9,6,4,4,0,0,0,0,0,0,0,0,0,0,0,0,0,0],"split_type":[0,0,0,0,0,0,0,0,0,0,0,0,0,0,0,0,0,0,0,0,0,0,0,0,0,0,0],"sum_hessian":[8.31E2,5.37E2,2.94E2,4.2E1,4.95E2,2.48E2,4.6E1,5E0,3.7E1,1.48E2,3.47E2,1.13E2,1.35E2,3.5E1,1.1E1,1.4E2,8E0,9E0,3.38E2,1.5E1,9.8E1,2.4E1,1.11E2,6E0,2.9E1,6E0,5E0],"tree_param":{"num_deleted":"0","num_feature":"10","num_nodes":"27","size_leaf_vector":"1"}},{"base_weights":[7.0731193E-3,2.2757869E0,-2.0627859E0,5.051741E0,1.6755104E0,-2.366352E0,4.681027E0,5.4864125E0,-8.534228E-3,3.152443E0,1.277311E0,-1.9666536E0,-3.298031E-1,3.194798E-2,2.724423E-1,8.9781724E-2,3.1248933E-1,1.6395225E-1,2.5532303E-2,1.0093581E-1,2.113716E-3,-1.1564156E-1,4.0077664E-2],"categories":[],"categories_nodes":[],"categories_segments":[],"categories_sizes":[],"default_left":[0,0,0,0,0,0,0,0,0,0,0,0,0,0,0,0,0,0,0,0,0,0,0],"id":24,"left_children":[1,3,5,7,9,11,13,15,-1,17,19,21,-1,-1,-1,-1,-1,-1,-1,-1,-1,-1,-1],"loss_changes":[4.0948254E3,6.0855493E2,1.0442899E3,1.659972E2,1.6969012E2,6.19218E2,3.6566345E1,6.809314E1,0E0,6.333191E0,2.7201407E2,4.2006274E2,0E0,0E0,0E0,0E0,0E0,0E0,0E0,0E0,0E0,0E0,0E0],"parents":[2147483647,0,0,1,1,2,2,3,3,4,4,5,5,6,6,7,7,9,9,10,10,11,11],"right_children":[2,4,6,8,10,12,14,16,-1,18,20,22,-1,-1,-1,-1,-1,-1,-1,-1,-1,-1,-1],"split_conditions":[-3.0844712E-1,-3.430059E-1,1.2483313E0,2.4219188E-1,-1.0088433E0,1.7220594E0,2.788791E-1,-1.0917507E0,-8.534228E-3,5.176127E-1,4.8372835E-1,7.971372E-1,-3.298031E-1,3.194798E-2,2.724423E-1,8.9781724E-2,3.1248933E-1,1.6395225E-1,2.5532303E-2,1.0093581E-1,2.113716E-3,-1.1564156E-1,4.0077664E-2],"split_indices":[0,6,4,1,0,2,9,1,0,4,6,5,0,0,0,0,0,0,0,0,0,0,0],"split_type":[0,0,0,0,0,0,0,0,0,0,0,0,0,0,0,0,0,0,0,0,0,0,0],"sum_hessian":[8.52E2,4.06E2,4.46E2,5.9E1,3.47E2,4.33E2,1.3E1,5.4E1,5E0,5.9E1,2.88E2,4.09E2,2.4E1,5E0,8E0,1.5E1,3.9E1,5.4E1,5E0,1.76E2,1.12E2,3.65E2,4.4E1],"tree_param":{"num_deleted":"0","num_feature":"10","num_nodes":"23","size_leaf_vector":"1"}},{"base_weights":[1.0762836E-1,-2.0136743E0,1.7038045E0,9.157755E-1,-3.2017703E0,2.0895936E0,-4.277788E0,-4.4418555E-1,3.2206423E0,-2.127955E0,-4.5013976E0,5.3721547E0,1.4127378E0,-8.1513723E-4,-5.006905E0,1.2672703E-1,-9.309529E-2,-1.935145E-2,1.8841793E-1,-1.6422161E-1,6.872632E-2,-1.3011897E-1,-3.018719E-1,3.1605777E-1,2.8177325E-2,7.9621054E-2,-1.1671169E-1,-1.5540709E-2,-2.9278758E-1],"categories":[],"categories_nodes":[],"categories_segments":[],"categories_sizes":[],"default_left":[0,0,0,0,0,0,0,0,0,0,0,0,0,0,0,0,0,0,0,0,0,0,0,0,0,0,0,0,0],"id":25,"left_children":[1,3,5,7,9,11,13,15,17,19,21,23,25,-1,27,-1,-1,-1,-1,-1,-1,-1,-1,-1,-1,-1,-1,-1,-1],"loss_changes":[3.010579E3,1.3588597E3,1.2593582E3,3.8418008E2,2.8659546E2,9.972449E2,1.0482587E2,3.976997E2,1.0350375E2,7.296866E2,1.7833423E2,3.2488403E2,3.1590375E2,0E0,9.7401E1,0E0,0E0,0E0,0E0,0E0,0E0,0E0,0E0,0E0,0E0,0E0,0E0,0E0,0E0],"parents":[2147483647,0,0,1,1,2,2,3,3,4,4,5,5,6,6,7,7,8,8,9,9,10,10,11,11,12,12,14,14],"right_children":[2,4,6,8,10,12,14,16,18,20,22,24,26,-1,28,-1,-1,-1,-1,-1,-1,-1,-1,-1,-1,-1,-1,-1,-1],"split_conditions":[-2.4425305E-1,-5.3142625E-1,1.5311428E0,6.4597374E-1,6.540317E-1,-1.2828064E0,-1.0177302E-1,-1.4945318E0,-7.971704E-1,-5.495436E-1,3.4978184E-1,5.9113175E-1,1.3694576E0,-8.1513723E-4,-5.388464E-2,1.2672703E-1,-9.309529E-2,-1.935145E-2,1.8841793E-1,-1.6422161E-1,6.872632E-2,-1.3011897E-1,-3.018719E-1,3.1605777E-1,2.8177325E-2,7.9621054E-2,-1.1671169E-1,-1.5540709E-2,-2.9278758E-1],"split_indices":[8,1,2,2,3,3,9,3,4,8,2,6,3,0,8,0,0,0,0,0,0,0,0,0,0,0,0,0,0],"split_type":[0,0,0,0,0,0,0,0,0,0,0,0,0,0,0,0,0,0,0,0,0,0,0,0,0,0,0,0,0],"sum_hessian":[8.69E2,3.72E2,4.97E2,1.08E2,2.64E2,4.73E2,2.4E1,7.3E1,3.5E1,1.59E2,1.05E2,6.9E1,4.04E2,5E0,1.9E1,2.1E1,5.2E1,5E0,3E1,1.2E2,3.9E1,5.9E1,4.6E1,5.5E1,1.4E1,3.91E2,1.3E1,5E0,1.4E1],"tree_param":{"num_deleted":"0","num_feature":"10","num_nodes":"29","size_leaf_vector":"1"}},{"base_weights":[1.7620346E-1,1.7080394E0,-2.7447886E0,1.1894305E0,5.480251E0,-3.0576437E0,1.5741794E-1,-7.7127093E-1,1.882008E0,1.2265165E0,3.3528635E-1,-3.214877E0,9.7886875E-2,1.7206384E-1,-7.149508E-2,1.6199549E-1,6.95261E-2,-2.309381E-2,9.100929E-2,-1.7170429E-1,4.783254E-2],"categories":[],"categories_nodes":[],"categories_segments":[],"categories_sizes":[],"default_left":[0,0,0,0,0,0,0,0,0,0,0,0,0,0,0,0,0,0,0,0,0],"id":26,"left_children":[1,3,5,7,9,11,-1,13,15,17,-1,19,-1,-1,-1,-1,-1,-1,-1,-1,-1],"loss_changes":[3.8859866E3,1.0479523E3,6.4753174E2,7.111374E2,2.6180115E2,2.9083984E2,0E0,4.4041318E2,2.0989124E2,3.5470364E1,0E0,2.925525E2,0E0,0E0,0E0,0E0,0E0,0E0,0E0,0E0,0E0],"parents":[2147483647,0,0,1,1,2,2,3,3,4,4,5,5,7,7,8,8,9,9,11,11],"right_children":[2,4,6,8,10,12,-1,14,16,18,-1,20,-1,-1,-1,-1,-1,-1,-1,-1,-1],"split_conditions":[9.638811E-2,1.073252E0,1.2483313E0,-4.0926552E-1,-8.363521E-3,3.3331714E0,1.5741794E-1,-1.5890112E0,-9.408639E-1,-1.0384715E0,3.3528635E-1,2.1576838E0,9.7886875E-2,1.7206384E-1,-7.149508E-2,1.6199549E-1,6.95261E-2,-2.309381E-2,9.100929E-2,-1.7170429E-1,4.783254E-2],"split_indices":[0,5,4,8,7,0,0,1,0,1,0,8,0,0,0,0,0,0,0,0,0],"split_type":[0,0,0,0,0,0,0,0,0,0,0,0,0,0,0,0,0,0,0,0,0],"sum_hessian":[8.48E2,5.59E2,2.89E2,5.03E2,5.6E1,2.79E2,1E1,1.31E2,3.72E2,1.7E1,3.9E1,2.74E2,5E0,1.2E1,1.19E2,8.4E1,2.88E2,5E0,1.2E1,2.62E2,1.2E1],"tree_param":{"num_deleted":"0","num_feature":"10","num_nodes":"21","size_leaf_vector":"1"}},{"base_weights":[-1.8365502E-2,-1.644906E0,1.5445119E0,1.4402E0,-2.3304985E0,5.2204638E0,9.646538E-1,-2.0978904E0,2.6852665E0,-1.7422457E0,-6.303021E0,6.4967527E0,-1.1749005E-1,1.9765081E0,-2.7135542E-1,5.3291168E-2,-1.624528E-1,4.723649E-2,1.83373E-1,-1.6095607E-1,-1.5012184E-2,-5.9075948E-2,-3.3329883E-1,1.0783286E-2,3.852522E-1,1.0976028E-1,-8.837974E-3,1.02191664E-1,-3.8703658E-2],"categories":[],"categories_nodes":[],"categories_segments":[],"categories_sizes":[],"default_left":[0,0,0,0,0,0,0,0,0,0,0,0,0,0,0,0,0,0,0,0,0,0,0,0,0,0,0,0,0],"id":27,"left_children":[1,3,5,7,9,11,13,15,17,19,21,23,-1,25,27,-1,-1,-1,-1,-1,-1,-1,-1,-1,-1,-1,-1,-1,-1],"loss_changes":[2.2776917E3,9.6210376E2,9.237501E2,4.3517755E2,7.3846155E2,7.3237134E2,5.1438245E2,1.3660402E2,8.160135E1,6.9312177E2,1.1722412E0,3.9320996E2,0E0,1.0983588E2,2.3928694E2,0E0,0E0,0E0,0E0,0E0,0E0,0E0,0E0,0E0,0E0,0E0,0E0,0E0,0E0],"parents":[2147483647,0,0,1,1,2,2,3,3,4,4,5,5,6,6,7,7,8,8,9,9,10,10,11,11,13,13,14,14],"right_children":[2,4,6,8,10,12,14,16,18,20,22,24,-1,26,28,-1,-1,-1,-1,-1,-1,-1,-1,-1,-1,-1,-1,-1,-1],"split_conditions":[-1.7371021E-1,-9.089796E-1,-1.6778855E0,-1.242516E0,1.2206264E0,5.381678E-1,-5.8441307E-2,-1.5890112E0,-9.070797E-1,-6.078429E-1,2.6367193E-1,-1.3347958E0,-1.1749005E-1,1.4187748E0,-4.5803598E-1,5.3291168E-2,-1.624528E-1,4.723649E-2,1.83373E-1,-1.6095607E-1,-1.5012184E-2,-5.9075948E-2,-3.3329883E-1,1.0783286E-2,3.852522E-1,1.0976028E-1,-8.837974E-3,1.02191664E-1,-3.8703658E-2],"split_indices":[8,1,3,8,3,2,1,1,7,8,2,1,0,4,2,0,0,0,0,0,0,0,0,0,0,0,0,0,0],"split_type":[0,0,0,0,0,0,0,0,0,0,0,0,0,0,0,0,0,0,0,0,0,0,0,0,0,0,0,0,0],"sum_hessian":[8.76E2,4.29E2,4.47E2,7.6E1,3.53E2,5E1,3.97E2,1.8E1,5.8E1,3.2E2,3.3E1,4.4E1,6E0,2.15E2,1.82E2,5E0,1.3E1,2.8E1,3E1,1.52E2,1.68E2,5E0,2.8E1,9E0,3.5E1,1.95E2,2E1,2.7E1,1.55E2],"tree_param":{"num_deleted":"0","num_feature":"10","num_nodes":"29","size_leaf_vector":"1"}},{"base_weights":[1.4695822E-1,-1.7824539E0,1.5346214E0,1.7811673E0,-2.706334E0,2.2749639E0,-6.7948484E-1,-1.3500885E0,3.0804665E0,-2.0713425E0,-5.6432376E0,1.3707424E0,4.792396E0,6.680402E-1,-3.0563483E0,1.015841E-1,-1.5914862E-1,1.9422276E-1,6.866867E-2,-1.21092916E-1,9.989706E-3,-6.2090337E-2,-3.1138417E-1,9.518524E-2,8.845522E-3,2.3594353E-2,2.7581784E-1,-2.8984512E-3,1.4829844E-1,8.822785E-3,-1.72305E-1],"categories":[],"categories_nodes":[],"categories_segments":[],"categories_sizes":[],"default_left":[0,0,0,0,0,0,0,0,0,0,0,0,0,0,0,0,0,0,0,0,0,0,0,0,0,0,0,0,0,0,0],"id":28,"left_children":[1,3,5,7,9,11,13,15,17,19,21,23,25,27,29,-1,-1,-1,-1,-1,-1,-1,-1,-1,-1,-1,-1,-1,-1,-1,-1],"loss_changes":[2.3593467E3,1.2630847E3,8.5472705E2,3.7520096E2,4.3698706E2,8.1296655E2,4.560097E2,2.5681802E2,3.0373352E1,2.118169E2,4.3566895E1,1.8623987E2,2.8050122E2,1.602095E2,7.034039E1,0E0,0E0,0E0,0E0,0E0,0E0,0E0,0E0,0E0,0E0,0E0,0E0,0E0,0E0,0E0,0E0],"parents":[2147483647,0,0,1,1,2,2,3,3,4,4,5,5,6,6,7,7,8,8,9,9,10,10,11,11,12,12,13,13,14,14],"right_children":[2,4,6,8,10,12,14,16,18,20,22,24,26,28,30,-1,-1,-1,-1,-1,-1,-1,-1,-1,-1,-1,-1,-1,-1,-1,-1],"split_conditions":[-2.4425305E-1,-9.089796E-1,7.2946167E-1,-1.242516E0,1.019524E0,1.012592E0,5.6951874E-1,-1.5618285E0,6.2053084E-1,4.241129E-1,-4.0111047E-1,-4.439831E-2,-1.0542504E0,3.922392E-1,-7.4209315E-1,1.015841E-1,-1.5914862E-1,1.9422276E-1,6.866867E-2,-1.21092916E-1,9.989706E-3,-6.2090337E-2,-3.1138417E-1,9.518524E-2,8.845522E-3,2.3594353E-2,2.7581784E-1,-2.8984512E-3,1.4829844E-1,8.822785E-3,-1.72305E-1],"split_indices":[8,1,2,8,2,5,5,1,6,7,1,1,1,5,6,0,0,0,0,0,0,0,0,0,0,0,0,0,0,0,0],"split_type":[0,0,0,0,0,0,0,0,0,0,0,0,0,0,0,0,0,0,0,0,0,0,0,0,0,0,0,0,0,0,0],"sum_hessian":[8.61E2,3.59E2,5.02E2,7.2E1,2.87E2,3.76E2,1.26E2,2.1E1,5.1E1,2.5E2,3.7E1,2.88E2,8.8E1,8.5E1,4.1E1,7E0,1.4E1,2.6E1,2.5E1,2.16E2,3.4E1,8E0,2.9E1,1.95E2,9.3E1,1.5E1,7.3E1,7.2E1,1.3E1,5E0,3.6E1],"tree_param":{"num_deleted":"0","num_feature":"10","num_nodes":"31","size_leaf_vector":"1"}},{"base_weights":[-2.8248394E-2,1.4170822E0,-2.739067E0,5.368331E0,1.0170171E0,-3.4114373E0,9.7982943E-1,3.644196E-1,1.7165498E0,1.8015022E0,6.2365208E-2,-2.1864188E0,-4.708269E0,3.1082368E0,-2.4574363E0,1.0784071E-1,-9.547081E-3,-8.4376894E-2,9.587251E-2,-4.923722E-2,9.813211E-2,-1.654392E-1,-2.0092553E-2,7.293559E-2,-2.548246E-1,2.543694E-1,-1.2423893E-2,2.8193614E-2,-2.1406765E-1],"categories":[],"categories_nodes":[],"categories_segments":[],"categories_sizes":[],"default_left":[0,0,0,0,0,0,0,0,0,0,0,0,0,0,0,0,0,0,0,0,0,0,0,0,0,0,0,0,0],"id":29,"left_children":[1,3,5,7,9,11,13,-1,15,17,19,21,23,25,27,-1,-1,-1,-1,-1,-1,-1,-1,-1,-1,-1,-1,-1,-1],"loss_changes":[3.549369E3,8.7963025E2,8.210757E2,2.3949658E2,4.100282E2,3.2440283E2,4.8607343E2,0E0,3.0152077E1,1.5412628E2,5.3269495E2,3.011646E2,3.6643066E2,2.7173544E2,1.7292798E2,0E0,0E0,0E0,0E0,0E0,0E0,0E0,0E0,0E0,0E0,0E0,0E0,0E0,0E0],"parents":[2147483647,0,0,1,1,2,2,3,3,4,4,5,5,6,6,8,8,9,9,10,10,11,11,12,12,13,13,14,14],"right_children":[2,4,6,8,10,12,14,-1,16,18,20,22,24,26,28,-1,-1,-1,-1,-1,-1,-1,-1,-1,-1,-1,-1,-1,-1],"split_conditions":[9.638811E-2,-1.8031176E0,8.9553106E-1,-6.4910036E-1,-5.35004E-1,4.6475366E-1,-4.5227864E-1,3.644196E-1,-3.7312683E-1,-2.2452629E0,6.3924056E-1,-3.683551E-1,-7.7972233E-1,1.8642261E0,2.5867668E-1,1.0784071E-1,-9.547081E-3,-8.4376894E-2,9.587251E-2,-4.923722E-2,9.813211E-2,-1.654392E-1,-2.0092553E-2,7.293559E-2,-2.548246E-1,2.543694E-1,-1.2423893E-2,2.8193614E-2,-2.1406765E-1],"split_indices":[0,3,7,6,0,2,3,0,4,4,2,7,1,7,5,0,0,0,0,0,0,0,0,0,0,0,0,0,0],"split_type":[0,0,0,0,0,0,0,0,0,0,0,0,0,0,0,0,0,0,0,0,0,0,0,0,0,0,0,0,0],"sum_hessian":[8.86E2,5.81E2,3.05E2,4.2E1,5.39E2,2.59E2,4.6E1,2.1E1,2.1E1,2.91E2,2.48E2,1.47E2,1.12E2,2.9E1,1.7E1,1.6E1,5E0,5E0,2.86E2,1.63E2,8.5E1,8.5E1,6.2E1,5E0,1.07E2,1.5E1,1.4E1,9E0,8E0],"tree_param":{"num_deleted":"0","num_feature":"10","num_nodes":"29","size_leaf_vector":"1"}},{"base_weights":[1.4544906E-1,2.2409403E0,-1.0919913E0,4.84756E0,1.6023455E0,-1.4907485E0,2.351373E0,3.1693605E-1,2.5172994E0,2.7425475E0,1.0916805E0,-2.9568347E-1,-2.5167725E0,3.534997E0,-1.85699E-1,-3.4361165E-2,1.585719E-1,1.4613372E-1,2.4920113E-2,-2.9558366E-2,7.8667454E-2,-3.872349E-2,1.1071239E-1,-7.924142E-2,-1.6994391E-1,2.4051848E-1,-1.0813713E-3],"categories":[],"categories_nodes":[],"categories_segments":[],"categories_sizes":[],"default_left":[0,0,0,0,0,0,0,0,0,0,0,0,0,0,0,0,0,0,0,0,0,0,0,0,0,0,0],"id":30,"left_children":[1,3,5,7,9,11,13,-1,15,17,19,21,23,25,-1,-1,-1,-1,-1,-1,-1,-1,-1,-1,-1,-1,-1],"loss_changes":[2.306351E3,4.7163477E2,8.0397015E2,4.8923096E1,1.3309332E2,6.1545044E2,5.7639307E2,0E0,1.0564293E2,1.777179E1,1.7952184E2,3.1277197E2,1.6973755E2,2.5959357E2,0E0,0E0,0E0,0E0,0E0,0E0,0E0,0E0,0E0,0E0,0E0,0E0,0E0],"parents":[2147483647,0,0,1,1,2,2,3,3,4,4,5,5,6,6,8,8,9,9,10,10,11,11,12,12,13,13],"right_children":[2,4,6,8,10,12,14,-1,16,18,20,22,24,26,-1,-1,-1,-1,-1,-1,-1,-1,-1,-1,-1,-1,-1],"split_conditions":[-5.1545405E-1,-3.430059E-1,1.073252E0,-9.669517E-1,-9.85941E-1,9.638811E-2,1.5221744E0,3.1693605E-1,-1.0917507E0,1.168273E0,-8.2256275E-1,9.521442E-1,4.361618E-1,2.1894977E0,-1.85699E-1,-3.4361165E-2,1.585719E-1,1.4613372E-1,2.4920113E-2,-2.9558366E-2,7.8667454E-2,-3.872349E-2,1.1071239E-1,-7.924142E-2,-1.6994391E-1,2.4051848E-1,-1.0813713E-3],"split_indices":[0,6,5,0,0,0,2,0,1,6,7,2,2,5,0,0,0,0,0,0,0,0,0,0,0,0,0],"split_type":[0,0,0,0,0,0,0,0,0,0,0,0,0,0,0,0,0,0,0,0,0,0,0,0,0,0,0],"sum_hessian":[8.7E2,3.2E2,5.5E2,5E1,2.7E2,4.98E2,5.2E1,2E1,3E1,7E1,2E2,2.36E2,2.62E2,4.7E1,5E0,5E0,2.5E1,6.2E1,8E0,4.4E1,1.56E2,2.04E2,3.2E1,1.41E2,1.21E2,3.2E1,1.5E1],"tree_param":{"num_deleted":"0","num_feature":"10","num_nodes":"27","size_leaf_vector":"1"}},{"base_weights":[1.0009601E-1,1.5127848E0,-1.3084179E0,3.8545432E0,1.0049198E0,-7.7265817E-1,-4.744596E0,1.5558028E0,6.1013546E0,1.5079724E0,-4.8917857E-1,-2.0650358E0,4.5745292E-1,-8.479475E-3,-2.5759435E-1,1.0720479E-1,-6.231388E-2,3.3485908E-2,3.513046E-1,6.1227888E-2,1.6947064E-1,7.755256E-2,-7.215941E-2,1.8562606E-2,-1.7309587E-1,1.4443713E-1,-2.0561537E-2],"categories":[],"categories_nodes":[],"categories_segments":[],"categories_sizes":[],"default_left":[0,0,0,0,0,0,0,0,0,0,0,0,0,0,0,0,0,0,0,0,0,0,0,0,0,0,0],"id":31,"left_children":[1,3,5,7,9,11,13,15,17,19,21,23,25,-1,-1,-1,-1,-1,-1,-1,-1,-1,-1,-1,-1,-1,-1],"loss_changes":[1.7349943E3,4.786093E2,7.6784265E2,2.8727295E2,2.86224E2,6.294562E2,9.7474365E1,1.0914356E2,1.23721436E2,1.0779846E2,2.1897086E2,6.662679E2,4.5117993E2,0E0,0E0,0E0,0E0,0E0,0E0,0E0,0E0,0E0,0E0,0E0,0E0,0E0,0E0],"parents":[2147483647,0,0,1,1,2,2,3,3,4,4,5,5,6,6,7,7,8,8,9,9,10,10,11,11,12,12],"right_children":[2,4,6,8,10,12,14,16,18,20,22,24,26,-1,-1,-1,-1,-1,-1,-1,-1,-1,-1,-1,-1,-1,-1],"split_conditions":[-2.5357458E-1,-1.1281455E0,1.1402286E0,-1.073247E0,6.2053084E-1,-1.2222973E-1,6.5455176E-2,-1.1774629E0,-5.170894E-1,9.1317797E-1,-1.0029148E0,-6.2087E-4,-6.515393E-1,-8.479475E-3,-2.5759435E-1,1.0720479E-1,-6.231388E-2,3.3485908E-2,3.513046E-1,6.1227888E-2,1.6947064E-1,7.755256E-2,-7.215941E-2,1.8562606E-2,-1.7309587E-1,1.4443713E-1,-2.0561537E-2],"split_indices":[0,3,3,1,6,7,2,1,4,2,0,1,3,0,0,0,0,0,0,0,0,0,0,0,0,0,0],"split_type":[0,0,0,0,0,0,0,0,0,0,0,0,0,0,0,0,0,0,0,0,0,0,0,0,0,0,0],"sum_hessian":[8.52E2,4.25E2,4.27E2,6.4E1,3.61E2,3.8E2,4.7E1,4E1,2.4E1,2.7E2,9.1E1,1.82E2,1.98E2,5E0,4.2E1,3.5E1,5E0,6E0,1.8E1,2.49E2,2.1E1,2.7E1,6.4E1,6.9E1,1.13E2,4.6E1,1.52E2],"tree_param":{"num_deleted":"0","num_feature":"10","num_nodes":"27","size_leaf_vector":"1"}},{"base_weights":[4.597352E-2,1.173768E0,-1.9848144E0,7.422844E-1,4.374816E0,-1.0588143E0,-3.8994937E0,1.5622212E0,-3.6224028E-1,1.3401209E0,5.750347E0,-4.068646E0,-2.5752175E-1,-4.214984E0,-1.9295467E-2,1.3851123E-1,5.2596863E-2,-4.353964E-2,7.806694E-2,7.747523E-2,1.1579043E-2,5.405407E-2,3.120956E-1,3.940232E-2,-2.9100955E-1,3.0235017E-2,-7.124078E-2,-2.177891E-1,-3.129564E-2],"categories":[],"categories_nodes":[],"categories_segments":[],"categories_sizes":[],"default_left":[0,0,0,0,0,0,0,0,0,0,0,0,0,0,0,0,0,0,0,0,0,0,0,0,0,0,0,0,0],"id":32,"left_children":[1,3,5,7,9,11,13,15,17,19,21,23,25,27,-1,-1,-1,-1,-1,-1,-1,-1,-1,-1,-1,-1,-1,-1,-1],"loss_changes":[1.9815132E3,7.3547345E2,5.0656665E2,4.6029044E2,1.9009473E2,5.24932E2,9.125867E1,1.4962213E2,2.3076547E2,4.071274E0,2.6625E1,4.3717474E2,1.9581865E2,1.7206055E1,0E0,0E0,0E0,0E0,0E0,0E0,0E0,0E0,0E0,0E0,0E0,0E0,0E0,0E0,0E0],"parents":[2147483647,0,0,1,1,2,2,3,3,4,4,5,5,6,6,7,7,8,8,9,9,10,10,11,11,12,12,13,13],"right_children":[2,4,6,8,10,12,14,16,18,20,22,24,26,28,-1,-1,-1,-1,-1,-1,-1,-1,-1,-1,-1,-1,-1,-1,-1],"split_conditions":[7.9401925E-2,4.1686338E-1,6.678802E-1,-5.1545405E-1,-1.1238245E-1,-6.56861E-1,4.746189E-1,-1.0088433E0,8.4502345E-1,8.5420024E-1,5.1773053E-1,-1.1949177E0,2.4985189E-2,1.8556528E0,-1.9295467E-2,1.3851123E-1,5.2596863E-2,-4.353964E-2,7.806694E-2,7.747523E-2,1.1579043E-2,5.405407E-2,3.120956E-1,3.940232E-2,-2.9100955E-1,3.0235017E-2,-7.124078E-2,-2.177891E-1,-3.129564E-2],"split_indices":[0,9,3,0,7,7,6,0,2,5,5,2,6,3,0,0,0,0,0,0,0,0,0,0,0,0,0,0,0],"split_type":[0,0,0,0,0,0,0,0,0,0,0,0,0,0,0,0,0,0,0,0,0,0,0,0,0,0,0,0,0],"sum_hessian":[8.45E2,5.46E2,2.99E2,4.92E2,5.4E1,2.12E2,8.7E1,2.8E2,2.12E2,2.3E1,3.1E1,3.6E1,1.76E2,7.8E1,9E0,7E1,2.1E2,1.72E2,4E1,1.6E1,7E0,6E0,2.5E1,1.1E1,2.5E1,1.04E2,7.2E1,7.3E1,5E0],"tree_param":{"num_deleted":"0","num_feature":"10","num_nodes":"29","size_leaf_vector":"1"}},{"base_weights":[7.899056E-2,1.241306E0,-1.972911E0,5.737139E0,8.5531366E-1,-2.980545E-1,-3.639607E0,1.8909056E0,3.9970985E-1,4.0745634E-1,2.483858E0,-3.6357234E0,8.2823694E-1,-4.9291906E-1,-3.9075828E0,1.5931863E-1,-4.4893917E-2,-5.4613132E-2,6.549709E-2,2.0864256E-1,6.32771E-2,-4.9956154E-2,-2.8616437E-1,1.1472751E-2,1.8351577E-1,7.3981605E-2,-1.0877589E-1,-1.1131965E-1,-2.562481E-1],"categories":[],"categories_nodes":[],"categories_segments":[],"categories_sizes":[],"default_left":[0,0,0,0,0,0,0,0,0,0,0,0,0,0,0,0,0,0,0,0,0,0,0,0,0,0,0,0,0],"id":33,"left_children":[1,3,5,7,9,11,13,15,-1,17,19,21,23,25,27,-1,-1,-1,-1,-1,-1,-1,-1,-1,-1,-1,-1,-1,-1],"loss_changes":[2.116097E3,9.331415E2,8.852158E2,2.2212756E2,3.7862592E2,6.7293353E2,1.15656494E2,1.3338028E2,0E0,5.96302E2,1.7971393E2,1.9050055E2,2.2302109E2,1.1184594E2,1.847085E2,0E0,0E0,0E0,0E0,0E0,0E0,0E0,0E0,0E0,0E0,0E0,0E0,0E0,0E0],"parents":[2147483647,0,0,1,1,2,2,3,3,4,4,5,5,6,6,7,7,9,9,10,10,11,11,12,12,13,13,14,14],"right_children":[2,4,6,8,10,12,14,16,-1,18,20,22,24,26,28,-1,-1,-1,-1,-1,-1,-1,-1,-1,-1,-1,-1,-1,-1],"split_conditions":[6.6672206E-2,-1.8783014E0,3.4316468E-1,-1.0917507E0,6.4597374E-1,-5.331702E-1,-4.0111047E-1,-1.0088433E0,3.9970985E-1,-2.2636992E-1,-5.5832565E-1,7.867162E-1,2.1548607E0,8.145838E-1,4.456309E-1,1.5931863E-1,-4.4893917E-2,-5.4613132E-2,6.549709E-2,2.0864256E-1,6.32771E-2,-4.9956154E-2,-2.8616437E-1,1.1472751E-2,1.8351577E-1,7.3981605E-2,-1.0877589E-1,-1.1131965E-1,-2.562481E-1],"split_indices":[0,3,3,1,2,7,1,0,0,5,1,1,1,3,2,0,0,0,0,0,0,0,0,0,0,0,0,0,0],"split_type":[0,0,0,0,0,0,0,0,0,0,0,0,0,0,0,0,0,0,0,0,0,0,0,0,0,0,0,0,0],"sum_hessian":[8.67E2,5.56E2,3.11E2,3.3E1,5.23E2,1.61E2,1.5E2,1.9E1,1.4E1,4.2E2,1.03E2,3.5E1,1.26E2,1.4E1,1.36E2,1.2E1,7E0,1.57E2,2.63E2,3.3E1,7E1,2.2E1,1.3E1,1.13E2,1.3E1,7E0,7E0,6.9E1,6.7E1],"tree_param":{"num_deleted":"0","num_feature":"10","num_nodes":"29","size_leaf_vector":"1"}},{"base_weights":[1.3574143E-1,1.8248799E0,-9.0785015E-1,3.243906E0,1.1043689E0,-1.4907677E0,1.1101035E0,5.4335446E0,1.8603E0,1.7146187E0,-2.5653955E-1,5.936238E-1,-1.8373144E0,2.0807893E0,-2.4364236E-1,5.670858E-2,3.0293372E-1,1.1489218E-1,1.996154E-2,-2.8138477E-2,1.0970136E-1,-7.980305E-2,5.263538E-2,9.005412E-2,-9.758562E-2,-1.6281283E-1,-4.8908554E-2,2.0447564E-1,3.705124E-2],"categories":[],"categories_nodes":[],"categories_segments":[],"categories_sizes":[],"default_left":[0,0,0,0,0,0,0,0,0,0,0,0,0,0,0,0,0,0,0,0,0,0,0,0,0,0,0,0,0],"id":34,"left_children":[1,3,5,7,9,11,13,15,17,19,21,23,25,27,-1,-1,-1,-1,-1,-1,-1,-1,-1,-1,-1,-1,-1,-1,-1],"loss_changes":[1.5660426E3,3.1077698E2,6.635145E2,2.2914575E2,2.0371725E2,3.2223474E2,8.505695E2,3.0728027E1,4.3247375E1,1.9467773E2,1.623643E2,2.472157E2,4.2164404E2,2.872592E2,0E0,0E0,0E0,0E0,0E0,0E0,0E0,0E0,0E0,0E0,0E0,0E0,0E0,0E0,0E0],"parents":[2147483647,0,0,1,1,2,2,3,3,4,4,5,5,6,6,7,7,8,8,9,9,10,10,11,11,12,12,13,13],"right_children":[2,4,6,8,10,12,14,16,18,20,22,24,26,28,-1,-1,-1,-1,-1,-1,-1,-1,-1,-1,-1,-1,-1,-1,-1],"split_conditions":[-5.1545405E-1,-9.77538E-1,2.0521861E-1,1.6356698E-1,4.8372835E-1,-5.401068E-1,1.5221744E0,-1.066409E0,-2.7321144E-3,-9.249996E-1,-8.677845E-2,6.2053084E-1,-6.046081E-1,-5.659733E-1,-2.4364236E-1,5.670858E-2,3.0293372E-1,1.1489218E-1,1.996154E-2,-2.8138477E-2,1.0970136E-1,-7.980305E-2,5.263538E-2,9.005412E-2,-9.758562E-2,-1.6281283E-1,-4.8908554E-2,2.0447564E-1,3.705124E-2],"split_indices":[0,0,8,6,6,1,2,0,4,0,8,6,8,6,0,0,0,0,0,0,0,0,0,0,0,0,0,0,0],"split_type":[0,0,0,0,0,0,0,0,0,0,0,0,0,0,0,0,0,0,0,0,0,0,0,0,0,0,0,0,0],"sum_hessian":[8.69E2,3.29E2,5.4E2,9.9E1,2.3E2,4.21E2,1.19E2,2.7E1,7.2E1,1.57E2,7.3E1,5.9E1,3.62E2,1.08E2,1.1E1,7E0,2E1,5.1E1,2.1E1,2.7E1,1.3E2,3.5E1,3.8E1,4.2E1,1.7E1,1.26E2,2.36E2,3.5E1,7.3E1],"tree_param":{"num_deleted":"0","num_feature":"10","num_nodes":"29","size_leaf_vector":"1"}},{"base_weights":[1.1991007E-1,1.1689265E0,-1.9091483E0,2.7958506E-1,2.5217164E0,-2.4103947E0,5.142773E-1,1.7306409E0,-4.899292E-1,1.6986499E0,3.4047763E0,3.8802958E-1,-2.5913117E0,1.3691726E0,-1.3462089E-1,3.229059E-2,1.3413675E-1,-1.0329803E-1,1.9228265E-2,1.3460554E-1,4.5889314E-2,7.450259E-3,1.7973596E-1,-3.3852547E-2,7.392226E-2,-9.024597E-2,-1.7565615E-1,1.3971357E-1,-1.45482635E-2],"categories":[],"categories_nodes":[],"categories_segments":[],"categories_sizes":[],"default_left":[0,0,0,0,0,0,0,0,0,0,0,0,0,0,0,0,0,0,0,0,0,0,0,0,0,0,0,0,0],"id":35,"left_children":[1,3,5,7,9,11,13,15,17,19,21,23,25,27,-1,-1,-1,-1,-1,-1,-1,-1,-1,-1,-1,-1,-1,-1,-1],"loss_changes":[1.8847675E3,6.9435223E2,3.7924548E2,4.1380768E2,1.0933264E2,1.3763843E2,2.0134715E2,1.14880615E2,3.456115E2,8.312247E1,5.710315E1,3.7882957E1,1.0911841E2,1.3588681E2,0E0,0E0,0E0,0E0,0E0,0E0,0E0,0E0,0E0,0E0,0E0,0E0,0E0,0E0,0E0],"parents":[2147483647,0,0,1,1,2,2,3,3,4,4,5,5,6,6,7,7,8,8,9,9,10,10,11,11,12,12,13,13],"right_children":[2,4,6,8,10,12,14,16,18,20,22,24,26,28,-1,-1,-1,-1,-1,-1,-1,-1,-1,-1,-1,-1,-1,-1,-1],"split_conditions":[7.9401925E-2,1.416551E-1,8.9553106E-1,-7.257034E-1,-3.3380844E-2,-1.203753E0,1.5221744E0,-7.609962E-1,-4.0926552E-1,-5.1508874E-1,-7.2825503E-1,3.232751E0,1.0509572E0,1.1376601E0,-1.3462089E-1,3.229059E-2,1.3413675E-1,-1.0329803E-1,1.9228265E-2,1.3460554E-1,4.5889314E-2,7.450259E-3,1.7973596E-1,-3.3852547E-2,7.392226E-2,-9.024597E-2,-1.7565615E-1,1.3971357E-1,-1.45482635E-2],"split_indices":[0,8,7,1,9,2,2,7,8,9,7,0,0,1,0,0,0,0,0,0,0,0,0,0,0,0,0,0,0],"split_type":[0,0,0,0,0,0,0,0,0,0,0,0,0,0,0,0,0,0,0,0,0,0,0,0,0,0,0,0,0],"sum_hessian":[8.65E2,5.73E2,2.92E2,3.53E2,2.2E2,2.42E2,5E1,1.18E2,2.35E2,1.29E2,9.1E1,1.4E1,2.28E2,4.4E1,6E0,6.3E1,5.5E1,7.9E1,1.56E2,4.6E1,8.3E1,6E0,8.5E1,9E0,5E0,1.39E2,8.9E1,2E1,2.4E1],"tree_param":{"num_deleted":"0","num_feature":"10","num_nodes":"29","size_leaf_vector":"1"}},{"base_weights":[7.069062E-2,1.8051486E0,-1.0072411E0,4.962054E0,1.2919683E0,-7.250681E-1,-5.024611E0,3.2363307E-2,2.669793E-1,8.163789E-1,2.2923803E0,-1.8028077E0,2.5096744E-1,-4.8306417E-2,-3.0289415E-1,-1.5554577E-2,6.3423075E-2,1.3229683E-1,7.1984925E-3,-9.9091746E-2,1.1914251E-1,1.3903347E-1,-1.0354434E-2],"categories":[],"categories_nodes":[],"categories_segments":[],"categories_sizes":[],"default_left":[0,0,0,0,0,0,0,0,0,0,0,0,0,0,0,0,0,0,0,0,0,0,0],"id":36,"left_children":[1,3,5,7,9,11,13,-1,-1,15,17,19,21,-1,-1,-1,-1,-1,-1,-1,-1,-1,-1],"loss_changes":[1.6933683E3,4.980531E2,5.9724677E2,3.874231E1,1.2973053E2,5.662456E2,8.8246155E1,0E0,0E0,1.1965021E2,6.8351074E1,2.3830743E2,3.4063586E2,0E0,0E0,0E0,0E0,0E0,0E0,0E0,0E0,0E0,0E0],"parents":[2147483647,0,0,1,1,2,2,3,3,4,4,5,5,6,6,9,9,10,10,11,11,12,12],"right_children":[2,4,6,8,10,12,14,-1,-1,16,18,20,22,-1,-1,-1,-1,-1,-1,-1,-1,-1,-1],"split_conditions":[-5.270575E-1,-1.8783014E0,1.7220594E0,-1.7197508E0,2.915793E-1,-4.0926552E-1,6.4868486E-1,3.2363307E-2,2.669793E-1,-4.9866465E-1,6.347591E-1,1.565861E0,-9.8593396E-1,-4.8306417E-2,-3.0289415E-1,-1.5554577E-2,6.3423075E-2,1.3229683E-1,7.1984925E-3,-9.9091746E-2,1.1914251E-1,1.3903347E-1,-1.0354434E-2],"split_indices":[0,3,2,2,3,8,0,0,0,5,8,2,3,0,0,0,0,0,0,0,0,0,0],"split_type":[0,0,0,0,0,0,0,0,0,0,0,0,0,0,0,0,0,0,0,0,0,0,0],"sum_hessian":[8.86E2,3.37E2,5.49E2,3.5E1,3.02E2,5.24E2,2.5E1,5E0,3E1,2.17E2,8.5E1,2.45E2,2.79E2,9E0,1.6E1,6.3E1,1.54E2,7.1E1,1.4E1,2.4E2,5E0,3.5E1,2.44E2],"tree_param":{"num_deleted":"0","num_feature":"10","num_nodes":"23","size_leaf_vector":"1"}},{"base_weights":[3.0546982E-2,-1.6231041E0,1.1126441E0,1.3435588E0,-2.1211176E0,3.2141E0,6.78895E-1,-4.4747168E-1,3.5822368E0,-3.440232E-1,-1.7737705E0,3.8708918E0,-9.029832E-2,1.2338226E0,-1.0204277E-1,6.318437E-2,-7.195436E-2,2.0444405E-1,2.4238853E-2,6.7117184E-2,-1.1805433E-1,3.423499E-2,2.508165E-1,3.0862192E-2,9.6370906E-2,5.5744734E-2,-3.9287698E-2],"categories":[],"categories_nodes":[],"categories_segments":[],"categories_sizes":[],"default_left":[0,0,0,0,0,0,0,0,0,0,0,0,0,0,0,0,0,0,0,0,0,0,0,0,0,0,0],"id":37,"left_children":[1,3,5,7,9,11,13,15,17,-1,19,21,-1,23,25,-1,-1,-1,-1,-1,-1,-1,-1,-1,-1,-1,-1],"loss_changes":[1.5694786E3,5.4116956E2,4.6127698E2,2.4056375E2,3.7555322E2,3.6005524E2,1.971395E2,8.6058044E1,2.0980133E1,0E0,5.697562E2,2.6126965E2,0E0,1.0143207E2,1.7267097E2,0E0,0E0,0E0,0E0,0E0,0E0,0E0,0E0,0E0,0E0,0E0,0E0],"parents":[2147483647,0,0,1,1,2,2,3,3,4,4,5,5,6,6,7,7,8,8,10,10,11,11,13,13,14,14],"right_children":[2,4,6,8,10,12,14,16,18,-1,20,22,-1,24,26,-1,-1,-1,-1,-1,-1,-1,-1,-1,-1,-1,-1],"split_conditions":[-2.769906E-1,-1.0917507E0,-1.2828064E0,7.057901E-1,-2.0519407E0,6.6353136E-1,-1.6742997E-2,-1.5323503E0,-6.407961E-1,-3.440232E-1,-2.7753344E-1,-1.0917507E0,-9.029832E-2,-1.3693006E-1,4.456309E-1,6.318437E-2,-7.195436E-2,2.0444405E-1,2.4238853E-2,6.7117184E-2,-1.1805433E-1,3.423499E-2,2.508165E-1,3.0862192E-2,9.6370906E-2,5.5744734E-2,-3.9287698E-2],"split_indices":[8,1,3,2,5,2,1,2,8,0,3,1,0,9,2,0,0,0,0,0,0,0,0,0,0,0,0],"split_type":[0,0,0,0,0,0,0,0,0,0,0,0,0,0,0,0,0,0,0,0,0,0,0,0,0,0,0],"sum_hessian":[8.57E2,3.37E2,5.2E2,4.6E1,2.91E2,7.8E1,4.42E2,3E1,1.6E1,7E0,2.84E2,7.1E1,7E0,2.55E2,1.87E2,1E1,2E1,1.1E1,5E0,4.3E1,2.41E2,2.3E1,4.8E1,1.45E2,1.1E2,6.5E1,1.22E2],"tree_param":{"num_deleted":"0","num_feature":"10","num_nodes":"27","size_leaf_vector":"1"}},{"base_weights":[2.3182622E-1,-1.2052829E0,1.2687839E0,-4.0157512E-1,-2.7604475E0,3.6526096E0,7.946418E-1,1.2360847E0,-1.1476514E0,-1.5425051E0,-5.2753344E0,4.6322474E0,7.0496166E-1,1.3427343E0,-1.6849707E0,-2.7386425E-2,1.6202527E-1,-9.1281685E-4,-1.6646951E-1,-1.11486115E-1,5.3249598E-2,-3.0924878E-1,-6.0309734E-2,3.268554E-1,4.0149216E-2,6.305568E-2,-3.8304303E-2,1.9136176E-2,8.2605936E-2,5.856308E-2,-1.6356184E-1],"categories":[],"categories_nodes":[],"categories_segments":[],"categories_sizes":[],"default_left":[0,0,0,0,0,0,0,0,0,0,0,0,0,0,0,0,0,0,0,0,0,0,0,0,0,0,0,0,0,0,0],"id":38,"left_children":[1,3,5,7,9,11,13,15,17,19,21,23,25,27,29,-1,-1,-1,-1,-1,-1,-1,-1,-1,-1,-1,-1,-1,-1,-1,-1],"loss_changes":[1.298373E3,4.4637738E2,5.4176245E2,3.233062E2,2.9537506E2,2.0124219E2,6.1245544E2,3.1809216E2,4.404563E2,1.9756227E2,5.864966E1,3.7786646E2,3.584124E1,1.0089838E2,4.1436652E2,0E0,0E0,0E0,0E0,0E0,0E0,0E0,0E0,0E0,0E0,0E0,0E0,0E0,0E0,0E0,0E0],"parents":[2147483647,0,0,1,1,2,2,3,3,4,4,5,5,6,6,7,7,8,8,9,9,10,10,11,11,12,12,13,13,14,14],"right_children":[2,4,6,8,10,12,14,16,18,20,22,24,26,28,30,-1,-1,-1,-1,-1,-1,-1,-1,-1,-1,-1,-1,-1,-1,-1,-1],"split_conditions":[-2.4425305E-1,7.3005205E-1,-1.2828064E0,-7.7972233E-1,4.6475366E-1,1.6356698E-1,2.1024354E-1,-7.014115E-1,7.48375E-1,1.6657429E0,1.527838E-1,2.4132988E0,-3.1659174E-1,-2.5666539E-2,-1.705282E-1,-2.7386425E-2,1.6202527E-1,-9.1281685E-4,-1.6646951E-1,-1.11486115E-1,5.3249598E-2,-3.0924878E-1,-6.0309734E-2,3.268554E-1,4.0149216E-2,6.305568E-2,-3.8304303E-2,1.9136176E-2,8.2605936E-2,5.856308E-2,-1.6356184E-1],"split_indices":[8,0,3,1,2,6,0,4,3,1,6,8,4,8,3,0,0,0,0,0,0,0,0,0,0,0,0,0,0,0,0],"split_type":[0,0,0,0,0,0,0,0,0,0,0,0,0,0,0,0,0,0,0,0,0,0,0,0,0,0,0,0,0,0,0],"sum_hessian":[8.51E2,3.56E2,4.95E2,2.43E2,1.13E2,7.1E1,4.24E2,7.4E1,1.69E2,8.7E1,2.6E1,4.9E1,2.2E1,3.51E2,7.3E1,4.3E1,3.1E1,1.18E2,5.1E1,7E1,1.7E1,1.7E1,9E0,2.8E1,2.1E1,1.7E1,5E0,9.1E1,2.6E2,2.7E1,4.6E1],"tree_param":{"num_deleted":"0","num_feature":"10","num_nodes":"31","size_leaf_vector":"1"}},{"base_weights":[1.9705287E-1,1.3659394E0,-8.8936293E-1,1.040625E0,4.4873023E0,-2.5943666E0,6.8456344E-2,1.2183207E0,-1.1453482E0,3.1073785E-1,1.3661652E0,-3.100026E-1,-1.9063357E0,2.3733583E-1,-2.0254023E-1,3.63973E-2,1.486665E-1,1.1961736E-1,-1.7586826E-1,1.7777806E-2,8.460214E-2,2.1667724E-2,-1.3185184E-1,2.2052702E-2,-7.07637E-2],"categories":[],"categories_nodes":[],"categories_segments":[],"categories_sizes":[],"default_left":[0,0,0,0,0,0,0,0,0,0,0,0,0,0,0,0,0,0,0,0,0,0,0,0,0],"id":39,"left_children":[1,3,5,7,9,11,13,15,17,-1,19,-1,21,-1,23,-1,-1,-1,-1,-1,-1,-1,-1,-1,-1],"loss_changes":[1.1194982E3,3.8384393E2,7.4972906E2,1.68164E2,1.1458618E2,2.911421E2,3.9375516E2,2.9850354E2,3.7784918E2,0E0,2.546547E0,0E0,2.7299854E2,0E0,2.3727263E2,0E0,0E0,0E0,0E0,0E0,0E0,0E0,0E0,0E0,0E0],"parents":[2147483647,0,0,1,1,2,2,3,3,4,4,5,5,6,6,7,7,8,8,10,10,12,12,14,14],"right_children":[2,4,6,8,10,12,14,16,18,-1,20,-1,22,-1,24,-1,-1,-1,-1,-1,-1,-1,-1,-1,-1],"split_conditions":[-1.4099115E-1,1.6887789E0,-4.2250696E-1,1.0990998E0,-1.6778855E0,-5.2701384E-1,-2.2282617E0,4.7742343E-1,-7.9910284E-1,3.1073785E-1,2.4184184E0,-3.100026E-1,7.833412E-2,2.3733583E-1,7.015876E-1,3.63973E-2,1.486665E-1,1.1961736E-1,-1.7586826E-1,1.7777806E-2,8.460214E-2,2.1667724E-2,-1.3185184E-1,2.2052702E-2,-7.07637E-2],"split_indices":[1,7,8,3,3,9,3,2,1,0,7,0,3,0,4,0,0,0,0,0,0,0,0,0,0],"split_type":[0,0,0,0,0,0,0,0,0,0,0,0,0,0,0,0,0,0,0,0,0,0,0,0,0],"sum_hessian":[8.62E2,4.14E2,4.48E2,3.87E2,2.7E1,1.55E2,2.93E2,3.62E2,2.5E1,1.1E1,1.6E1,1.2E1,1.43E2,7E0,2.86E2,2.94E2,6.8E1,1E1,1.5E1,9E0,7E0,3.5E1,1.08E2,1.91E2,9.5E1],"tree_param":{"num_deleted":"0","num_feature":"10","num_nodes":"25","size_leaf_vector":"1"}},{"base_weights":[-6.149354E-2,7.9764533E-1,-1.6492157E0,4.2244494E-1,3.2726715E0,-2.1843815E0,1.0340233E0,-6.6098106E-1,1.1578537E0,1.1901282E0,4.3268557E0,-3.012273E-1,-1.7808883E0,2.033966E0,-1.6275595E-1,-6.596668E-2,1.0222802E-1,4.7167115E-2,1.3955365E-1,9.9837445E-2,1.9484794E-2,3.4866333E-2,2.3484766E-1,-9.663927E-2,8.4328495E-2,1.6291626E-1,-1.9859022E-2],"categories":[],"categories_nodes":[],"categories_segments":[],"categories_sizes":[],"default_left":[0,0,0,0,0,0,0,0,0,0,0,0,0,0,0,0,0,0,0,0,0,0,0,0,0,0,0],"id":40,"left_children":[1,3,5,7,9,11,13,15,17,19,21,-1,23,25,-1,-1,-1,-1,-1,-1,-1,-1,-1,-1,-1,-1,-1],"loss_changes":[1.2203602E3,5.257092E2,4.7348395E2,4.1878192E2,1.1315869E2,3.033219E2,3.192529E2,4.0993253E2,8.2627686E1,1.7398922E1,2.903778E1,0E0,1.663786E2,1.7367766E2,0E0,0E0,0E0,0E0,0E0,0E0,0E0,0E0,0E0,0E0,0E0,0E0,0E0],"parents":[2147483647,0,0,1,1,2,2,3,3,4,4,5,5,6,6,7,7,8,8,9,9,10,10,12,12,13,13],"right_children":[2,4,6,8,10,12,14,16,18,20,22,-1,24,26,-1,-1,-1,-1,-1,-1,-1,-1,-1,-1,-1,-1,-1],"split_conditions":[7.9401925E-2,4.1686338E-1,8.9553106E-1,-1.7371021E-1,-1.1238245E-1,-2.3512318E0,1.5221744E0,7.057901E-1,9.1317797E-1,-2.367198E-1,-9.8987144E-1,-3.012273E-1,3.232751E0,1.6887789E0,-1.6275595E-1,-6.596668E-2,1.0222802E-1,4.7167115E-2,1.3955365E-1,9.9837445E-2,1.9484794E-2,3.4866333E-2,2.3484766E-1,-9.663927E-2,8.4328495E-2,1.6291626E-1,-1.9859022E-2],"split_indices":[0,9,7,8,7,4,2,2,2,8,1,0,0,7,0,0,0,0,0,0,0,0,0,0,0,0,0],"split_type":[0,0,0,0,0,0,0,0,0,0,0,0,0,0,0,0,0,0,0,0,0,0,0,0,0,0,0],"sum_hessian":[8.75E2,5.71E2,3.04E2,5.06E2,6.5E1,2.55E2,4.9E1,2.05E2,3.01E2,2.9E1,3.6E1,1.1E1,2.44E2,4.4E1,5E0,1.69E2,3.6E1,2.8E2,2.1E1,7E0,2.2E1,6E0,3E1,2.38E2,6E0,2.7E1,1.7E1],"tree_param":{"num_deleted":"0","num_feature":"10","num_nodes":"27","size_leaf_vector":"1"}},{"base_weights":[1.2652901E-1,9.839671E-1,-1.595592E0,3.967768E0,6.4463484E-1,-4.9209174E-2,-2.6805935E0,1.251005E0,2.965215E-1,-1.3314746E-1,1.4419692E0,-3.6382246E0,1.0958246E0,-4.7996378E-1,-3.2688344E0,1.0362267E-1,-5.6121457E-2,-3.8797803E-2,9.067588E-2,-4.9968638E-2,8.031326E-2,-5.338739E-3,-2.1051383E-1,-3.5522047E-2,1.1627706E-1,-1.0004659E-1,1.0216164E-1,-1.08579986E-1,-2.3389342E-1],"categories":[],"categories_nodes":[],"categories_segments":[],"categories_sizes":[],"default_left":[0,0,0,0,0,0,0,0,0,0,0,0,0,0,0,0,0,0,0,0,0,0,0,0,0,0,0,0,0],"id":41,"left_children":[1,3,5,7,9,11,13,15,-1,17,19,21,23,25,27,-1,-1,-1,-1,-1,-1,-1,-1,-1,-1,-1,-1,-1,-1],"loss_changes":[1.3003528E3,5.687598E2,4.9028436E2,2.3507123E2,3.361822E2,5.782189E2,2.0696484E2,9.5399E1,0E0,3.6694806E2,1.2314691E2,6.419034E1,2.5418942E2,2.2509335E2,1.0558484E2,0E0,0E0,0E0,0E0,0E0,0E0,0E0,0E0,0E0,0E0,0E0,0E0,0E0,0E0],"parents":[2147483647,0,0,1,1,2,2,3,3,4,4,5,5,6,6,7,7,9,9,10,10,11,11,12,12,13,13,14,14],"right_children":[2,4,6,8,10,12,14,16,-1,18,20,22,24,26,28,-1,-1,-1,-1,-1,-1,-1,-1,-1,-1,-1,-1,-1,-1],"split_conditions":[9.638811E-2,-1.8031176E0,1.0059273E-1,-1.0917507E0,-2.8881764E-2,-1.062148E0,-3.5288848E-2,-9.8318774E-1,2.965215E-1,6.3924056E-1,-8.2641613E-1,-1.5547234E0,6.958259E-1,-5.5638485E-2,1.019524E0,1.0362267E-1,-5.6121457E-2,-3.8797803E-2,9.067588E-2,-4.9968638E-2,8.031326E-2,-5.338739E-3,-2.1051383E-1,-3.5522047E-2,1.1627706E-1,-1.0004659E-1,1.0216164E-1,-1.08579986E-1,-2.3389342E-1],"split_indices":[0,3,3,1,8,5,1,0,0,2,6,2,0,9,2,0,0,0,0,0,0,0,0,0,0,0,0,0,0],"split_type":[0,0,0,0,0,0,0,0,0,0,0,0,0,0,0,0,0,0,0,0,0,0,0,0,0,0,0,0,0],"sum_hessian":[8.6E2,5.77E2,2.83E2,4.8E1,5.29E2,1.21E2,1.62E2,2.7E1,2.1E1,2.72E2,2.57E2,2.4E1,9.7E1,3.8E1,1.24E2,2.1E1,6E0,2.09E2,6.3E1,1.3E1,2.44E2,5E0,1.9E1,4.1E1,5.6E1,2.5E1,1.3E1,8.4E1,4E1],"tree_param":{"num_deleted":"0","num_feature":"10","num_nodes":"29","size_leaf_vector":"1"}},{"base_weights":[2.1408144E-1,1.4961263E0,-5.4024875E-1,3.4787488E0,1.1257684E0,1.048734E-1,-2.0724163E0,8.505204E-1,2.725691E-1,6.299167E-1,2.1190512E0,-2.2537677E-1,4.2313707E-1,1.6149355E0,-2.5153725E0,8.9312196E-2,-6.008028E-2,-8.606987E-2,3.921058E-2,1.814798E-2,1.1672016E-1,-3.8256284E-2,4.790129E-2,-8.369424E-2,1.6807032E-1,-2.3292537E-1,-7.288917E-2],"categories":[],"categories_nodes":[],"categories_segments":[],"categories_sizes":[],"default_left":[0,0,0,0,0,0,0,0,0,0,0,0,0,0,0,0,0,0,0,0,0,0,0,0,0,0,0],"id":42,"left_children":[1,3,5,7,9,11,13,15,-1,17,19,-1,21,23,25,-1,-1,-1,-1,-1,-1,-1,-1,-1,-1,-1,-1],"loss_changes":[8.6008484E2,2.024154E2,5.57674E2,1.9730774E2,1.304679E2,6.135978E2,3.1338855E2,8.291073E1,0E0,8.93237E1,2.669757E1,0E0,2.5393839E2,1.9411797E2,2.7887213E2,0E0,0E0,0E0,0E0,0E0,0E0,0E0,0E0,0E0,0E0,0E0,0E0],"parents":[2147483647,0,0,1,1,2,2,3,3,4,4,5,5,6,6,7,7,9,9,10,10,12,12,13,13,14,14],"right_children":[2,4,6,8,10,12,14,16,-1,18,20,-1,22,24,26,-1,-1,-1,-1,-1,-1,-1,-1,-1,-1,-1,-1],"split_conditions":[-5.35004E-1,-1.8783014E0,6.9197017E-1,-1.3347958E0,2.915793E-1,-1.8960215E0,-8.302945E-1,-8.50258E-1,2.725691E-1,-1.2124561E0,-1.040428E0,-2.2537677E-1,-6.046081E-1,-2.2812873E-1,4.1759214E-3,8.9312196E-2,-6.008028E-2,-8.606987E-2,3.921058E-2,1.814798E-2,1.1672016E-1,-3.8256284E-2,4.790129E-2,-8.369424E-2,1.6807032E-1,-2.3292537E-1,-7.288917E-2],"split_indices":[0,3,3,1,3,4,1,4,0,8,0,0,8,4,1,0,0,0,0,0,0,0,0,0,0,0,0],"split_type":[0,0,0,0,0,0,0,0,0,0,0,0,0,0,0,0,0,0,0,0,0,0,0,0,0,0,0],"sum_hessian":[8.71E2,3.19E2,5.52E2,3.7E1,2.82E2,3.95E2,1.57E2,2.2E1,1.5E1,1.99E2,8.3E1,1.7E1,3.78E2,1.4E1,1.43E2,1.6E1,6E0,6E0,1.93E2,1.2E1,7.1E1,1.16E2,2.62E2,5E0,9E0,3.6E1,1.07E2],"tree_param":{"num_deleted":"0","num_feature":"10","num_nodes":"27","size_leaf_vector":"1"}},{"base_weights":[1.4888164E-1,8.8378245E-1,-1.2474912E0,4.075949E0,5.6942654E-1,-4.9066097E-1,-3.6810884E0,1.1921214E0,2.9263023E-1,2.8700864E-1,2.6151638E0,-2.9430068E0,9.324001E-2,-8.7369955E-1,-2.1949862E-1,1.3080473E-1,-5.7953395E-2,-6.1258495E-2,3.6504637E-2,1.6296218E-1,-1.4317863E-2,5.9239265E-2,-2.0996825E-1,1.1753954E-1,-2.7955655E-2,-7.1731865E-2,1.0189502E-2],"categories":[],"categories_nodes":[],"categories_segments":[],"categories_sizes":[],"default_left":[0,0,0,0,0,0,0,0,0,0,0,0,0,0,0,0,0,0,0,0,0,0,0,0,0,0,0],"id":43,"left_children":[1,3,5,7,9,11,13,15,-1,17,19,21,23,25,-1,-1,-1,-1,-1,-1,-1,-1,-1,-1,-1,-1,-1],"loss_changes":[9.2126056E2,5.658312E2,5.529026E2,1.9153186E2,3.079473E2,3.5786197E2,1.0493286E2,1.3745927E2,0E0,3.3792578E2,1.3080576E2,2.9868085E2,3.224148E2,1.9242573E1,0E0,0E0,0E0,0E0,0E0,0E0,0E0,0E0,0E0,0E0,0E0,0E0,0E0],"parents":[2147483647,0,0,1,1,2,2,3,3,4,4,5,5,6,6,7,7,9,9,10,10,11,11,12,12,13,13],"right_children":[2,4,6,8,10,12,14,16,-1,18,20,22,24,26,-1,-1,-1,-1,-1,-1,-1,-1,-1,-1,-1,-1,-1],"split_conditions":[7.9401925E-2,-1.8031176E0,8.647536E-1,-1.0917507E0,9.1051054E-1,-6.56861E-1,4.361618E-1,-9.948894E-1,2.9263023E-1,-4.0926552E-1,-5.1461052E-2,-1.203753E0,-6.135008E-1,1.3996685E0,-2.1949862E-1,1.3080473E-1,-5.7953395E-2,-6.1258495E-2,3.6504637E-2,1.6296218E-1,-1.4317863E-2,5.9239265E-2,-2.0996825E-1,1.1753954E-1,-2.7955655E-2,-7.1731865E-2,1.0189502E-2],"split_indices":[0,3,3,1,2,7,2,0,0,8,7,2,3,0,0,0,0,0,0,0,0,0,0,0,0,0,0],"split_type":[0,0,0,0,0,0,0,0,0,0,0,0,0,0,0,0,0,0,0,0,0,0,0,0,0,0,0],"sum_hessian":[8.77E2,5.77E2,3E2,4.1E1,5.36E2,2.38E2,6.2E1,2.2E1,1.9E1,4.81E2,5.5E1,3.8E1,2E2,1.7E1,4.5E1,1.3E1,9E0,1.05E2,3.76E2,4.4E1,1.1E1,9E0,2.9E1,3.9E1,1.61E2,9E0,8E0],"tree_param":{"num_deleted":"0","num_feature":"10","num_nodes":"27","size_leaf_vector":"1"}},{"base_weights":[3.7712242E-2,2.7219791E0,-3.330131E-1,2.2839633E-1,1.4661343E0,-1.0346504E0,7.0363706E-1,1.7039284E0,-1.4317523E-2,-3.0790687E0,-5.7601666E-1,2.5075713E-1,1.9985591E0,9.6647575E-2,1.5760874E-2,-7.509733E-2,-2.3823455E-1,7.791755E-2,-5.862161E-2,4.539408E-2,-8.207647E-2,1.6092691E-1,-1.3051598E-2],"categories":[],"categories_nodes":[],"categories_segments":[],"categories_sizes":[],"default_left":[0,0,0,0,0,0,0,0,0,0,0,0,0,0,0,0,0,0,0,0,0,0,0],"id":44,"left_children":[1,3,5,-1,7,9,11,13,-1,15,17,19,21,-1,-1,-1,-1,-1,-1,-1,-1,-1,-1],"loss_changes":[8.857703E2,1.8339618E2,5.7679724E2,0E0,3.7800934E1,4.2389218E2,1.838235E2,1.6488312E1,0E0,1.5174518E2,5.2363965E2,3.2577008E2,2.3444699E2,0E0,0E0,0E0,0E0,0E0,0E0,0E0,0E0,0E0,0E0],"parents":[2147483647,0,0,1,1,2,2,4,4,5,5,6,6,7,7,9,9,10,10,11,11,12,12],"right_children":[2,4,6,-1,8,10,12,14,-1,16,18,20,22,-1,-1,-1,-1,-1,-1,-1,-1,-1,-1],"split_conditions":[-9.8318774E-1,7.91062E-2,-2.8881764E-2,2.2839633E-1,6.347591E-1,-7.487106E-1,1.0025618E0,-4.4691685E-1,-1.4317523E-2,1.0835349E-2,-5.008807E-1,7.9401925E-2,-4.5227864E-1,9.6647575E-2,1.5760874E-2,-7.509733E-2,-2.3823455E-1,7.791755E-2,-5.862161E-2,4.539408E-2,-8.207647E-2,1.6092691E-1,-1.3051598E-2],"split_indices":[0,6,8,0,8,7,7,9,0,1,7,0,3,0,0,0,0,0,0,0,0,0,0],"split_type":[0,0,0,0,0,0,0,0,0,0,0,0,0,0,0,0,0,0,0,0,0,0,0],"sum_hessian":[8.71E2,9.8E1,7.73E2,2.9E1,6.9E1,4.61E2,3.12E2,6.1E1,8E0,7.4E1,3.87E2,2.4E2,7.2E1,4.9E1,1.2E1,4.8E1,2.6E1,8.1E1,3.06E2,1.82E2,5.8E1,4.4E1,2.8E1],"tree_param":{"num_deleted":"0","num_feature":"10","num_nodes":"23","size_leaf_vector":"1"}},{"base_weights":[-5.6880556E-2,6.596007E-1,-1.4757233E0,3.1534438E0,3.9751622E-1,-2.0685391E-1,-2.3267343E0,3.3917391E0,1.3635826E-2,-1.4099221E-1,1.2545387E0,-3.7034323E0,8.159467E-1,-1.015285E0,-3.5079074E0,2.3008266E-1,7.0533685E-2,2.6934087E-2,-4.1808926E-2,7.768725E-2,-6.172622E-2,-2.5361377E-1,-6.729999E-2,9.506346E-2,-3.1073136E-2,-1.0630336E-1,1.3147147E-2,-6.2719055E-2,-1.8995638E-1],"categories":[],"categories_nodes":[],"categories_segments":[],"categories_sizes":[],"default_left":[0,0,0,0,0,0,0,0,0,0,0,0,0,0,0,0,0,0,0,0,0,0,0,0,0,0,0,0,0],"id":45,"left_children":[1,3,5,7,9,11,13,15,-1,17,19,21,23,25,27,-1,-1,-1,-1,-1,-1,-1,-1,-1,-1,-1,-1,-1,-1],"loss_changes":[8.911037E2,3.685119E2,3.1265454E2,2.7819214E1,2.5052477E2,4.9156104E2,2.3546832E2,5.253473E1,0E0,1.6515436E2,1.7483261E2,3.1762787E1,1.8030136E2,1.4331413E2,1.0096313E1,0E0,0E0,0E0,0E0,0E0,0E0,0E0,0E0,0E0,0E0,0E0,0E0,0E0,0E0],"parents":[2147483647,0,0,1,1,2,2,3,3,4,4,5,5,6,6,7,7,9,9,10,10,11,11,12,12,13,13,14,14],"right_children":[2,4,6,8,10,12,14,16,-1,18,20,22,24,26,28,-1,-1,-1,-1,-1,-1,-1,-1,-1,-1,-1,-1,-1,-1],"split_conditions":[9.638811E-2,-1.8031176E0,7.833412E-2,1.8573033E0,1.416551E-1,-1.1652304E0,2.3940091E-1,-3.430059E-1,1.3635826E-2,-3.024921E-1,1.4921371E0,-2.1982021E0,6.847915E-1,-7.0182014E-1,-2.3766099E-1,2.3008266E-1,7.0533685E-2,2.6934087E-2,-4.1808926E-2,7.768725E-2,-6.172622E-2,-2.5361377E-1,-6.729999E-2,9.506346E-2,-3.1073136E-2,-1.0630336E-1,1.3147147E-2,-6.2719055E-2,-1.8995638E-1],"split_indices":[0,3,3,8,8,5,4,6,0,7,4,5,4,8,6,0,0,0,0,0,0,0,0,0,0,0,0,0,0],"split_type":[0,0,0,0,0,0,0,0,0,0,0,0,0,0,0,0,0,0,0,0,0,0,0,0,0,0,0,0,0],"sum_hessian":[8.57E2,5.73E2,2.84E2,4.4E1,5.29E2,1.19E2,1.65E2,3.9E1,5E0,3.3E2,1.99E2,2.1E1,9.8E1,8.7E1,7.8E1,1.6E1,2.3E1,1.68E2,1.62E2,1.81E2,1.8E1,6E0,1.5E1,5.4E1,4.4E1,4.3E1,4.4E1,1.5E1,6.3E1],"tree_param":{"num_deleted":"0","num_feature":"10","num_nodes":"29","size_leaf_vector":"1"}},{"base_weights":[6.8376385E-2,2.5295135E-1,-4.3000865E0,3.8547933E0,4.2618107E-2,7.3775486E-3,-5.0411396E0,1.530042E0,2.7710137E-1,-1.2866209E0,4.5747167E-1,-1.572837E0,-3.1678516E-1,1.3109997E-1,-6.685796E-2,1.5029237E-1,-8.466673E-2,4.1006263E-2,-2.9990068E-2,-1.2135463E-1,2.2193858E-2],"categories":[],"categories_nodes":[],"categories_segments":[],"categories_sizes":[],"default_left":[0,0,0,0,0,0,0,0,0,0,0,0,0,0,0,0,0,0,0,0,0],"id":46,"left_children":[1,3,5,7,9,-1,11,13,-1,15,17,19,-1,-1,-1,-1,-1,-1,-1,-1,-1],"loss_changes":[7.3574884E2,6.589731E2,1.2938788E2,1.0347974E2,4.6578647E2,0E0,4.402771E1,1.4150955E2,0E0,4.0180606E2,2.5146071E2,4.867467E1,0E0,0E0,0E0,0E0,0E0,0E0,0E0,0E0,0E0],"parents":[2147483647,0,0,1,1,2,2,3,3,4,4,6,6,7,7,9,9,10,10,11,11],"right_children":[2,4,6,8,10,-1,12,14,-1,16,18,20,-1,-1,-1,-1,-1,-1,-1,-1,-1],"split_conditions":[1.7220594E0,-2.2282617E0,-4.6472389E-1,-1.5547234E0,-6.078429E-1,7.3775486E-3,2.0919993E0,9.834247E-1,2.7710137E-1,-1.3705558E0,4.9792305E-1,3.141576E-1,-3.1678516E-1,1.3109997E-1,-6.685796E-2,1.5029237E-1,-8.466673E-2,4.1006263E-2,-2.9990068E-2,-1.2135463E-1,2.2193858E-2],"split_indices":[2,3,1,2,8,0,2,4,0,1,1,5,0,0,0,0,0,0,0,0,0],"split_type":[0,0,0,0,0,0,0,0,0,0,0,0,0,0,0,0,0,0,0,0,0],"sum_hessian":[8.89E2,8.62E2,2.7E1,3.8E1,8.24E2,5E0,2.2E1,2.4E1,1.4E1,1.91E2,6.33E2,1.2E1,1E1,1.8E1,6E0,1.1E1,1.8E2,4.73E2,1.6E2,7E0,5E0],"tree_param":{"num_deleted":"0","num_feature":"10","num_nodes":"21","size_leaf_vector":"1"}},{"base_weights":[5.82844E-2,6.184526E-1,-1.7408264E0,1.992072E0,4.9904265E-2,-4.864448E-1,-3.7690978E0,2.3831272E-1,1.343998E0,6.6394186E-1,-7.908925E-1,2.5186164E0,-1.3587291E0,-4.4925804E0,-7.38601E-1,8.412022E-2,-7.8988366E-2,-7.6223455E-2,4.0826805E-2,4.9351145E-2,-7.392049E-2,-1.2108382E-2,1.6476505E-1,-1.2133012E-1,1.2294293E-3,-3.3199113E-2,-2.4329601E-1,3.437801E-2,-9.909833E-2],"categories":[],"categories_nodes":[],"categories_segments":[],"categories_sizes":[],"default_left":[0,0,0,0,0,0,0,0,0,0,0,0,0,0,0,0,0,0,0,0,0,0,0,0,0,0,0,0,0],"id":47,"left_children":[1,3,5,7,9,11,13,-1,15,17,19,21,23,25,27,-1,-1,-1,-1,-1,-1,-1,-1,-1,-1,-1,-1,-1,-1],"loss_changes":[8.825173E2,5.1991223E2,5.1086444E2,2.865274E2,2.540984E2,4.0119864E2,1.3783374E2,0E0,1.9675845E2,1.0728647E2,2.6884055E2,8.3029205E1,1.7047562E2,5.488269E1,6.150468E1,0E0,0E0,0E0,0E0,0E0,0E0,0E0,0E0,0E0,0E0,0E0,0E0,0E0,0E0],"parents":[2147483647,0,0,1,1,2,2,3,3,4,4,5,5,6,6,8,8,9,9,10,10,11,11,12,12,13,13,14,14],"right_children":[2,4,6,8,10,12,14,-1,16,18,20,22,24,26,28,-1,-1,-1,-1,-1,-1,-1,-1,-1,-1,-1,-1,-1,-1],"split_conditions":[5.15971E-1,3.445791E-2,5.381678E-1,-9.8318774E-1,3.890215E-1,-1.2106763E0,1.527838E-1,2.3831272E-1,1.1376601E0,-1.2124561E0,-5.35004E-1,-1.3013602E0,-4.4653606E-1,3.2823163E-1,5.0992876E-1,8.412022E-2,-7.8988366E-2,-7.6223455E-2,4.0826805E-2,4.9351145E-2,-7.392049E-2,-1.2108382E-2,1.6476505E-1,-1.2133012E-1,1.2294293E-3,-3.3199113E-2,-2.4329601E-1,3.437801E-2,-9.909833E-2],"split_indices":[0,6,2,0,3,3,6,0,1,8,0,5,7,1,3,0,0,0,0,0,0,0,0,0,0,0,0,0,0],"split_type":[0,0,0,0,0,0,0,0,0,0,0,0,0,0,0,0,0,0,0,0,0,0,0,0,0,0,0,0,0],"sum_hessian":[8.55E2,6.57E2,1.98E2,1.85E2,4.72E2,1.3E2,6.8E1,2.3E1,1.62E2,2.74E2,1.98E2,2.5E1,1.05E2,5.1E1,1.7E1,1.49E2,1.3E1,1.2E1,2.62E2,5.4E1,1.44E2,7E0,1.8E1,5.5E1,5E1,7E0,4.4E1,1E1,7E0],"tree_param":{"num_deleted":"0","num_feature":"10","num_nodes":"29","size_leaf_vector":"1"}},{"base_weights":[4.780409E-2,6.835436E-1,-1.212479E0,3.6768346E0,3.7498477E-1,-2.635705E-1,-8.732375E-1,1.3172833E0,2.8556213E-1,1.2960678E-1,2.89378E0,6.3702136E-1,-1.8762044E0,1.3069262E-1,-5.782775E-2,-2.44983E-2,4.32226E-2,1.7422971E-1,-2.3285985E-2,-1.0164701E-1,6.799256E-2,-3.8967647E-2,-1.4603478E-1],"categories":[],"categories_nodes":[],"categories_segments":[],"categories_sizes":[],"default_left":[0,0,0,0,0,0,0,0,0,0,0,0,0,0,0,0,0,0,0,0,0,0,0],"id":48,"left_children":[1,3,5,7,9,-1,11,13,-1,15,17,19,21,-1,-1,-1,-1,-1,-1,-1,-1,-1,-1],"loss_changes":[7.1175183E2,5.3114026E2,3.6430145E2,1.8398242E2,3.3370856E2,0E0,4.4668213E2,1.5211572E2,0E0,2.3552287E2,1.1150073E2,2.6309613E2,1.777265E2,0E0,0E0,0E0,0E0,0E0,0E0,0E0,0E0,0E0,0E0],"parents":[2147483647,0,0,1,1,2,2,3,3,4,4,6,6,7,7,9,9,10,10,11,11,12,12],"right_children":[2,4,6,8,10,-1,12,14,-1,16,18,20,22,-1,-1,-1,-1,-1,-1,-1,-1,-1,-1],"split_conditions":[9.638811E-2,-1.8253242E0,-2.3512318E0,-9.317524E-1,9.521442E-1,-2.635705E-1,7.833412E-2,-9.948894E-1,2.8556213E-1,1.2907265E-1,1.4780227E0,4.190071E-1,2.836464E-1,1.3069262E-1,-5.782775E-2,-2.44983E-2,4.32226E-2,1.7422971E-1,-2.3285985E-2,-1.0164701E-1,6.799256E-2,-3.8967647E-2,-1.4603478E-1],"split_indices":[0,3,4,1,2,0,3,0,0,5,2,0,4,0,0,0,0,0,0,0,0,0,0],"split_type":[0,0,0,0,0,0,0,0,0,0,0,0,0,0,0,0,0,0,0,0,0,0,0],"sum_hessian":[8.68E2,5.8E2,2.88E2,4.4E1,5.36E2,1.1E1,2.77E2,2.8E1,1.6E1,4.98E2,3.8E1,1.12E2,1.65E2,1.8E1,1E1,2.72E2,2.26E2,3.2E1,6E0,2E1,9.2E1,8.9E1,7.6E1],"tree_param":{"num_deleted":"0","num_feature":"10","num_nodes":"23","size_leaf_vector":"1"}},{"base_weights":[8.406712E-2,9.306347E-1,-8.3204025E-1,2.3262484E0,3.463531E-1,-5.9547865E-1,-2.793015E-1,4.187237E0,1.5152662E0,-2.8379625E-1,1.0489252E0,3.6983007E-1,-1.4041089E0,5.2891686E-3,2.7796808E-1,1.418283E-1,5.272005E-4,3.2944582E-2,-8.017178E-2,3.5365887E-2,8.528841E-2,-8.9368396E-2,4.6301994E-2,-1.0232178E-1,-3.7587401E-3],"categories":[],"categories_nodes":[],"categories_segments":[],"categories_sizes":[],"default_left":[0,0,0,0,0,0,0,0,0,0,0,0,0,0,0,0,0,0,0,0,0,0,0,0,0],"id":49,"left_children":[1,3,5,7,9,11,-1,13,15,17,19,21,23,-1,-1,-1,-1,-1,-1,-1,-1,-1,-1,-1,-1],"loss_changes":[6.871222E2,3.670414E2,4.458208E2,1.3878882E2,1.5173254E2,3.306938E2,0E0,1.901283E2,2.1641353E2,2.4070634E2,2.4060379E1,2.5412299E2,1.9393823E2,0E0,0E0,0E0,0E0,0E0,0E0,0E0,0E0,0E0,0E0,0E0,0E0],"parents":[2147483647,0,0,1,1,2,2,3,3,4,4,5,5,7,7,8,8,9,9,10,10,11,11,12,12],"right_children":[2,4,6,8,10,12,-1,14,16,18,20,22,24,-1,-1,-1,-1,-1,-1,-1,-1,-1,-1,-1,-1],"split_conditions":[-8.265826E-2,2.5761682E-3,2.0919993E0,-1.8253242E0,-7.6191485E-2,3.4316468E-1,-2.793015E-1,-1.2593193E0,2.4906527E-1,6.405566E-1,-3.9698786E-1,-8.594103E-1,-2.8881764E-2,5.2891686E-3,2.7796808E-1,1.418283E-1,5.272005E-4,3.2944582E-2,-8.017178E-2,3.5365887E-2,8.528841E-2,-8.9368396E-2,4.6301994E-2,-1.0232178E-1,-3.7587401E-3],"split_indices":[1,6,2,3,8,3,0,1,8,6,1,8,8,0,0,0,0,0,0,0,0,0,0,0,0],"split_type":[0,0,0,0,0,0,0,0,0,0,0,0,0,0,0,0,0,0,0,0,0,0,0,0,0],"sum_hessian":[8.66E2,4.5E2,4.16E2,1.24E2,3.26E2,4.07E2,9E0,2.5E1,9.9E1,1.75E2,1.51E2,1.88E2,2.19E2,9E0,1.6E1,4.8E1,5.1E1,1.05E2,7E1,1.13E2,3.8E1,3.4E1,1.54E2,1.44E2,7.5E1],"tree_param":{"num_deleted":"0","num_feature":"10","num_nodes":"25","size_leaf_vector":"1"}},{"base_weights":[7.837429E-2,2.160523E0,-1.945229E-1,1.8644103E-1,1.1395968E0,-1.8626667E0,1.459216E-1,1.4035316E0,-3.165352E-2,9.926275E-2,-2.321972E0,4.1540247E-1,-2.2502058E0,8.845405E-2,-1.5462177E-2,-2.5699618E-1,-7.5899236E-2,9.578115E-3,9.364834E-2,-1.105954E-2,-1.6303687E-1],"categories":[],"categories_nodes":[],"categories_segments":[],"categories_sizes":[],"default_left":[0,0,0,0,0,0,0,0,0,0,0,0,0,0,0,0,0,0,0,0,0],"id":50,"left_children":[1,3,5,-1,7,9,11,13,-1,-1,15,17,19,-1,-1,-1,-1,-1,-1,-1,-1],"loss_changes":[5.1502576E2,1.2562369E2,4.59318E2,0E0,4.537909E1,2.8822687E2,4.4649344E2,4.992415E1,0E0,0E0,2.0970758E2,1.9771538E2,1.3631436E2,0E0,0E0,0E0,0E0,0E0,0E0,0E0,0E0],"parents":[2147483647,0,0,1,1,2,2,4,4,5,5,6,6,7,7,10,10,11,11,12,12],"right_children":[2,4,6,-1,8,10,12,14,-1,-1,16,18,20,-1,-1,-1,-1,-1,-1,-1,-1],"split_conditions":[-9.77538E-1,1.6356698E-1,-7.7288556E-1,1.8644103E-1,1.168273E0,-1.4834188E0,1.0786364E0,5.958627E-1,-3.165352E-2,9.926275E-2,-6.868586E-1,5.9157753E-1,6.1063033E-1,8.845405E-2,-1.5462177E-2,-2.5699618E-1,-7.5899236E-2,9.578115E-3,9.364834E-2,-1.105954E-2,-1.6303687E-1],"split_indices":[0,6,8,0,6,2,3,8,0,0,3,9,2,0,0,0,0,0,0,0,0],"split_type":[0,0,0,0,0,0,0,0,0,0,0,0,0,0,0,0,0,0,0,0,0],"sum_hessian":[8.89E2,9.5E1,7.94E2,2.7E1,6.8E1,1.27E2,6.67E2,6.1E1,7E0,1E1,1.17E2,6.07E2,6E1,5E1,1.1E1,1.4E1,1.03E2,5.36E2,7.1E1,2.4E1,3.6E1],"tree_param":{"num_deleted":"0","num_feature":"10","num_nodes":"21","size_leaf_vector":"1"}},{"base_weights":[8.2800955E-2,7.8083E-1,-7.413667E-1,2.350388E0,1.566862E-1,-5.2171075E-1,-2.5870645E-1,2.5622E-1,1.6347638E0,-2.4794383E0,4.3404856E-1,-1.4273562E0,7.996159E-2,1.1378795E-1,-1.9052852E-2,-2.4414463E-2,-1.6529995E-1,1.1839592E-1,3.7010578E-3,-1.501791E-1,-4.1397817E-2,-1.7102126E-2,1.2894848E-1],"categories":[],"categories_nodes":[],"categories_segments":[],"categories_sizes":[],"default_left":[0,0,0,0,0,0,0,0,0,0,0,0,0,0,0,0,0,0,0,0,0,0,0],"id":51,"left_children":[1,3,5,7,9,11,-1,-1,13,15,17,19,21,-1,-1,-1,-1,-1,-1,-1,-1,-1,-1],"loss_changes":[5.074443E2,4.6360074E2,3.6734738E2,1.8422345E2,2.681309E2,2.1746735E2,0E0,0E0,1.6631198E2,4.1460373E1,2.2591968E2,1.2535321E2,2.7035992E2,0E0,0E0,0E0,0E0,0E0,0E0,0E0,0E0,0E0,0E0],"parents":[2147483647,0,0,1,1,2,2,3,3,4,4,5,5,8,8,9,9,10,10,11,11,12,12],"right_children":[2,4,6,8,10,12,-1,-1,14,16,18,20,22,-1,-1,-1,-1,-1,-1,-1,-1,-1,-1],"split_conditions":[-3.0640239E-2,1.20203905E-2,2.0919993E0,-2.5508602E0,-1.145081E0,-3.5497826E-1,-2.5870645E-1,2.5622E-1,1.4921371E0,-1.1281922E0,-1.13917E0,-3.348844E-1,1.5361861E0,1.1378795E-1,-1.9052852E-2,-2.4414463E-2,-1.6529995E-1,1.1839592E-1,3.7010578E-3,-1.501791E-1,-4.1397817E-2,-1.7102126E-2,1.2894848E-1],"split_indices":[1,6,2,6,8,8,0,0,4,1,5,2,1,0,0,0,0,0,0,0,0,0,0],"split_type":[0,0,0,0,0,0,0,0,0,0,0,0,0,0,0,0,0,0,0,0,0,0,0],"sum_hessian":[8.62E2,4.67E2,3.95E2,1.25E2,3.42E2,3.87E2,8E0,1.3E1,1.12E2,2.5E1,3.17E2,1.49E2,2.38E2,8.4E1,2.8E1,1.2E1,1.3E1,4.1E1,2.76E2,3E1,1.19E2,2.11E2,2.7E1],"tree_param":{"num_deleted":"0","num_feature":"10","num_nodes":"23","size_leaf_vector":"1"}},{"base_weights":[-4.095848E-2,9.199206E-2,-2.618814E-1,2.1523802E0,-1.4894815E-1,-2.0478716E-2,2.4486618E0,-1.8730106E0,1.2837586E-1,1.4242564E-1,-3.8964767E-2,-1.2432978E-1,3.9503627E-2,2.8243778E-2,-2.0283066E-2],"categories":[],"categories_nodes":[],"categories_segments":[],"categories_sizes":[],"default_left":[0,0,0,0,0,0,0,0,0,0,0,0,0,0,0],"id":52,"left_children":[1,3,-1,5,7,-1,9,11,13,-1,-1,-1,-1,-1,-1],"loss_changes":[6.093557E2,4.3162534E2,0E0,7.910358E1,3.762974E2,0E0,1.2932648E2,1.9775491E2,1.6150359E2,0E0,0E0,0E0,0E0,0E0,0E0],"parents":[2147483647,0,0,1,1,3,3,4,4,6,6,7,7,8,8],"right_children":[2,4,-1,6,8,-1,10,12,14,-1,-1,-1,-1,-1,-1],"split_conditions":[2.0919993E0,-1.4834188E0,-2.618814E-1,-1.7197508E0,-8.594103E-1,-2.0478716E-2,1.5524443E0,-2.4542433E-1,3.890215E-1,1.4242564E-1,-3.8964767E-2,-1.2432978E-1,3.9503627E-2,2.8243778E-2,-2.0283066E-2],"split_indices":[2,2,0,2,8,0,8,4,3,0,0,0,0,0,0],"split_type":[0,0,0,0,0,0,0,0,0,0,0,0,0,0,0],"sum_hessian":[8.65E2,8.53E2,1.2E1,8.1E1,7.72E2,8E0,7.3E1,9.9E1,6.73E2,6.6E1,7E0,8.1E1,1.8E1,3.7E2,3.03E2],"tree_param":{"num_deleted":"0","num_feature":"10","num_nodes":"15","size_leaf_vector":"1"}},{"base_weights":[-1.9132113E-1,6.70194E-1,-9.697217E-1,3.8221574E-1,2.6499155E0,-7.3134273E-1,-3.840103E0,1.2776282E-1,1.0437387E-1,4.407703E0,8.8231405E-3,-1.0333534E0,2.0553157E0,-3.151767E-2,-4.6473722E0,-6.738088E-2,2.2935316E-2,2.5423655E-1,1.7042695E-2,-4.4209566E-2,3.677304E-2,-3.03853E-2,-1.3873065E-1,-8.803425E-2,1.7491975E-1,-5.674806E-2,-2.7130175E-1],"categories":[],"categories_nodes":[],"categories_segments":[],"categories_sizes":[],"default_left":[0,0,0,0,0,0,0,0,0,0,0,0,0,0,0,0,0,0,0,0,0,0,0,0,0,0,0],"id":53,"left_children":[1,3,5,7,9,11,13,15,-1,17,19,21,23,-1,25,-1,-1,-1,-1,-1,-1,-1,-1,-1,-1,-1,-1],"loss_changes":[5.7315924E2,2.2190915E2,2.7845447E2,1.5657751E2,2.3173495E2,3.7976062E2,5.362137E1,1.6730989E2,0E0,6.5269714E1,2.5969818E1,2.7293307E2,3.094013E2,0E0,4.0561523E0,0E0,0E0,0E0,0E0,0E0,0E0,0E0,0E0,0E0,0E0,0E0,0E0],"parents":[2147483647,0,0,1,1,2,2,3,3,4,4,5,5,6,6,7,7,9,9,10,10,11,11,12,12,14,14],"right_children":[2,4,6,8,10,12,14,16,-1,18,20,22,24,-1,26,-1,-1,-1,-1,-1,-1,-1,-1,-1,-1,-1,-1],"split_conditions":[-3.4206986E-1,1.0227821E0,1.7220594E0,7.2946167E-1,-7.7016497E-1,1.6657429E0,5.6946796E-1,-3.9123693E-1,1.0437387E-1,-2.9921547E-1,1.4739448E0,1.0781012E0,-3.6921462E-1,-3.151767E-2,2.0919993E0,-6.738088E-2,2.2935316E-2,2.5423655E-1,1.7042695E-2,-4.4209566E-2,3.677304E-2,-3.03853E-2,-1.3873065E-1,-8.803425E-2,1.7491975E-1,-5.674806E-2,-2.7130175E-1],"split_indices":[0,7,2,2,0,1,0,8,0,1,7,1,2,0,2,0,0,0,0,0,0,0,0,0,0,0,0],"split_type":[0,0,0,0,0,0,0,0,0,0,0,0,0,0,0,0,0,0,0,0,0,0,0,0,0,0,0],"sum_hessian":[8.35E2,3.97E2,4.38E2,3.57E2,4E1,4.16E2,2.2E1,3.2E2,3.7E1,2E1,2E1,3.81E2,3.5E1,8E0,1.4E1,5.3E1,2.67E2,1.5E1,5E0,8E0,1.2E1,3.17E2,6.4E1,9E0,2.6E1,7E0,7E0],"tree_param":{"num_deleted":"0","num_feature":"10","num_nodes":"27","size_leaf_vector":"1"}},{"base_weights":[1.2233791E-1,1.0258775E0,-4.0234846E-1,7.80203E-1,1.6322081E-1,-5.290626E-1,2.658604E0,1.7319078E0,3.2944983E-1,