{"learner":{"attributes":{"scikit_learn":"{\"_estimator_type\": \"regressor\"}"},"feature_names":[],"feature_types":[],"gradient_booster":{"model":{"gbtree_model_param":{"num_parallel_tree":"1","num_trees":"500"},"iteration_indptr":[0,1,2,3,4,5,6,7,8,9,10,11,12,13,14,15,16,17,18,19,20,21,22,23,24,25,26,27,28,29,30,31,32,33,34,35,36,37,38,39,40,41,42,43,44,45,46,47,48,49,50,51,52,53,54,55,56,57,58,59,60,61,62,63,64,65,66,67,68,69,70,71,72,73,74,75,76,77,78,79,80,81,82,83,84,85,86,87,88,89,90,91,92,93,94,95,96,97,98,99,100,101,102,103,104,105,106,107,108,109,110,111,112,113,114,115,116,117,118,119,120,121,122,123,124,125,126,127,128,129,130,131,132,133,134,135,136,137,138,139,140,141,142,143,144,145,146,147,148,149,150,151,152,153,154,155,156,157,158,159,160,161,162,163,164,165,166,167,168,169,170,171,172,173,174,175,176,177,178,179,180,181,182,183,184,185,186,187,188,189,190,191,192,193,194,195,196,197,198,199,200,201,202,203,204,205,206,207,208,209,210,211,212,213,214,215,216,217,218,219,220,221,222,223,224,225,226,227,228,229,230,231,232,233,234,235,236,237,238,239,240,241,242,243,244,245,246,247,248,249,250,251,252,253,254,255,256,257,258,259,260,261,262,263,264,265,266,267,268,269,270,271,272,273,274,275,276,277,278,279,280,281,282,283,284,285,286,287,288,289,290,291,292,293,294,295,296,297,298,299,300,301,302,303,304,305,306,307,308,309,310,311,312,313,314,315,316,317,318,319,320,321,322,323,324,325,326,327,328,329,330,331,332,333,334,335,336,337,338,339,340,341,342,343,344,345,346,347,348,349,350,351,352,353,354,355,356,357,358,359,360,361,362,363,364,365,366,367,368,369,370,371,372,373,374,375,376,377,378,379,380,381,382,383,384,385,386,387,388,389,390,391,392,393,394,395,396,397,398,399,400,401,402,403,404,405,406,407,408,409,410,411,412,413,414,415,416,417,418,419,420,421,422,423,424,425,426,427,428,429,430,431,432,433,434,435,436,437,438,439,440,441,442,443,444,445,446,447,448,449,450,451,452,453,454,455,456,457,458,459,460,461,462,463,464,465,466,467,468,469,470,471,472,473,474,475,476,477,478,479,480,481,482,483,484,485,486,487,488,489,490,491,492,493,494,495,496,497,498,499,500],"tree_info":[0,0,0,0,0,0,0,0,0,0,0,0,0,0,0,0,0,0,0,0,0,0,0,0,0,0,0,0,0,0,0,0,0,0,0,0,0,0,0,0,0,0,0,0,0,0,0,0,0,0,0,0,0,0,0,0,0,0,0,0,0,0,0,0,0,0,0,0,0,0,0,0,0,0,0,0,0,0,0,0,0,0,0,0,0,0,0,0,0,0,0,0,0,0,0,0,0,0,0,0,0,0,0,0,0,0,0,0,0,0,0,0,0,0,0,0,0,0,0,0,0,0,0,0,0,0,0,0,0,0,0,0,0,0,0,0,0,0,0,0,0,0,0,0,0,0,0,0,0,0,0,0,0,0,0,0,0,0,0,0,0,0,0,0,0,0,0,0,0,0,0,0,0,0,0,0,0,0,0,0,0,0,0,0,0,0,0,0,0,0,0,0,0,0,0,0,0,0,0,0,0,0,0,0,0,0,0,0,0,0,0,0,0,0,0,0,0,0,0,0,0,0,0,0,0,0,0,0,0,0,0,0,0,0,0,0,0,0,0,0,0,0,0,0,0,0,0,0,0,0,0,0,0,0,0,0,0,0,0,0,0,0,0,0,0,0,0,0,0,0,0,0,0,0,0,0,0,0,0,0,0,0,0,0,0,0,0,0,0,0,0,0,0,0,0,0,0,0,0,0,0,0,0,0,0,0,0,0,0,0,0,0,0,0,0,0,0,0,0,0,0,0,0,0,0,0,0,0,0,0,0,0,0,0,0,0,0,0,0,0,0,0,0,0,0,0,0,0,0,0,0,0,0,0,0,0,0,0,0,0,0,0,0,0,0,0,0,0,0,0,0,0,0,0,0,0,0,0,0,0,0,0,0,0,0,0,0,0,0,0,0,0,0,0,0,0,0,0,0,0,0,0,0,0,0,0,0,0,0,0,0,0,0,0,0,0,0,0,0,0,0,0,0,0,0,0,0,0,0,0,0,0,0,0,0,0,0,0,0,0,0,0,0,0,0,0,0,0,0,0,0,0,0,0,0,0,0,0,0,0,0,0,0,0,0,0,0,0,0,0,0,0,0,0,0,0,0,0,0,0,0,0,0,0,0,0,0,0,0,0,0,0,0,0,0,0,0,0,0,0],"trees":[{"base_weights":[-1.0672293E-1,1.2592302E-1,-1.0144333E0,-1.4570253E0,2.4555852E0,8.778736E-3,-6.78832E-2,-8.958384E-3,8.6598724E-2],"categories":[],"categories_nodes":[],"categories_segments":[],"categories_sizes":[],"default_left":[0,0,0,0,0,0,0,0,0],"id":0,"left_children":[1,-1,3,5,7,-1,-1,-1,-1],"loss_changes":[3.6095374E3,0E0,1.2750825E3,1.0002201E3,1.4360254E2,0E0,0E0,0E0,0E0],"parents":[2147483647,0,0,2,2,3,3,4,4],"right_children":[2,-1,4,6,8,-1,-1,-1,-1],"split_conditions":[-1.0206857E0,1.2592302E-1,1.006107E0,-1.329303E-1,7.213215E-2,8.778736E-3,-6.78832E-2,-8.958384E-3,8.6598724E-2],"split_indices":[3,0,4,9,5,0,0,0,0],"split_type":[0,0,0,0,0,0,0,0,0],"sum_hessian":[8.62E2,1.31E2,7.31E2,6.64E2,6.7E1,2.15E2,4.49E2,1E1,5.7E1],"tree_param":{"num_deleted":"0","num_feature":"10","num_nodes":"9","size_leaf_vector":"1"}},{"base_weights":[7.2406076E-2,3.1992671E0,-1.8647985E0,4.364282E0,6.3589996E-1,-2.3721669E0,9.3406934E-1,1.563126E-1,7.224383E-2,3.790196E-2,-6.929475E-3,2.8564942E-3,-8.287722E-2,-3.5380244E-2,6.9912665E-2],"categories":[],"categories_nodes":[],"categories_segments":[],"categories_sizes":[],"default_left":[0,0,0,0,0,0,0,0,0,0,0,0,0,0,0],"id":1,"left_children":[1,3,5,7,9,11,13,-1,-1,-1,-1,-1,-1,-1,-1],"loss_changes":[5.607718E3,9.689138E2,8.801836E2,9.893066E0,8.920639E1,4.8545776E2,4.0526828E2,0E0,0E0,0E0,0E0,0E0,0E0,0E0,0E0],"parents":[2147483647,0,0,1,1,2,2,3,3,4,4,5,5,6,6],"right_children":[2,4,6,8,10,12,14,-1,-1,-1,-1,-1,-1,-1,-1],"split_conditions":[-3.6067054E-1,-1.0200438E-1,7.9917425E-1,-1.0397117E0,-2.7288616E-1,-1.3493028E-1,2.3188129E-1,1.563126E-1,7.224383E-2,3.790196E-2,-6.929475E-3,2.8564942E-3,-8.287722E-2,-3.5380244E-2,6.9912665E-2],"split_indices":[2,3,1,3,1,2,2,0,0,0,0,0,0,0,0],"split_type":[0,0,0,0,0,0,0,0,0,0,0,0,0,0,0],"sum_hessian":[8.66E2,3.24E2,5.42E2,2.08E2,1.16E2,4.63E2,7.9E1,1.1E2,9.8E1,6E1,5.6E1,6.6E1,3.97E2,3.3E1,4.6E1],"tree_param":{"num_deleted":"0","num_feature":"10","num_nodes":"15","size_leaf_vector":"1"}},{"base_weights":[-1.2039664E-1,1.2564772E-1,-1.0107809E0,-1.3747952E0,1.9709685E0,2.0560136E-2,-5.7173986E-2,-4.626749E-3,7.1005575E-2],"categories":[],"categories_nodes":[],"categories_segments":[],"categories_sizes":[],"default_left":[0,0,0,0,0,0,0,0,0],"id":2,"left_children":[1,-1,3,5,7,-1,-1,-1,-1],"loss_changes":[3.6264194E3,0E0,9.283911E2,8.214768E2,9.477246E1,0E0,0E0,0E0,0E0],"parents":[2147483647,0,0,2,2,3,3,4,4],"right_children":[2,-1,4,6,8,-1,-1,-1,-1],"split_conditions":[-1.0206857E0,1.2564772E-1,9.5540166E-1,-1.6816345E-1,7.213215E-2,2.0560136E-2,-5.7173986E-2,-4.626749E-3,7.1005575E-2],"split_indices":[3,0,4,9,5,0,0,0,0],"split_type":[0,0,0,0,0,0,0,0,0],"sum_hessian":[8.83E2,1.32E2,7.51E2,6.84E2,6.7E1,1.38E2,5.46E2,1.3E1,5.4E1],"tree_param":{"num_deleted":"0","num_feature":"10","num_nodes":"9","size_leaf_vector":"1"}},{"base_weights":[1.7171626E-1,3.1008325E0,-1.6337937E0,2.1894836E0,4.548825E0,-2.2068434E0,1.665749E0,7.1961805E-2,-1.1162618E-2,1.6604673E-2,1.4352222E-1,-1.01990355E-2,-7.8077115E-2,-9.995879E-3,7.787511E-2],"categories":[],"categories_nodes":[],"categories_segments":[],"categories_sizes":[],"default_left":[0,0,0,0,0,0,0,0,0,0,0,0,0,0,0],"id":3,"left_children":[1,3,5,7,9,11,13,-1,-1,-1,-1,-1,-1,-1,-1],"loss_changes":[4.7915073E3,1.4974536E2,1.1734532E3,1.7352026E2,1.3913818E1,3.3399E2,2.1412982E2,0E0,0E0,0E0,0E0,0E0,0E0,0E0,0E0],"parents":[2147483647,0,0,1,1,2,2,3,3,4,4,5,5,6,6],"right_children":[2,4,6,8,10,12,14,-1,-1,-1,-1,-1,-1,-1,-1],"split_conditions":[-3.7585077E-1,3.4250712E-1,7.9917425E-1,8.74863E-1,-7.4987113E-1,-1.4803022E-1,2.2298256E-1,7.1961805E-2,-1.1162618E-2,1.6604673E-2,1.4352222E-1,-1.01990355E-2,-7.8077115E-2,-9.995879E-3,7.787511E-2],"split_indices":[2,8,1,1,1,9,2,0,0,0,0,0,0,0,0],"split_type":[0,0,0,0,0,0,0,0,0,0,0,0,0,0,0],"sum_hessian":[8.47E2,3.15E2,5.32E2,2.4E2,7.5E1,4.62E2,7E1,2.24E2,1.6E1,1E1,6.5E1,9.1E1,3.71E2,2.8E1,4.2E1],"tree_param":{"num_deleted":"0","num_feature":"10","num_nodes":"15","size_leaf_vector":"1"}},{"base_weights":[-2.1079255E-2,2.9655223E0,-1.8136632E0,5.0223947E0,2.0500815E0,-2.2515285E0,8.426279E-1,2.1462422E-2,1.6601047E-1,6.586144E-2,-4.488691E-3,-7.3662795E-2,1.5172298E-2,-2.771913E-2,6.408602E-2],"categories":[],"categories_nodes":[],"categories_segments":[],"categories_sizes":[],"default_left":[0,0,0,0,0,0,0,0,0,0,0,0,0,0,0],"id":4,"left_children":[1,3,5,7,9,11,13,-1,-1,-1,-1,-1,-1,-1,-1],"loss_changes":[5.0535146E3,3.506001E2,7.445525E2,6.877026E1,1.06506714E2,3.2873828E2,3.0037442E2,0E0,0E0,0E0,0E0,0E0,0E0,0E0,0E0],"parents":[2147483647,0,0,1,1,2,2,3,3,4,4,5,5,6,6],"right_children":[2,4,6,8,10,12,14,-1,-1,-1,-1,-1,-1,-1,-1],"split_conditions":[-3.7585077E-1,-1.2180012E0,7.9917425E-1,-3.3641905E-1,5.6774867E-1,9.315702E-1,2.3188129E-1,2.1462422E-2,1.6601047E-1,6.586144E-2,-4.488691E-3,-7.3662795E-2,1.5172298E-2,-2.771913E-2,6.408602E-2],"split_indices":[2,6,1,5,1,4,2,0,0,0,0,0,0,0,0],"split_type":[0,0,0,0,0,0,0,0,0,0,0,0,0,0,0],"sum_hessian":[8.84E2,3.24E2,5.6E2,5.8E1,2.66E2,4.85E2,7.5E1,1.4E1,4.4E1,2.5E2,1.6E1,4.55E2,3E1,3.5E1,4E1],"tree_param":{"num_deleted":"0","num_feature":"10","num_nodes":"15","size_leaf_vector":"1"}},{"base_weights":[1.0385995E-1,2.7705925E0,-1.5781269E0,3.927409E0,4.9718258E-1,-1.9359092E0,1.5562944E0,1.3875389E-1,3.9607633E-2,3.119065E-2,-1.9421513E-3,-6.8589166E-2,2.4939219E-2,7.464708E-2,-4.0633692E-3],"categories":[],"categories_nodes":[],"categories_segments":[],"categories_sizes":[],"default_left":[0,0,0,0,0,0,0,0,0,0,0,0,0,0,0],"id":5,"left_children":[1,3,5,7,9,11,13,-1,-1,-1,-1,-1,-1,-1,-1],"loss_changes":[4.039154E3,8.5220776E2,7.109215E2,2.2197314E2,4.933068E1,5.5298145E2,1.27555405E2,0E0,0E0,0E0,0E0,0E0,0E0,0E0,0E0],"parents":[2147483647,0,0,1,1,2,2,3,3,4,4,5,5,6,6],"right_children":[2,4,6,8,10,12,14,-1,-1,-1,-1,-1,-1,-1,-1],"split_conditions":[-3.6067054E-1,-1.8807413E-1,9.315702E-1,9.7257316E-1,3.580913E-1,6.9301057E-1,2.9690345E-3,1.3875389E-1,3.9607633E-2,3.119065E-2,-1.9421513E-3,-6.8589166E-2,2.4939219E-2,7.464708E-2,-4.0633692E-3],"split_indices":[2,3,4,6,3,0,9,0,0,0,0,0,0,0,0],"split_type":[0,0,0,0,0,0,0,0,0,0,0,0,0,0,0],"sum_hessian":[8.41E2,3.18E2,5.23E2,1.96E2,1.22E2,4.8E2,4.3E1,1.36E2,6E1,5E1,7.2E1,4.31E2,4.9E1,1.9E1,2.4E1],"tree_param":{"num_deleted":"0","num_feature":"10","num_nodes":"15","size_leaf_vector":"1"}},{"base_weights":[-4.0061776E-2,1.23485595E-1,-9.5120496E-1,-1.3467594E0,1.9429249E0,-8.2610855E-3,-5.464375E-2,-1.0511193E-2,7.206243E-2],"categories":[],"categories_nodes":[],"categories_segments":[],"categories_sizes":[],"default_left":[0,0,0,0,0,0,0,0,0],"id":6,"left_children":[1,-1,3,5,7,-1,-1,-1,-1],"loss_changes":[3.4960305E3,0E0,9.445063E2,3.3072998E2,1.357576E2,0E0,0E0,0E0,0E0],"parents":[2147483647,0,0,2,2,3,3,4,4],"right_children":[2,-1,4,6,8,-1,-1,-1,-1],"split_conditions":[-1.0616066E0,1.23485595E-1,9.315702E-1,-1.329303E-1,7.213215E-2,-8.2610855E-3,-5.464375E-2,-1.0511193E-2,7.206243E-2],"split_indices":[3,0,4,9,5,0,0,0,0],"split_type":[0,0,0,0,0,0,0,0,0],"sum_hessian":[8.63E2,1.36E2,7.27E2,6.54E2,7.3E1,2.16E2,4.38E2,1.3E1,6E1],"tree_param":{"num_deleted":"0","num_feature":"10","num_nodes":"9","size_leaf_vector":"1"}},{"base_weights":[3.8896766E-2,2.9656308E0,-1.7428838E0,3.8151896E0,1.6208102E-1,-2.1651385E0,7.2873557E-1,1.4160794E-1,4.222957E-2,-1.1464281E-2,1.6622387E-2,8.007949E-4,-7.457935E-2,-3.483868E-2,6.2222134E-2],"categories":[],"categories_nodes":[],"categories_segments":[],"categories_sizes":[],"default_left":[0,0,0,0,0,0,0,0,0,0,0,0,0,0,0],"id":7,"left_children":[1,3,5,7,9,11,13,-1,-1,-1,-1,-1,-1,-1,-1],"loss_changes":[4.82353E3,8.110945E2,6.4887134E2,3.7633057E2,3.063091E1,3.553601E2,3.4269882E2,0E0,0E0,0E0,0E0,0E0,0E0,0E0,0E0],"parents":[2147483647,0,0,1,1,2,2,3,3,4,4,5,5,6,6],"right_children":[2,4,6,8,10,12,14,-1,-1,-1,-1,-1,-1,-1,-1],"split_conditions":[-3.6067054E-1,2.7005854E-1,7.9917425E-1,7.202011E-1,-4.8746273E-1,-1.519426E-1,2.3188129E-1,1.4160794E-1,4.222957E-2,-1.1464281E-2,1.6622387E-2,8.007949E-4,-7.457935E-2,-3.483868E-2,6.2222134E-2],"split_indices":[2,3,1,6,0,2,2,0,0,0,0,0,0,0,0],"split_type":[0,0,0,0,0,0,0,0,0,0,0,0,0,0,0],"sum_hessian":[8.65E2,3.2E2,5.45E2,2.37E2,8.3E1,4.69E2,7.6E1,1.51E2,8.6E1,3.4E1,4.9E1,6.3E1,4.06E2,3.3E1,4.3E1],"tree_param":{"num_deleted":"0","num_feature":"10","num_nodes":"15","size_leaf_vector":"1"}},{"base_weights":[-3.3058535E-2,2.6895113E0,-1.7463723E0,4.4397235E0,1.2497426E0,-2.4769015E0,1.7470764E-1,4.5030087E-2,1.5466982E-1,-1.4051326E-2,5.968358E-2,7.9376966E-4,-8.25014E-2,6.2080435E-2,-3.1434838E-2],"categories":[],"categories_nodes":[],"categories_segments":[],"categories_sizes":[],"default_left":[0,0,0,0,0,0,0,0,0,0,0,0,0,0,0],"id":8,"left_children":[1,3,5,7,9,11,13,-1,-1,-1,-1,-1,-1,-1,-1],"loss_changes":[4.2028447E3,7.0478076E2,7.9136707E2,6.6254395E1,3.2559772E2,2.804702E2,4.8299887E2,0E0,0E0,0E0,0E0,0E0,0E0,0E0,0E0],"parents":[2147483647,0,0,1,1,2,2,3,3,4,4,5,5,6,6],"right_children":[2,4,6,8,10,12,14,-1,-1,-1,-1,-1,-1,-1,-1],"split_conditions":[-3.6067054E-1,-9.42166E-1,-4.225064E-2,-6.077198E-1,-4.9828082E-1,-1.8845363E-1,-1.000202E-1,4.5030087E-2,1.5466982E-1,-1.4051326E-2,5.968358E-2,7.9376966E-4,-8.25014E-2,6.2080435E-2,-3.1434838E-2],"split_indices":[2,3,0,5,0,2,9,0,0,0,0,0,0,0,0],"split_type":[0,0,0,0,0,0,0,0,0,0,0,0,0,0,0],"sum_hessian":[8.41E2,3.18E2,5.23E2,1.15E2,2.03E2,3.73E2,1.5E2,4.1E1,7.4E1,6.4E1,1.39E2,3.9E1,3.34E2,5.1E1,9.9E1],"tree_param":{"num_deleted":"0","num_feature":"10","num_nodes":"15","size_leaf_vector":"1"}},{"base_weights":[-4.0496394E-2,2.4980984E0,-1.5521216E0,4.2340636E0,1.2296667E0,-3.206186E0,-7.856057E-1,1.5271091E-1,2.606977E-2,-1.6699277E-2,5.9068352E-2,-1.0632849E-1,1.3921526E-3,7.7754796E-2,-3.3657067E-2],"categories":[],"categories_nodes":[],"categories_segments":[],"categories_sizes":[],"default_left":[0,0,0,0,0,0,0,0,0,0,0,0,0,0,0],"id":9,"left_children":[1,3,5,7,9,11,13,-1,-1,-1,-1,-1,-1,-1,-1],"loss_changes":[3.6189243E3,6.1342896E2,6.697534E2,2.5322192E2,3.591549E2,2.0307751E2,5.9006683E2,0E0,0E0,0E0,0E0,0E0,0E0,0E0,0E0],"parents":[2147483647,0,0,1,1,2,2,3,3,4,4,5,5,6,6],"right_children":[2,4,6,8,10,12,14,-1,-1,-1,-1,-1,-1,-1,-1],"split_conditions":[-3.7585077E-1,-1.0206857E0,-3.8465685E-1,9.7257316E-1,-5.0074464E-1,8.5589004E-1,-2.1501194E-1,1.5271091E-1,2.606977E-2,-1.6699277E-2,5.9068352E-2,-1.0632849E-1,1.3921526E-3,7.7754796E-2,-3.3657067E-2],"split_indices":[2,3,0,6,0,6,9,0,0,0,0,0,0,0,0],"split_type":[0,0,0,0,0,0,0,0,0,0,0,0,0,0,0],"sum_hessian":[8.83E2,3.22E2,5.61E2,1.06E2,2.16E2,1.47E2,4.14E2,7.2E1,3.4E1,6.5E1,1.51E2,1.31E2,1.6E1,1.9E1,3.95E2],"tree_param":{"num_deleted":"0","num_feature":"10","num_nodes":"15","size_leaf_vector":"1"}},{"base_weights":[9.814096E-2,2.5938838E0,-1.4191107E0,4.018581E0,9.019904E-1,-1.9168844E0,1.452939E0,3.0684838E-2,1.3631514E-1,-1.2756882E-2,4.5538284E-2,-9.579083E-2,-3.3501484E-2,-2.4113212E-2,8.6885884E-2],"categories":[],"categories_nodes":[],"categories_segments":[],"categories_sizes":[],"default_left":[0,0,0,0,0,0,0,0,0,0,0,0,0,0,0],"id":10,"left_children":[1,3,5,7,9,11,13,-1,-1,-1,-1,-1,-1,-1,-1],"loss_changes":[3.5082476E3,7.2999023E2,9.0891455E2,1.3981738E2,1.8314027E2,4.0438953E2,4.041447E2,0E0,0E0,0E0,0E0,0E0,0E0,0E0,0E0],"parents":[2147483647,0,0,1,1,2,2,3,3,4,4,5,5,6,6],"right_children":[2,4,6,8,10,12,14,-1,-1,-1,-1,-1,-1,-1,-1],"split_conditions":[-3.6067054E-1,-5.6625134E-1,7.9917425E-1,-1.4771192E0,-5.0074464E-1,-3.8465685E-1,2.3188129E-1,3.0684838E-2,1.3631514E-1,-1.2756882E-2,4.5538284E-2,-9.579083E-2,-3.3501484E-2,-2.4113212E-2,8.6885884E-2],"split_indices":[2,3,1,4,0,0,2,0,0,0,0,0,0,0,0],"split_type":[0,0,0,0,0,0,0,0,0,0,0,0,0,0,0],"sum_hessian":[8.67E2,3.2E2,5.47E2,1.51E2,1.69E2,4.75E2,7.2E1,3.6E1,1.15E2,5.6E1,1.13E2,1.48E2,3.27E2,3.3E1,3.9E1],"tree_param":{"num_deleted":"0","num_feature":"10","num_nodes":"15","size_leaf_vector":"1"}},{"base_weights":[1.4316338E-1,2.636104E0,-1.459601E0,3.5132895E0,4.0898523E-1,-2.9142134E0,-7.260043E-1,3.1219445E-2,1.1674549E-1,-1.4898856E-2,2.4458405E-2,-8.673385E-3,-1.1189019E-1,2.5611654E-2,-3.8196307E-2],"categories":[],"categories_nodes":[],"categories_segments":[],"categories_sizes":[],"default_left":[0,0,0,0,0,0,0,0,0,0,0,0,0,0,0],"id":11,"left_children":[1,3,5,7,9,11,13,-1,-1,-1,-1,-1,-1,-1,-1],"loss_changes":[3.6806785E3,6.5626587E2,5.325974E2,1.11122314E2,6.250609E1,3.446704E2,3.9090485E2,0E0,0E0,0E0,0E0,0E0,0E0,0E0,0E0],"parents":[2147483647,0,0,1,1,2,2,3,3,4,4,5,5,6,6],"right_children":[2,4,6,8,10,12,14,-1,-1,-1,-1,-1,-1,-1,-1],"split_conditions":[-3.7585077E-1,-1.0200438E-1,-3.800749E-1,-5.1920897E-1,-2.592155E-1,-4.8036635E-2,-1.2712263E-1,3.1219445E-2,1.1674549E-1,-1.4898856E-2,2.4458405E-2,-8.673385E-3,-1.1189019E-1,2.5611654E-2,-3.8196307E-2],"split_indices":[2,3,0,0,8,2,9,0,0,0,0,0,0,0,0],"split_type":[0,0,0,0,0,0,0,0,0,0,0,0,0,0,0],"sum_hessian":[8.62E2,3.3E2,5.32E2,2.24E2,1.06E2,1.48E2,3.84E2,4.5E1,1.79E2,3E1,7.6E1,4.5E1,1.03E2,9.4E1,2.9E2],"tree_param":{"num_deleted":"0","num_feature":"10","num_nodes":"15","size_leaf_vector":"1"}},{"base_weights":[-2.0184333E-2,2.286328E0,-1.4063587E0,4.1869073E0,1.4630818E0,-1.840099E0,7.770471E-1,1.2388028E-2,1.348547E-1,8.861862E-2,2.792425E-2,1.6716041E-3,-6.65516E-2,-2.9638696E-2,6.5218955E-2],"categories":[],"categories_nodes":[],"categories_segments":[],"categories_sizes":[],"default_left":[0,0,0,0,0,0,0,0,0,0,0,0,0,0,0],"id":12,"left_children":[1,3,5,7,9,11,13,-1,-1,-1,-1,-1,-1,-1,-1],"loss_changes":[2.9730874E3,3.5663757E2,5.941835E2,4.294153E1,1.4375824E2,3.6015063E2,3.5409064E2,0E0,0E0,0E0,0E0,0E0,0E0,0E0,0E0],"parents":[2147483647,0,0,1,1,2,2,3,3,4,4,5,5,6,6],"right_children":[2,4,6,8,10,12,14,-1,-1,-1,-1,-1,-1,-1,-1],"split_conditions":[-3.7585077E-1,-1.2180012E0,6.9350046E-1,-1.5235493E0,-2.378554E-1,-1.040464E-1,2.8435773E-1,1.2388028E-2,1.348547E-1,8.861862E-2,2.792425E-2,1.6716041E-3,-6.65516E-2,-2.9638696E-2,6.5218955E-2],"split_indices":[2,6,1,4,9,2,2,0,0,0,0,0,0,0,0],"split_type":[0,0,0,0,0,0,0,0,0,0,0,0,0,0,0],"sum_hessian":[8.7E2,3.19E2,5.51E2,5.9E1,2.6E2,4.64E2,8.7E1,1E1,4.9E1,3.2E1,2.28E2,8.1E1,3.83E2,4.2E1,4.5E1],"tree_param":{"num_deleted":"0","num_feature":"10","num_nodes":"15","size_leaf_vector":"1"}},{"base_weights":[1.5622249E-1,3.987231E0,-7.050568E-1,4.551092E0,1.2718626E0,-1.0464122E0,1.9899786E0,1.3986449E-1,1.0631284E-2,5.230657E-2,-4.224456E-3,1.9043604E-2,-4.4264548E-2,-6.2221834E-3,7.792342E-2],"categories":[],"categories_nodes":[],"categories_segments":[],"categories_sizes":[],"default_left":[0,0,0,0,0,0,0,0,0,0,0,0,0,0,0],"id":13,"left_children":[1,3,5,7,9,11,13,-1,-1,-1,-1,-1,-1,-1,-1],"loss_changes":[3.040733E3,7.928027E1,7.5702026E2,5.07666E0,5.6278847E1,5.273966E2,1.4536191E2,0E0,0E0,0E0,0E0,0E0,0E0,0E0,0E0],"parents":[2147483647,0,0,1,1,2,2,3,3,4,4,5,5,6,6],"right_children":[2,4,6,8,10,12,14,-1,-1,-1,-1,-1,-1,-1,-1],"split_conditions":[-1.0102668E0,7.202011E-1,9.315702E-1,-1.0397117E0,-1.9952483E-1,-1.6816345E-1,2.2844121E-1,1.3986449E-1,1.0631284E-2,5.230657E-2,-4.224456E-3,1.9043604E-2,-4.4264548E-2,-6.2221834E-3,7.792342E-2],"split_indices":[3,6,4,3,9,9,5,0,0,0,0,0,0,0,0],"split_type":[0,0,0,0,0,0,0,0,0,0,0,0,0,0,0],"sum_hessian":[8.65E2,1.39E2,7.26E2,9.8E1,4.1E1,6.61E2,6.5E1,9.2E1,6E0,2.6E1,1.5E1,1.31E2,5.3E2,1.8E1,4.7E1],"tree_param":{"num_deleted":"0","num_feature":"10","num_nodes":"15","size_leaf_vector":"1"}},{"base_weights":[6.865237E-2,2.3943534E0,-1.2315382E0,3.584984E0,6.8118536E-1,-1.6616441E0,1.1589292E0,1.3011016E-1,1.1884531E-2,-2.5139976E-2,2.660676E-2,-4.6213884E-3,-6.004194E-2,-3.210433E-2,8.077893E-2],"categories":[],"categories_nodes":[],"categories_segments":[],"categories_sizes":[],"default_left":[0,0,0,0,0,0,0,0,0,0,0,0,0,0,0],"id":14,"left_children":[1,3,5,7,9,11,13,-1,-1,-1,-1,-1,-1,-1,-1],"loss_changes":[2.708283E3,5.7723254E2,6.494632E2,3.8017236E2,7.515893E1,2.4470166E2,4.4703467E2,0E0,0E0,0E0,0E0,0E0,0E0,0E0,0E0],"parents":[2147483647,0,0,1,1,2,2,3,3,4,4,5,5,6,6],"right_children":[2,4,6,8,10,12,14,-1,-1,-1,-1,-1,-1,-1,-1],"split_conditions":[-4.018927E-1,-4.0943947E-1,7.9917425E-1,1.1807178E0,-6.421918E-1,-6.9629185E-2,2.3188129E-1,1.3011016E-1,1.1884531E-2,-2.5139976E-2,2.660676E-2,-4.6213884E-3,-6.004194E-2,-3.210433E-2,8.077893E-2],"split_indices":[2,3,1,6,8,2,2,0,0,0,0,0,0,0,0],"split_type":[0,0,0,0,0,0,0,0,0,0,0,0,0,0,0],"sum_hessian":[8.36E2,2.91E2,5.45E2,1.52E2,1.39E2,4.7E2,7.5E1,1.14E2,3.8E1,5E0,1.34E2,9.5E1,3.75E2,3.4E1,4.1E1],"tree_param":{"num_deleted":"0","num_feature":"10","num_nodes":"15","size_leaf_vector":"1"}},{"base_weights":[1.0730401E-1,2.4658225E0,-1.2932125E0,3.1095197E0,1.2554523E-1,-1.6450119E0,1.0772794E0,1.1135194E-1,1.7960342E-2,-1.6442554E-2,1.4940511E-2,5.45029E-4,-6.104546E-2,-2.5363864E-2,6.1336398E-2],"categories":[],"categories_nodes":[],"categories_segments":[],"categories_sizes":[],"default_left":[0,0,0,0,0,0,0,0,0,0,0,0,0,0,0],"id":15,"left_children":[1,3,5,7,9,11,13,-1,-1,-1,-1,-1,-1,-1,-1],"loss_changes":[2.9375415E3,4.8368176E2,5.19903E2,3.1913672E2,3.3982166E1,3.2666162E2,2.2043913E2,0E0,0E0,0E0,0E0,0E0,0E0,0E0,0E0],"parents":[2147483647,0,0,1,1,2,2,3,3,4,4,5,5,6,6],"right_children":[2,4,6,8,10,12,14,-1,-1,-1,-1,-1,-1,-1,-1],"split_conditions":[-3.9103097E-1,2.7005854E-1,7.9917425E-1,1.0921851E0,-2.1333101E-1,-8.677236E-2,5.6131046E-2,1.1135194E-1,1.7960342E-2,-1.6442554E-2,1.4940511E-2,5.45029E-4,-6.104546E-2,-2.5363864E-2,6.1336398E-2],"split_indices":[2,3,1,6,8,2,2,0,0,0,0,0,0,0,0],"split_type":[0,0,0,0,0,0,0,0,0,0,0,0,0,0,0],"sum_hessian":[8.3E2,3.01E2,5.29E2,2.28E2,7.3E1,4.69E2,6E1,1.72E2,5.6E1,2E1,5.3E1,9.4E1,3.75E2,2.1E1,3.9E1],"tree_param":{"num_deleted":"0","num_feature":"10","num_nodes":"15","size_leaf_vector":"1"}},{"base_weights":[-1.213787E-2,3.445789E0,-7.808968E-1,3.93807E0,1.0056413E0,-1.058617E0,1.9676782E0,1.2876324E-1,2.7346993E-2,4.2486116E-2,-0E0,-4.3237787E-2,-1.06424195E-4,-1.7885743E-2,7.1712375E-2],"categories":[],"categories_nodes":[],"categories_segments":[],"categories_sizes":[],"default_left":[0,0,0,0,0,0,0,0,0,0,0,0,0,0,0],"id":16,"left_children":[1,3,5,7,9,11,13,-1,-1,-1,-1,-1,-1,-1,-1],"loss_changes":[2.4705403E3,7.9256836E1,6.4247925E2,1.6714722E1,2.849533E1,2.8544293E2,1.3125546E2,0E0,0E0,0E0,0E0,0E0,0E0,0E0,0E0],"parents":[2147483647,0,0,1,1,2,2,3,3,4,4,5,5,6,6],"right_children":[2,4,6,8,10,12,14,-1,-1,-1,-1,-1,-1,-1,-1],"split_conditions":[-1.0206857E0,9.4197696E-1,1.1357434E0,1.9490238E0,-1.5242692E0,5.7086533E-1,-3.2974664E-2,1.2876324E-1,2.7346993E-2,4.2486116E-2,-0E0,-4.3237787E-2,-1.06424195E-4,-1.7885743E-2,7.1712375E-2],"split_indices":[3,6,4,7,3,6,5,0,0,0,0,0,0,0,0],"split_type":[0,0,0,0,0,0,0,0,0,0,0,0,0,0,0],"sum_hessian":[8.7E2,1.39E2,7.31E2,1E2,3.9E1,6.81E2,5E1,7.8E1,2.2E1,1.9E1,2E1,4.91E2,1.9E2,5E0,4.5E1],"tree_param":{"num_deleted":"0","num_feature":"10","num_nodes":"15","size_leaf_vector":"1"}},{"base_weights":[1.1757138E-1,2.345925E0,-1.2471815E0,3.0737796E0,6.913745E-1,-2.7997375E0,-4.8887184E-1,1.6759345E-2,1.0456509E-1,-1.2914454E-2,3.3783734E-2,-1.685074E-2,-1.0296801E-1,3.3901755E-2,-2.734741E-2],"categories":[],"categories_nodes":[],"categories_segments":[],"categories_sizes":[],"default_left":[0,0,0,0,0,0,0,0,0,0,0,0,0,0,0],"id":17,"left_children":[1,3,5,7,9,11,13,-1,-1,-1,-1,-1,-1,-1,-1],"loss_changes":[2.7255515E3,3.4193347E2,6.114162E2,1.7260864E2,8.4983894E1,1.8732068E2,3.1194766E2,0E0,0E0,0E0,0E0,0E0,0E0,0E0,0E0],"parents":[2147483647,0,0,1,1,2,2,3,3,4,4,5,5,6,6],"right_children":[2,4,6,8,10,12,14,-1,-1,-1,-1,-1,-1,-1,-1],"split_conditions":[-3.7585077E-1,-1.8807413E-1,-3.800749E-1,-5.1920897E-1,-2.592155E-1,-4.8036635E-2,-1.4803022E-1,1.6759345E-2,1.0456509E-1,-1.2914454E-2,3.3783734E-2,-1.685074E-2,-1.0296801E-1,3.3901755E-2,-2.734741E-2],"split_indices":[2,3,0,0,8,2,9,0,0,0,0,0,0,0,0],"split_type":[0,0,0,0,0,0,0,0,0,0,0,0,0,0,0],"sum_hessian":[8.37E2,3.1E2,5.27E2,1.97E2,1.13E2,1.46E2,3.81E2,3.8E1,1.59E2,3.1E1,8.2E1,4.5E1,1.01E2,6.8E1,3.13E2],"tree_param":{"num_deleted":"0","num_feature":"10","num_nodes":"15","size_leaf_vector":"1"}},{"base_weights":[1.3056982E-1,2.37429E0,-1.1944954E0,3.0705318E0,6.6526395E-1,-1.9981993E0,4.5531374E-1,1.08597614E-1,1.7950559E-2,-1.3023965E-2,3.30151E-2,-6.61528E-2,2.6032679E-2,8.255954E-2,-1.6637666E-2],"categories":[],"categories_nodes":[],"categories_segments":[],"categories_sizes":[],"default_left":[0,0,0,0,0,0,0,0,0,0,0,0,0,0,0],"id":18,"left_children":[1,3,5,7,9,11,13,-1,-1,-1,-1,-1,-1,-1,-1],"loss_changes":[2.750138E3,3.431167E2,8.0187054E2,2.4997607E2,8.103236E1,2.9473596E2,5.46658E2,0E0,0E0,0E0,0E0,0E0,0E0,0E0,0E0],"parents":[2147483647,0,0,1,1,2,2,3,3,4,4,5,5,6,6],"right_children":[2,4,6,8,10,12,14,-1,-1,-1,-1,-1,-1,-1,-1],"split_conditions":[-3.7585077E-1,-1.5062624E-1,-1.22451685E-1,1.1807178E0,-2.5671682E-1,9.5540166E-1,-1.2518674E-1,1.08597614E-1,1.7950559E-2,-1.3023965E-2,3.30151E-2,-6.61528E-2,2.6032679E-2,8.255954E-2,-1.6637666E-2],"split_indices":[2,3,0,6,8,4,9,0,0,0,0,0,0,0,0],"split_type":[0,0,0,0,0,0,0,0,0,0,0,0,0,0,0],"sum_hessian":[8.66E2,3.13E2,5.53E2,2.05E2,1.08E2,3.68E2,1.85E2,1.56E2,4.9E1,3E1,7.8E1,3.5E2,1.8E1,4.1E1,1.44E2],"tree_param":{"num_deleted":"0","num_feature":"10","num_nodes":"15","size_leaf_vector":"1"}},{"base_weights":[1.03062265E-1,2.132279E0,-1.2030872E0,3.7632046E0,1.012067E0,-2.0146372E0,1.0484367E-1,2.7601825E-2,1.2894118E-1,-8.431649E-3,4.3948483E-2,-6.636073E-2,3.705937E-2,5.8845602E-2,-2.774332E-2],"categories":[],"categories_nodes":[],"categories_segments":[],"categories_sizes":[],"default_left":[0,0,0,0,0,0,0,0,0,0,0,0,0,0,0],"id":19,"left_children":[1,3,5,7,9,11,13,-1,-1,-1,-1,-1,-1,-1,-1],"loss_changes":[2.4527012E3,5.4233386E2,6.06905E2,8.2951294E1,1.6345773E2,3.0747705E2,5.219041E2,0E0,0E0,0E0,0E0,0E0,0E0,0E0,0E0],"parents":[2147483647,0,0,1,1,2,2,3,3,4,4,5,5,6,6],"right_children":[2,4,6,8,10,12,14,-1,-1,-1,-1,-1,-1,-1,-1],"split_conditions":[-3.6067054E-1,-1.0397117E0,-2.0126507E-1,-1.5621184E0,-5.0074464E-1,1.2001477E0,-9.537407E-2,2.7601825E-2,1.2894118E-1,-8.431649E-3,4.3948483E-2,-6.636073E-2,3.705937E-2,5.8845602E-2,-2.774332E-2],"split_indices":[2,3,0,4,0,4,9,0,0,0,0,0,0,0,0],"split_type":[0,0,0,0,0,0,0,0,0,0,0,0,0,0,0],"sum_hessian":[8.66E2,3.32E2,5.34E2,1.06E2,2.26E2,3.2E2,2.14E2,3E1,7.6E1,6.1E1,1.65E2,3.11E2,9E0,6.7E1,1.47E2],"tree_param":{"num_deleted":"0","num_feature":"10","num_nodes":"15","size_leaf_vector":"1"}},{"base_weights":[-1.9335774E-3,1.7034111E0,-1.2974479E0,3.2160196E0,8.1438667E-1,-2.7846785E0,-5.5443317E-1,2.9038476E-2,1.09339185E-1,3.4117453E-2,-3.3782925E-2,1.05548315E-2,-9.7326554E-2,7.144395E-2,-2.5270006E-2],"categories":[],"categories_nodes":[],"categories_segments":[],"categories_sizes":[],"default_left":[0,0,0,0,0,0,0,0,0,0,0,0,0,0,0],"id":20,"left_children":[1,3,5,7,9,11,13,-1,-1,-1,-1,-1,-1,-1,-1],"loss_changes":[2.0277538E3,4.499165E2,5.2717114E2,2.05979E1,2.2011813E2,2.7639868E2,3.8490552E2,0E0,0E0,0E0,0E0,0E0,0E0,0E0,0E0],"parents":[2147483647,0,0,1,1,2,2,3,3,4,4,5,5,6,6],"right_children":[2,4,6,8,10,12,14,-1,-1,-1,-1,-1,-1,-1,-1],"split_conditions":[-2.360881E-1,-1.0397117E0,-3.800749E-1,-1.4771192E0,7.6033914E-1,-7.771748E-1,-2.1656065E-1,2.9038476E-2,1.09339185E-1,3.4117453E-2,-3.3782925E-2,1.05548315E-2,-9.7326554E-2,7.144395E-2,-2.5270006E-2],"split_indices":[2,3,0,4,1,4,9,0,0,0,0,0,0,0,0],"split_type":[0,0,0,0,0,0,0,0,0,0,0,0,0,0,0],"sum_hessian":[8.58E2,3.66E2,4.92E2,1.06E2,2.6E2,1.36E2,3.56E2,3.3E1,7.3E1,2.34E2,2.6E1,1.8E1,1.18E2,1.2E1,3.44E2],"tree_param":{"num_deleted":"0","num_feature":"10","num_nodes":"15","size_leaf_vector":"1"}},{"base_weights":[1.2447E-1,2.220476E0,-1.1327845E0,3.22114E0,6.429999E-1,-1.4253321E0,1.408212E0,1.1500037E-1,3.2356944E-2,-8.652963E-3,3.221667E-2,-5.098358E-2,3.270251E-2,-7.4401353E-3,7.276404E-2],"categories":[],"categories_nodes":[],"categories_segments":[],"categories_sizes":[],"default_left":[0,0,0,0,0,0,0,0,0,0,0,0,0,0,0],"id":21,"left_children":[1,3,5,7,9,11,13,-1,-1,-1,-1,-1,-1,-1,-1],"loss_changes":[2.413981E3,4.7543335E2,4.8692212E2,1.3601562E2,7.870761E1,4.2163538E2,1.4489821E2,0E0,0E0,0E0,0E0,0E0,0E0,0E0,0E0],"parents":[2147483647,0,0,1,1,2,2,3,3,4,4,5,5,6,6],"right_children":[2,4,6,8,10,12,14,-1,-1,-1,-1,-1,-1,-1,-1],"split_conditions":[-4.018927E-1,-4.0943947E-1,8.5542333E-1,7.7622145E-1,-5.0074464E-1,9.315702E-1,8.0079146E-2,1.1500037E-1,3.2356944E-2,-8.652963E-3,3.221667E-2,-5.098358E-2,3.270251E-2,-7.4401353E-3,7.276404E-2],"split_indices":[2,3,0,6,0,4,2,0,0,0,0,0,0,0,0],"split_type":[0,0,0,0,0,0,0,0,0,0,0,0,0,0,0],"sum_hessian":[8.57E2,3.13E2,5.44E2,1.72E2,1.41E2,5E2,4.4E1,1.15E2,5.7E1,4.7E1,9.4E1,4.6E2,4E1,2.5E1,1.9E1],"tree_param":{"num_deleted":"0","num_feature":"10","num_nodes":"15","size_leaf_vector":"1"}},{"base_weights":[7.515855E-2,3.0170448E0,-6.035996E-1,1.1326744E-1,1.451989E0,-8.731256E-1,1.6043644E0,5.4319903E-2,-1.5665263E-2,-4.014518E-2,9.341951E-3,-5.7859295E-3,5.7300642E-2],"categories":[],"categories_nodes":[],"categories_segments":[],"categories_sizes":[],"default_left":[0,0,0,0,0,0,0,0,0,0,0,0,0],"id":22,"left_children":[1,3,5,-1,7,9,11,-1,-1,-1,-1,-1,-1],"loss_changes":[1.822243E3,3.3312378E1,4.834552E2,0E0,1.0400166E2,3.892141E2,6.275792E1,0E0,0E0,0E0,0E0,0E0,0E0],"parents":[2147483647,0,0,1,1,2,2,4,4,5,5,6,6],"right_children":[2,4,6,-1,8,10,12,-1,-1,-1,-1,-1,-1],"split_conditions":[-9.966768E-1,-1.6066284E0,9.5540166E-1,1.1326744E-1,2.0159112E-1,5.7086533E-1,-1.2577241E-3,5.4319903E-2,-1.5665263E-2,-4.014518E-2,9.341951E-3,-5.7859295E-3,5.7300642E-2],"split_indices":[3,3,4,0,9,6,5,0,0,0,0,0,0],"split_type":[0,0,0,0,0,0,0,0,0,0,0,0,0],"sum_hessian":[8.54E2,1.41E2,7.13E2,6.6E1,7.5E1,6.52E2,6.1E1,6.6E1,9E0,4.66E2,1.86E2,1E1,5.1E1],"tree_param":{"num_deleted":"0","num_feature":"10","num_nodes":"13","size_leaf_vector":"1"}},{"base_weights":[1.2493162E-1,3.0327027E0,-5.564186E-1,3.5170052E0,7.942084E-1,-9.0658015E-1,1.9082066E0,1.11182526E-1,3.361172E-3,7.1654275E-2,-3.6740962E-2,1.086038E-2,-3.7917696E-2,7.9652235E-2,4.849571E-3],"categories":[],"categories_nodes":[],"categories_segments":[],"categories_sizes":[],"default_left":[0,0,0,0,0,0,0,0,0,0,0,0,0,0,0],"id":23,"left_children":[1,3,5,7,9,11,13,-1,-1,-1,-1,-1,-1,-1,-1],"loss_changes":[1.7549595E3,9.4022095E1,6.7313184E2,6.6776245E1,3.1100748E2,3.10195E2,1.1344739E2,0E0,0E0,0E0,0E0,0E0,0E0,0E0,0E0],"parents":[2147483647,0,0,1,1,2,2,3,3,4,4,5,5,6,6],"right_children":[2,4,6,8,10,12,14,-1,-1,-1,-1,-1,-1,-1,-1],"split_conditions":[-1.0102668E0,1.7031012E0,9.315702E-1,1.8958862E-1,-2.2801294E0,-1.6351733E-1,2.9690345E-3,1.11182526E-1,3.361172E-3,7.1654275E-2,-3.6740962E-2,1.086038E-2,-3.7917696E-2,7.9652235E-2,4.849571E-3],"split_indices":[3,5,4,9,6,9,9,0,0,0,0,0,0,0,0],"split_type":[0,0,0,0,0,0,0,0,0,0,0,0,0,0,0],"sum_hessian":[8.29E2,1.38E2,6.91E2,9.9E1,3.9E1,6.22E2,6.9E1,9.1E1,8E0,1.9E1,2E1,1.36E2,4.86E2,3.7E1,3.2E1],"tree_param":{"num_deleted":"0","num_feature":"10","num_nodes":"15","size_leaf_vector":"1"}},{"base_weights":[3.9446462E-2,1.8494295E0,-1.1510586E0,1.1669511E0,2.9200027E0,-1.4355247E0,1.3964416E0,4.539192E-2,-3.1379487E-2,1.0881056E-1,2.7705368E-2,-4.9306612E-2,1.4940639E-2,-1.3290112E-2,8.4244855E-2],"categories":[],"categories_nodes":[],"categories_segments":[],"categories_sizes":[],"default_left":[0,0,0,0,0,0,0,0,0,0,0,0,0,0,0],"id":24,"left_children":[1,3,5,7,9,11,13,-1,-1,-1,-1,-1,-1,-1,-1],"loss_changes":[1.9607811E3,1.574502E2,4.5802588E2,2.5551193E2,6.434766E1,2.3043823E2,2.214607E2,0E0,0E0,0E0,0E0,0E0,0E0,0E0,0E0],"parents":[2147483647,0,0,1,1,2,2,3,3,4,4,5,5,6,6],"right_children":[2,4,6,8,10,12,14,-1,-1,-1,-1,-1,-1,-1,-1],"split_conditions":[-3.024361E-1,3.1484497E-1,8.5542333E-1,4.9972117E-1,-1.0412161E0,9.315702E-1,4.1927844E-1,4.539192E-2,-3.1379487E-2,1.0881056E-1,2.7705368E-2,-4.9306612E-2,1.4940639E-2,-1.3290112E-2,8.4244855E-2],"split_indices":[2,5,0,1,6,4,2,0,0,0,0,0,0,0,0],"split_type":[0,0,0,0,0,0,0,0,0,0,0,0,0,0,0],"sum_hessian":[8.5E2,3.31E2,5.19E2,2.41E2,9E1,4.79E2,4E1,2.17E2,2.4E1,4.8E1,4.2E1,4.37E2,4.2E1,2.6E1,1.4E1],"tree_param":{"num_deleted":"0","num_feature":"10","num_nodes":"15","size_leaf_vector":"1"}},{"base_weights":[1.6265278E-1,2.0624623E0,-9.598031E-1,3.1329305E0,6.7464066E-1,-1.2894144E0,9.238105E-1,1.1209177E-1,3.27745E-2,2.5958917E-3,4.2214025E-2,4.8561753E-3,-5.054079E-2,4.4824135E-2,-3.8801413E-2],"categories":[],"categories_nodes":[],"categories_segments":[],"categories_sizes":[],"default_left":[0,0,0,0,0,0,0,0,0,0,0,0,0,0,0],"id":25,"left_children":[1,3,5,7,9,11,13,-1,-1,-1,-1,-1,-1,-1,-1],"loss_changes":[1.9732993E3,4.4235156E2,3.9868317E2,1.0050928E2,7.584161E1,3.0227203E2,1.8968597E2,0E0,0E0,0E0,0E0,0E0,0E0,0E0,0E0],"parents":[2147483647,0,0,1,1,2,2,3,3,4,4,5,5,6,6],"right_children":[2,4,6,8,10,12,14,-1,-1,-1,-1,-1,-1,-1,-1],"split_conditions":[-4.018927E-1,-5.58929E-1,7.9917425E-1,7.202011E-1,2.9765794E-1,-6.9629185E-2,1.9600013E0,1.1209177E-1,3.27745E-2,2.5958917E-3,4.2214025E-2,4.8561753E-3,-5.054079E-2,4.4824135E-2,-3.8801413E-2],"split_indices":[2,3,1,6,4,2,5,0,0,0,0,0,0,0,0],"split_type":[0,0,0,0,0,0,0,0,0,0,0,0,0,0,0],"sum_hessian":[8.67E2,3.13E2,5.54E2,1.55E2,1.58E2,4.8E2,7.4E1,1E2,5.5E1,1.07E2,5.1E1,1.06E2,3.74E2,6.7E1,7E0],"tree_param":{"num_deleted":"0","num_feature":"10","num_nodes":"15","size_leaf_vector":"1"}},{"base_weights":[8.1114955E-2,1.793663E0,-9.5318246E-1,2.172057E0,3.8128608E-1,-2.3117862E0,-2.795264E-1,6.775139E-2,-4.70914E-3,2.9540475E-2,-1.3987536E-2,-8.53623E-2,-7.6092863E-3,-2.4933018E-2,3.142515E-2],"categories":[],"categories_nodes":[],"categories_segments":[],"categories_sizes":[],"default_left":[0,0,0,0,0,0,0,0,0,0,0,0,0,0,0],"id":26,"left_children":[1,3,5,7,9,11,13,-1,-1,-1,-1,-1,-1,-1,-1],"loss_changes":[1.6055472E3,1.5484363E2,4.9604358E2,6.541101E1,7.0034424E1,1.7623364E2,3.2819897E2,0E0,0E0,0E0,0E0,0E0,0E0,0E0,0E0],"parents":[2147483647,0,0,1,1,2,2,3,3,4,4,5,5,6,6],"right_children":[2,4,6,8,10,12,14,-1,-1,-1,-1,-1,-1,-1,-1],"split_conditions":[-3.7585077E-1,9.7257316E-1,-3.800749E-1,2.151988E0,-8.649321E-1,5.7086533E-1,4.3380716E-1,6.775139E-2,-4.70914E-3,2.9540475E-2,-1.3987536E-2,-8.53623E-2,-7.6092863E-3,-2.4933018E-2,3.142515E-2],"split_indices":[2,6,0,1,4,6,1,0,0,0,0,0,0,0,0],"split_type":[0,0,0,0,0,0,0,0,0,0,0,0,0,0,0],"sum_hessian":[8.47E2,3.11E2,5.36E2,2.32E2,7.9E1,1.53E2,3.83E2,2.25E2,7E0,4.4E1,3.5E1,1.12E2,4.1E1,2.79E2,1.04E2],"tree_param":{"num_deleted":"0","num_feature":"10","num_nodes":"15","size_leaf_vector":"1"}},{"base_weights":[1.9849813E-1,2.2627318E0,-8.4822226E-1,2.9296944E0,7.084248E-1,9.695219E-1,-1.1447268E0,2.254189E-2,1.015155E-1,-7.74705E-3,4.163847E-2,-7.7285063E-3,7.175608E-2,-4.1380547E-2,2.720981E-2],"categories":[],"categories_nodes":[],"categories_segments":[],"categories_sizes":[],"default_left":[0,0,0,0,0,0,0,0,0,0,0,0,0,0,0],"id":27,"left_children":[1,3,5,7,9,11,13,-1,-1,-1,-1,-1,-1,-1,-1],"loss_changes":[2.0144049E3,2.5857385E2,3.6870926E2,1.2634717E2,9.990266E1,2.0039784E2,3.0228436E2,0E0,0E0,0E0,0E0,0E0,0E0,0E0,0E0],"parents":[2147483647,0,0,1,1,2,2,3,3,4,4,5,5,6,6],"right_children":[2,4,6,8,10,12,14,-1,-1,-1,-1,-1,-1,-1,-1],"split_conditions":[-4.917962E-1,-4.0943947E-1,-1.6816345E-1,-7.824474E-1,-3.6193493E-1,-1.3788791E-1,9.315702E-1,2.254189E-2,1.015155E-1,-7.74705E-3,4.163847E-2,-7.7285063E-3,7.175608E-2,-4.1380547E-2,2.720981E-2],"split_indices":[2,3,9,5,7,1,4,0,0,0,0,0,0,0,0],"split_type":[0,0,0,0,0,0,0,0,0,0,0,0,0,0,0],"sum_hessian":[8.75E2,2.83E2,5.92E2,1.79E2,1.04E2,7.3E1,5.19E2,4.5E1,1.34E2,5E1,5.4E1,5.2E1,2.1E1,4.75E2,4.4E1],"tree_param":{"num_deleted":"0","num_feature":"10","num_nodes":"15","size_leaf_vector":"1"}},{"base_weights":[2.0516634E-1,2.0809128E0,-9.3647987E-1,2.5419343E0,6.6279584E-1,-1.3166329E0,1.2212548E0,9.423689E-2,1.9218301E-2,4.777359E-2,1.2566573E-3,-7.3658396E-3,-5.2997634E-2,-1.3183867E-2,6.478026E-2],"categories":[],"categories_nodes":[],"categories_segments":[],"categories_sizes":[],"default_left":[0,0,0,0,0,0,0,0,0,0,0,0,0,0,0],"id":28,"left_children":[1,3,5,7,9,11,13,-1,-1,-1,-1,-1,-1,-1,-1],"loss_changes":[1.9633455E3,1.7246057E2,5.183481E2,2.2071277E2,6.909558E1,2.2691394E2,1.8753603E2,0E0,0E0,0E0,0E0,0E0,0E0,0E0,0E0],"parents":[2147483647,0,0,1,1,2,2,3,3,4,4,5,5,6,6],"right_children":[2,4,6,8,10,12,14,-1,-1,-1,-1,-1,-1,-1,-1],"split_conditions":[-3.7585077E-1,7.202011E-1,8.5452086E-1,-6.31428E-1,-2.378554E-1,6.673103E-2,2.3188129E-1,9.423689E-2,1.9218301E-2,4.777359E-2,1.2566573E-3,-7.3658396E-3,-5.2997634E-2,-1.3183867E-2,6.478026E-2],"split_indices":[2,6,1,2,9,2,2,0,0,0,0,0,0,0,0],"split_type":[0,0,0,0,0,0,0,0,0,0,0,0,0,0,0],"sum_hessian":[8.59E2,3.16E2,5.43E2,2.2E2,9.6E1,4.72E2,7.1E1,1.52E2,6.8E1,1.9E1,7.7E1,1.54E2,3.18E2,3.1E1,4E1],"tree_param":{"num_deleted":"0","num_feature":"10","num_nodes":"15","size_leaf_vector":"1"}},{"base_weights":[1.3922289E-1,2.9704251E0,-4.64532E-1,1.0343802E-1,6.290566E-1,5.2816015E-1,-1.2122627E0,3.622153E-2,-9.28649E-3,2.7099289E-2,-2.9116249E-2,-4.8244957E-2,4.90342E-2],"categories":[],"categories_nodes":[],"categories_segments":[],"categories_sizes":[],"default_left":[0,0,0,0,0,0,0,0,0,0,0,0,0],"id":29,"left_children":[1,3,5,-1,7,9,11,-1,-1,-1,-1,-1,-1],"loss_changes":[1.6062494E3,1.1532886E2,5.981177E2,0E0,4.739363E1,2.2582796E2,5.905005E2,0E0,0E0,0E0,0E0,0E0,0E0],"parents":[2147483647,0,0,1,1,2,2,4,4,5,5,6,6],"right_children":[2,4,6,-1,8,10,12,-1,-1,-1,-1,-1,-1],"split_conditions":[-1.0998095E0,9.7257316E-1,-6.9629185E-2,1.0343802E-1,-1.5242692E0,2.927327E-1,7.9917425E-1,3.622153E-2,-9.28649E-3,2.7099289E-2,-2.9116249E-2,-4.8244957E-2,4.90342E-2],"split_indices":[3,6,2,0,3,1,1,0,0,0,0,0,0],"split_type":[0,0,0,0,0,0,0,0,0,0,0,0,0],"sum_hessian":[8.84E2,1.35E2,7.49E2,1E2,3.5E1,3.25E2,4.24E2,1.7E1,1.8E1,2.7E2,5.5E1,3.84E2,4E1],"tree_param":{"num_deleted":"0","num_feature":"10","num_nodes":"13","size_leaf_vector":"1"}},{"base_weights":[1.3043602E-1,1.820763E0,-8.8411915E-1,3.306253E0,1.0996128E0,-2.498806E0,-1.4591219E-1,4.146085E-3,1.0942982E-1,3.8618734E-3,4.946439E-2,-9.311088E-2,-1.0817191E-2,7.2886944E-2,-1.228698E-2],"categories":[],"categories_nodes":[],"categories_segments":[],"categories_sizes":[],"default_left":[0,0,0,0,0,0,0,0,0,0,0,0,0,0,0],"id":30,"left_children":[1,3,5,7,9,11,13,-1,-1,-1,-1,-1,-1,-1,-1],"loss_changes":[1.5892369E3,2.582539E2,6.789535E2,8.7087036E1,1.4062036E2,1.957738E2,3.2049585E2,0E0,0E0,0E0,0E0,0E0,0E0,0E0,0E0],"parents":[2147483647,0,0,1,1,2,2,3,3,4,4,5,5,6,6],"right_children":[2,4,6,8,10,12,14,-1,-1,-1,-1,-1,-1,-1,-1],"split_conditions":[-4.018927E-1,-1.0979375E0,-3.800749E-1,-6.354188E-1,-4.9828082E-1,5.559722E-1,-2.1656065E-1,4.146085E-3,1.0942982E-1,3.8618734E-3,4.946439E-2,-9.311088E-2,-1.0817191E-2,7.2886944E-2,-1.228698E-2],"split_indices":[2,6,0,5,0,6,9,0,0,0,0,0,0,0,0],"split_type":[0,0,0,0,0,0,0,0,0,0,0,0,0,0,0],"sum_hessian":[8.68E2,3.17E2,5.51E2,6.8E1,2.49E2,1.5E2,4.01E2,1.1E1,5.7E1,1.04E2,1.45E2,1.06E2,4.4E1,1.4E1,3.87E2],"tree_param":{"num_deleted":"0","num_feature":"10","num_nodes":"15","size_leaf_vector":"1"}},{"base_weights":[-1.0039457E-1,1.3438305E0,-1.1227728E0,2.904768E0,4.5647392E-1,-2.4512706E0,-6.172355E-1,1.6506823E-2,1.01246044E-1,-2.421171E-2,2.964615E-2,1.8260049E-2,-8.7937936E-2,-2.5635213E-2,2.9826373E-2],"categories":[],"categories_nodes":[],"categories_segments":[],"categories_sizes":[],"default_left":[0,0,0,0,0,0,0,0,0,0,0,0,0,0,0],"id":31,"left_children":[1,3,5,7,9,11,13,-1,-1,-1,-1,-1,-1,-1,-1],"loss_changes":[1.3444022E3,4.8043115E2,3.0883514E2,8.5366455E1,2.1021216E2,2.555979E2,1.8822862E2,0E0,0E0,0E0,0E0,0E0,0E0,0E0,0E0],"parents":[2147483647,0,0,1,1,2,2,3,3,4,4,5,5,6,6],"right_children":[2,4,6,8,10,12,14,-1,-1,-1,-1,-1,-1,-1,-1],"split_conditions":[-2.527078E-1,-1.0397117E0,-4.0666696E-1,-1.4771192E0,-5.0074464E-1,-7.771748E-1,9.315702E-1,1.6506823E-2,1.01246044E-1,-2.421171E-2,2.964615E-2,1.8260049E-2,-8.7937936E-2,-2.5635213E-2,2.9826373E-2],"split_indices":[2,3,0,4,0,4,4,0,0,0,0,0,0,0,0],"split_type":[0,0,0,0,0,0,0,0,0,0,0,0,0,0,0],"sum_hessian":[8.5E2,3.48E2,5.02E2,1.01E2,2.47E2,1.06E2,3.96E2,2.8E1,7.3E1,6.8E1,1.79E2,1.3E1,9.3E1,3.58E2,3.8E1],"tree_param":{"num_deleted":"0","num_feature":"10","num_nodes":"15","size_leaf_vector":"1"}},{"base_weights":[1.5871246E-1,1.4817995E0,-8.4993E-1,1.0247798E-1,9.060916E-1,-1.1845602E0,1.7244079E0,-2.3197768E-2,4.6474174E-2,-5.19319E-2,-5.976308E-4,-1.28217E-2,7.97335E-2],"categories":[],"categories_nodes":[],"categories_segments":[],"categories_sizes":[],"default_left":[0,0,0,0,0,0,0,0,0,0,0,0,0],"id":32,"left_children":[1,3,5,-1,7,9,11,-1,-1,-1,-1,-1,-1],"loss_changes":[1.203452E3,3.359734E2,5.0352603E2,0E0,4.0495914E2,2.9826904E2,1.789066E2,0E0,0E0,0E0,0E0,0E0,0E0],"parents":[2147483647,0,0,1,1,2,2,4,4,5,5,6,6],"right_children":[2,4,6,-1,8,10,12,-1,-1,-1,-1,-1,-1],"split_conditions":[-2.360881E-1,-1.613208E0,6.9301057E-1,1.0247798E-1,-5.0074464E-1,1.435754E-1,8.0079146E-2,-2.3197768E-2,4.6474174E-2,-5.19319E-2,-5.976308E-4,-1.28217E-2,7.97335E-2],"split_indices":[2,3,0,0,0,7,2,0,0,0,0,0,0],"split_type":[0,0,0,0,0,0,0,0,0,0,0,0,0],"sum_hessian":[8.43E2,3.59E2,4.84E2,4.8E1,3.11E2,4.43E2,4.1E1,8.4E1,2.27E2,2.91E2,1.52E2,1.7E1,2.4E1],"tree_param":{"num_deleted":"0","num_feature":"10","num_nodes":"13","size_leaf_vector":"1"}},{"base_weights":[1.7025281E-1,1.590634E0,-8.617462E-1,2.0320718E0,-3.7667844E-1,-2.3260753E0,-1.9027597E-1,2.6086148E-2,1.0049678E-1,1.00604575E-2,-1.6120328E-2,1.1673556E-2,-7.978613E-2,6.089242E-2,-1.6696343E-2],"categories":[],"categories_nodes":[],"categories_segments":[],"categories_sizes":[],"default_left":[0,0,0,0,0,0,0,0,0,0,0,0,0,0,0],"id":33,"left_children":[1,3,5,7,9,11,13,-1,-1,-1,-1,-1,-1,-1,-1],"loss_changes":[1.3552361E3,3.6157556E2,5.1319617E2,4.0170215E2,1.6590172E1,1.836156E2,3.5929254E2,0E0,0E0,0E0,0E0,0E0,0E0,0E0,0E0],"parents":[2147483647,0,0,1,1,2,2,3,3,4,4,5,5,6,6],"right_children":[2,4,6,8,10,12,14,-1,-1,-1,-1,-1,-1,-1,-1],"split_conditions":[-2.527078E-1,4.909709E-1,-3.800749E-1,1.6595226E-2,-9.4381726E-1,-1.0370451E0,-1.7242241E-1,2.6086148E-2,1.0049678E-1,1.00604575E-2,-1.6120328E-2,1.1673556E-2,-7.978613E-2,6.089242E-2,-1.6696343E-2],"split_indices":[2,3,0,4,4,4,9,0,0,0,0,0,0,0,0],"split_type":[0,0,0,0,0,0,0,0,0,0,0,0,0,0,0],"sum_hessian":[8.66E2,3.58E2,5.08E2,2.92E2,6.6E1,1.36E2,3.72E2,1.82E2,1.1E2,5E0,6.1E1,1.4E1,1.22E2,3.3E1,3.39E2],"tree_param":{"num_deleted":"0","num_feature":"10","num_nodes":"15","size_leaf_vector":"1"}},{"base_weights":[4.946824E-2,1.9557091E0,-7.2242624E-1,7.132309E-1,2.9878247E0,-1.8413084E0,-8.7000586E-2,7.401295E-2,-8.634867E-3,-3.9196927E-3,1.01580255E-1,-9.742078E-3,-8.4460415E-2,-1.8462118E-2,4.972253E-2],"categories":[],"categories_nodes":[],"categories_segments":[],"categories_sizes":[],"default_left":[0,0,0,0,0,0,0,0,0,0,0,0,0,0,0],"id":34,"left_children":[1,3,5,7,9,11,13,-1,-1,-1,-1,-1,-1,-1,-1],"loss_changes":[1.3634797E3,2.747644E2,4.6250372E2,3.061543E2,1.8540259E2,3.1952905E2,4.471131E2,0E0,0E0,0E0,0E0,0E0,0E0,0E0,0E0],"parents":[2147483647,0,0,1,1,2,2,3,3,4,4,5,5,6,6],"right_children":[2,4,6,8,10,12,14,-1,-1,-1,-1,-1,-1,-1,-1],"split_conditions":[-5.790824E-1,-4.7310472E-1,-3.8465685E-1,-1.0683826E0,-1.4771192E0,-4.8036635E-2,1.8875948E-1,7.401295E-2,-8.634867E-3,-3.9196927E-3,1.01580255E-1,-9.742078E-3,-8.4460415E-2,-1.8462118E-2,4.972253E-2],"split_indices":[2,0,0,2,4,2,5,0,0,0,0,0,0,0,0],"split_type":[0,0,0,0,0,0,0,0,0,0,0,0,0,0,0],"sum_hessian":[8.67E2,2.37E2,6.3E2,1.31E2,1.06E2,2.07E2,4.23E2,3.2E1,9.9E1,1.4E1,9.2E1,9.7E1,1.1E2,3.4E2,8.3E1],"tree_param":{"num_deleted":"0","num_feature":"10","num_nodes":"15","size_leaf_vector":"1"}},{"base_weights":[1.1361073E-1,1.8898542E0,-6.2451184E-1,6.3955665E-1,2.5748837E0,-1.6816703E0,-8.301819E-2,4.757425E-2,-3.9741253E-3,3.1518873E-2,1.05652586E-1,-1.0659515E-2,-7.50007E-2,-1.6513214E-2,4.7449306E-2],"categories":[],"categories_nodes":[],"categories_segments":[],"categories_sizes":[],"default_left":[0,0,0,0,0,0,0,0,0,0,0,0,0,0,0],"id":35,"left_children":[1,3,5,7,9,11,13,-1,-1,-1,-1,-1,-1,-1,-1],"loss_changes":[1.2074717E3,1.7863458E2,3.6785336E2,1.07107925E2,1.2112207E2,2.082038E2,3.861252E2,0E0,0E0,0E0,0E0,0E0,0E0,0E0,0E0],"parents":[2147483647,0,0,1,1,2,2,3,3,4,4,5,5,6,6],"right_children":[2,4,6,8,10,12,14,-1,-1,-1,-1,-1,-1,-1,-1],"split_conditions":[-5.790824E-1,-6.2077016E-1,-3.8465685E-1,-1.0304321E0,-4.5135528E-1,-4.8036635E-2,1.8875948E-1,4.757425E-2,-3.9741253E-3,3.1518873E-2,1.05652586E-1,-1.0659515E-2,-7.50007E-2,-1.6513214E-2,4.7449306E-2],"split_indices":[2,7,0,2,0,2,5,0,0,0,0,0,0,0,0],"split_type":[0,0,0,0,0,0,0,0,0,0,0,0,0,0,0],"sum_hessian":[8.63E2,2.4E2,6.23E2,1.06E2,1.34E2,1.89E2,4.34E2,3.4E1,7.2E1,7.6E1,5.8E1,8.9E1,1E2,3.55E2,7.9E1],"tree_param":{"num_deleted":"0","num_feature":"10","num_nodes":"15","size_leaf_vector":"1"}},{"base_weights":[6.743088E-2,3.0585794E0,-2.9215264E-1,1.0644691E-1,4.7172725E-1,7.6113445E-1,-9.304334E-1,5.6354173E-2,-4.6698403E-2,-2.188603E-2,4.0606298E-2,-6.5947525E-2,-9.5339045E-3],"categories":[],"categories_nodes":[],"categories_segments":[],"categories_sizes":[],"default_left":[0,0,0,0,0,0,0,0,0,0,0,0,0],"id":36,"left_children":[1,3,5,-1,7,9,11,-1,-1,-1,-1,-1,-1],"loss_changes":[1.0126426E3,7.36983E1,5.881577E2,0E0,2.3356477E2,3.2519818E2,3.9517346E2,0E0,0E0,0E0,0E0,0E0,0E0],"parents":[2147483647,0,0,1,1,2,2,4,4,5,5,6,6],"right_children":[2,4,6,-1,8,10,12,-1,-1,-1,-1,-1,-1],"split_conditions":[-1.6066284E0,1.6574835E0,-2.360881E-1,1.0644691E-1,-1.6411294E-1,-5.0074464E-1,-3.800749E-1,5.6354173E-2,-4.6698403E-2,-2.188603E-2,4.0606298E-2,-6.5947525E-2,-9.5339045E-3],"split_indices":[3,8,2,0,2,0,0,0,0,0,0,0,0],"split_type":[0,0,0,0,0,0,0,0,0,0,0,0,0],"sum_hessian":[8.84E2,7.1E1,8.13E2,5E1,2.1E1,3.04E2,5.09E2,1.4E1,7E0,8.4E1,2.2E2,1.4E2,3.69E2],"tree_param":{"num_deleted":"0","num_feature":"10","num_nodes":"13","size_leaf_vector":"1"}},{"base_weights":[1.2889846E-1,1.5681587E0,-9.505247E-1,2.9058616E0,7.3842317E-1,-1.2863653E0,9.383367E-1,1.0376385E-1,1.862872E-2,6.1603994E-3,5.610244E-2,-4.5467656E-2,7.280091E-3,5.031765E-2,-4.2185277E-2],"categories":[],"categories_nodes":[],"categories_segments":[],"categories_sizes":[],"default_left":[0,0,0,0,0,0,0,0,0,0,0,0,0,0,0],"id":37,"left_children":[1,3,5,7,9,11,13,-1,-1,-1,-1,-1,-1,-1,-1],"loss_changes":[1.4202451E3,3.6596936E2,3.6896198E2,1.0709985E2,1.5652354E2,1.7283118E2,2.3733728E2,0E0,0E0,0E0,0E0,0E0,0E0,0E0,0E0],"parents":[2147483647,0,0,1,1,2,2,3,3,4,4,5,5,6,6],"right_children":[2,4,6,8,10,12,14,-1,-1,-1,-1,-1,-1,-1,-1],"split_conditions":[-2.360881E-1,-1.0206857E0,7.9917425E-1,5.559722E-1,4.770342E-1,7.6033133E-1,1.1945053E0,1.0376385E-1,1.862872E-2,6.1603994E-3,5.610244E-2,-4.5467656E-2,7.280091E-3,5.031765E-2,-4.2185277E-2],"split_indices":[2,3,1,6,4,6,8,0,0,0,0,0,0,0,0],"split_type":[0,0,0,0,0,0,0,0,0,0,0,0,0,0,0],"sum_hessian":[8.55E2,3.61E2,4.94E2,1.09E2,2.52E2,4.28E2,6.6E1,7.5E1,3.4E1,1.96E2,5.6E1,3.73E2,5.5E1,5.7E1,9E0],"tree_param":{"num_deleted":"0","num_feature":"10","num_nodes":"15","size_leaf_vector":"1"}},{"base_weights":[7.13187E-2,1.2614846E0,-8.830705E-1,2.309167E0,4.467568E-1,-2.0581248E0,-5.7679255E-2,1.0275995E-1,3.1444877E-2,-2.6524268E-2,3.0223867E-2,1.1505105E-2,-7.070476E-2,-1.31567335E-2,5.110181E-2],"categories":[],"categories_nodes":[],"categories_segments":[],"categories_sizes":[],"default_left":[0,0,0,0,0,0,0,0,0,0,0,0,0,0,0],"id":38,"left_children":[1,3,5,7,9,11,13,-1,-1,-1,-1,-1,-1,-1,-1],"loss_changes":[1.0322377E3,3.111397E2,4.841121E2,1.2568298E2,2.2459976E2,1.8005719E2,2.4115388E2,0E0,0E0,0E0,0E0,0E0,0E0,0E0,0E0],"parents":[2147483647,0,0,1,1,2,2,3,3,4,4,5,5,6,6],"right_children":[2,4,6,8,10,12,14,-1,-1,-1,-1,-1,-1,-1,-1],"split_conditions":[-1.9879188E-1,-7.168746E-1,-3.2261446E-1,-1.2544239E0,-5.0074464E-1,-7.771748E-1,7.776861E-1,1.0275995E-1,3.1444877E-2,-2.6524268E-2,3.0223867E-2,1.1505105E-2,-7.070476E-2,-1.31567335E-2,5.110181E-2],"split_indices":[2,3,0,6,0,4,0,0,0,0,0,0,0,0,0],"split_type":[0,0,0,0,0,0,0,0,0,0,0,0,0,0,0],"sum_hessian":[8.49E2,3.74E2,4.75E2,1.39E2,2.35E2,1.77E2,2.98E2,4.6E1,9.3E1,6.4E1,1.71E2,1.8E1,1.59E2,2.64E2,3.4E1],"tree_param":{"num_deleted":"0","num_feature":"10","num_nodes":"15","size_leaf_vector":"1"}},{"base_weights":[1.1229377E-1,2.0234294E0,-4.5630807E-1,2.3931124E0,2.1301356E-1,-8.3404523E-1,9.47752E-1,2.6429998E-2,8.6727716E-2,6.388304E-2,-6.0659144E-2,-3.9550513E-3,-4.486133E-2,-1.8143874E-2,4.4549648E-2],"categories":[],"categories_nodes":[],"categories_segments":[],"categories_sizes":[],"default_left":[0,0,0,0,0,0,0,0,0,0,0,0,0,0,0],"id":39,"left_children":[1,3,5,7,9,11,13,-1,-1,-1,-1,-1,-1,-1,-1],"loss_changes":[9.964073E2,1.2264978E2,4.0015997E2,4.854071E1,4.24816E2,2.5994965E2,1.6461356E2,0E0,0E0,0E0,0E0,0E0,0E0,0E0,0E0],"parents":[2147483647,0,0,1,1,2,2,3,3,4,4,5,5,6,6],"right_children":[2,4,6,8,10,12,14,-1,-1,-1,-1,-1,-1,-1,-1],"split_conditions":[-7.6157045E-1,-1.6411294E-1,5.4952943E-1,-9.285091E-1,7.6151653E-3,3.5061955E-2,-2.0529678E-2,2.6429998E-2,8.6727716E-2,6.388304E-2,-6.0659144E-2,-3.9550513E-3,-4.486133E-2,-1.8143874E-2,4.4549648E-2],"split_indices":[3,2,4,4,9,2,5,0,0,0,0,0,0,0,0],"split_type":[0,0,0,0,0,0,0,0,0,0,0,0,0,0,0],"sum_hessian":[8.6E2,1.8E2,6.8E2,1.41E2,3.9E1,5.46E2,1.34E2,5.6E1,8.5E1,2.2E1,1.7E1,2.83E2,2.63E2,3.3E1,1.01E2],"tree_param":{"num_deleted":"0","num_feature":"10","num_nodes":"15","size_leaf_vector":"1"}},{"base_weights":[2.0353603E-1,1.3494302E0,-7.777487E-1,9.010485E-2,1.9046409E0,-1.1674676E0,2.0836883E0,4.9677692E-2,-4.335478E-2,2.8044034E-2,1.2566124E-1,-6.726244E-2,-1.5254806E-2,8.324896E-2,-1.5248265E-2],"categories":[],"categories_nodes":[],"categories_segments":[],"categories_sizes":[],"default_left":[0,0,0,0,0,0,0,0,0,0,0,0,0,0,0],"id":40,"left_children":[1,3,5,7,9,11,13,-1,-1,-1,-1,-1,-1,-1,-1],"loss_changes":[1.0474343E3,2.9211047E2,6.3521674E2,4.6384595E2,5.308861E2,2.91625E2,1.7179544E2,0E0,0E0,0E0,0E0,0E0,0E0,0E0,0E0],"parents":[2147483647,0,0,1,1,2,2,3,3,4,4,5,5,6,6],"right_children":[2,4,6,8,10,12,14,-1,-1,-1,-1,-1,-1,-1,-1],"split_conditions":[-1.6411294E-1,-2.5671682E-1,6.9301057E-1,-1.4377126E-1,-3.562858E-1,-3.800749E-1,-1.7606E-1,4.9677692E-2,-4.335478E-2,2.8044034E-2,1.2566124E-1,-6.726244E-2,-1.5254806E-2,8.324896E-2,-1.5248265E-2],"split_indices":[2,8,0,9,0,0,7,0,0,0,0,0,0,0,0],"split_type":[0,0,0,0,0,0,0,0,0,0,0,0,0,0,0],"sum_hessian":[8.73E2,3.98E2,4.75E2,1.33E2,2.65E2,4.34E2,4.1E1,6.5E1,6.8E1,2.16E2,4.9E1,1.37E2,2.97E2,3.1E1,1E1],"tree_param":{"num_deleted":"0","num_feature":"10","num_nodes":"15","size_leaf_vector":"1"}},{"base_weights":[1.23020485E-1,1.6444162E0,-5.150466E-1,4.1368765E-1,2.358115E0,-1.4786161E0,1.1900685E-2,5.985475E-2,-2.4867343E-2,8.231066E-2,-2.715668E-3,-5.7429377E-2,1.9606486E-2,-1.1948492E-2,4.7660846E-2],"categories":[],"categories_nodes":[],"categories_segments":[],"categories_sizes":[],"default_left":[0,0,0,0,0,0,0,0,0,0,0,0,0,0,0],"id":41,"left_children":[1,3,5,7,9,11,13,-1,-1,-1,-1,-1,-1,-1,-1],"loss_changes":[8.8856616E2,2.0512231E2,3.3101685E2,3.1803876E2,1.6494159E2,2.524585E2,3.099283E2,0E0,0E0,0E0,0E0,0E0,0E0,0E0,0E0],"parents":[2147483647,0,0,1,1,2,2,3,3,4,4,5,5,6,6],"right_children":[2,4,6,8,10,12,14,-1,-1,-1,-1,-1,-1,-1,-1],"split_conditions":[-5.9387004E-1,-4.9828082E-1,-3.800749E-1,-1.0360593E0,3.580913E-1,8.5589004E-1,1.8875948E-1,5.985475E-2,-2.4867343E-2,8.231066E-2,-2.715668E-3,-5.7429377E-2,1.9606486E-2,-1.1948492E-2,4.7660846E-2],"split_indices":[2,0,0,2,3,6,5,0,0,0,0,0,0,0,0],"split_type":[0,0,0,0,0,0,0,0,0,0,0,0,0,0,0],"sum_hessian":[8.58E2,2.4E2,6.18E2,1.06E2,1.34E2,2E2,4.18E2,3.9E1,6.7E1,1.13E2,2.1E1,1.69E2,3.1E1,3.49E2,6.9E1],"tree_param":{"num_deleted":"0","num_feature":"10","num_nodes":"15","size_leaf_vector":"1"}},{"base_weights":[1.6697887E-1,9.825085E-2,-2.123155E-1,-4.639044E-1,1.4811476E0,2.1185206E-2,-2.4794076E-2,7.370053E-2,-8.5827324E-4],"categories":[],"categories_nodes":[],"categories_segments":[],"categories_sizes":[],"default_left":[0,0,0,0,0,0,0,0,0],"id":42,"left_children":[1,-1,3,5,7,-1,-1,-1,-1],"loss_changes":[1.084902E3,0E0,3.7322302E2,3.341041E2,1.7243842E2,0E0,0E0,0E0,0E0],"parents":[2147483647,0,0,2,2,3,3,4,4],"right_children":[2,-1,4,6,8,-1,-1,-1,-1],"split_conditions":[-1.5573381E0,9.825085E-2,9.315702E-1,-1.6816345E-1,2.9690345E-3,2.1185206E-2,-2.4794076E-2,7.370053E-2,-8.5827324E-4],"split_indices":[3,0,4,9,9,0,0,0,0],"split_type":[0,0,0,0,0,0,0,0,0],"sum_hessian":[8.7E2,7E1,8E2,7.16E2,8.4E1,1.62E2,5.54E2,4E1,4.4E1],"tree_param":{"num_deleted":"0","num_feature":"10","num_nodes":"9","size_leaf_vector":"1"}},{"base_weights":[1.757021E-1,2.3512309E0,-2.9602948E-1,2.6942887E0,5.312698E-1,6.5009147E-1,-8.390057E-1,2.7676512E-2,1.1014457E-1,5.5369657E-2,-5.116136E-2,-3.7970003E-2,2.787298E-2,-3.9987616E-2,1.7883549E-2],"categories":[],"categories_nodes":[],"categories_segments":[],"categories_sizes":[],"default_left":[0,0,0,0,0,0,0,0,0,0,0,0,0,0,0],"id":43,"left_children":[1,3,5,7,9,11,13,-1,-1,-1,-1,-1,-1,-1,-1],"loss_changes":[9.5170667E2,5.6850647E1,4.1211713E2,1.2059711E2,2.8271487E2,1.9369131E2,3.8111514E2,0E0,0E0,0E0,0E0,0E0,0E0,0E0,0E0],"parents":[2147483647,0,0,1,1,2,2,3,3,4,4,5,5,6,6],"right_children":[2,4,6,8,10,12,14,-1,-1,-1,-1,-1,-1,-1,-1],"split_conditions":[-1.0998095E0,1.3115326E0,-2.360881E-1,-5.9439856E-1,-1.6411294E-1,-6.5014213E-1,-4.225064E-2,2.7676512E-2,1.1014457E-1,5.5369657E-2,-5.116136E-2,-3.7970003E-2,2.787298E-2,-3.9987616E-2,1.7883549E-2],"split_indices":[3,8,2,1,2,8,0,0,0,0,0,0,0,0,0],"split_type":[0,0,0,0,0,0,0,0,0,0,0,0,0,0,0],"sum_hessian":[8.75E2,1.35E2,7.4E2,1.01E2,3.4E1,2.67E2,4.73E2,5.7E1,4.4E1,2.5E1,9E0,2E1,2.47E2,3.54E2,1.19E2],"tree_param":{"num_deleted":"0","num_feature":"10","num_nodes":"15","size_leaf_vector":"1"}},{"base_weights":[3.8802855E-2,2.3841465E0,-4.5307788E-1,2.755732E0,1.9328116E-1,-1.2762625E0,3.3901215E-2,1.0560261E-1,2.0552393E-2,-3.5047784E-2,4.3296907E-2,1.0014741E-2,-5.2236542E-2,-2.599514E-2,2.7337257E-2],"categories":[],"categories_nodes":[],"categories_segments":[],"categories_sizes":[],"default_left":[0,0,0,0,0,0,0,0,0,0,0,0,0,0,0],"id":44,"left_children":[1,3,5,7,9,11,13,-1,-1,-1,-1,-1,-1,-1,-1],"loss_changes":[1.07145E3,1.12141174E2,3.1041132E2,1.3711499E2,1.4616096E2,2.3369897E2,4.274036E2,0E0,0E0,0E0,0E0,0E0,0E0,0E0,0E0],"parents":[2147483647,0,0,1,1,2,2,3,3,4,4,5,5,6,6],"right_children":[2,4,6,8,10,12,14,-1,-1,-1,-1,-1,-1,-1,-1],"split_conditions":[-1.0998095E0,2.1202636E0,-3.4530565E-1,7.202011E-1,3.000386E0,-1.604199E-1,-3.9701E-1,1.0560261E-1,2.0552393E-2,-3.5047784E-2,4.3296907E-2,1.0014741E-2,-5.2236542E-2,-2.599514E-2,2.7337257E-2],"split_indices":[3,8,8,6,5,9,0,0,0,0,0,0,0,0,0],"split_type":[0,0,0,0,0,0,0,0,0,0,0,0,0,0,0],"sum_hessian":[8.69E2,1.31E2,7.38E2,1.05E2,2.6E1,2.57E2,4.81E2,6.1E1,4.4E1,1.3E1,1.3E1,5.9E1,1.98E2,2.37E2,2.44E2],"tree_param":{"num_deleted":"0","num_feature":"10","num_nodes":"15","size_leaf_vector":"1"}},{"base_weights":[9.492505E-2,1.8188651E0,-2.862971E-1,9.857257E-1,9.007906E-2,-5.318991E-1,1.6355363E0,4.0302053E-2,-2.2552868E-2,5.905117E-3,-2.7878363E-2,6.8127304E-2,-8.759452E-3],"categories":[],"categories_nodes":[],"categories_segments":[],"categories_sizes":[],"default_left":[0,0,0,0,0,0,0,0,0,0,0,0,0],"id":45,"left_children":[1,3,5,7,-1,9,11,-1,-1,-1,-1,-1,-1],"loss_changes":[5.9943756E2,6.994891E1,3.7947116E2,1.1913623E2,0E0,2.05744E2,1.3454276E2,0E0,0E0,0E0,0E0,0E0,0E0],"parents":[2147483647,0,0,1,1,2,2,3,3,5,5,6,6],"right_children":[2,4,6,8,-1,10,12,-1,-1,-1,-1,-1,-1],"split_conditions":[-1.0206857E0,8.5542333E-1,1.006107E0,4.3416087E-2,9.007906E-2,-1.259611E-1,6.542972E-1,4.0302053E-2,-2.2552868E-2,5.905117E-3,-2.7878363E-2,6.8127304E-2,-8.759452E-3],"split_indices":[3,0,4,0,0,9,7,0,0,0,0,0,0],"split_type":[0,0,0,0,0,0,0,0,0,0,0,0,0],"sum_hessian":[8.56E2,1.35E2,7.21E2,1.12E2,2.3E1,6.59E2,6.2E1,9.9E1,1.3E1,2.37E2,4.22E2,4.3E1,1.9E1],"tree_param":{"num_deleted":"0","num_feature":"10","num_nodes":"13","size_leaf_vector":"1"}},{"base_weights":[2.568181E-2,1.4943047E0,-6.750499E-1,2.6075273E0,9.6740246E-1,3.6022478E-1,-1.0557455E0,-3.333491E-3,9.039537E-2,4.794121E-2,3.4937742E-3,4.750967E-2,-5.0561195E-3,-5.0107952E-2,-1.2418119E-2],"categories":[],"categories_nodes":[],"categories_segments":[],"categories_sizes":[],"default_left":[0,0,0,0,0,0,0,0,0,0,0,0,0,0,0],"id":46,"left_children":[1,3,5,7,9,11,13,-1,-1,-1,-1,-1,-1,-1,-1],"loss_changes":[9.747756E2,1.0023639E2,2.6473853E2,1.011723E2,1.3008144E2,1.3492162E2,1.6530487E2,0E0,0E0,0E0,0E0,0E0,0E0,0E0,0E0],"parents":[2147483647,0,0,1,1,2,2,3,3,4,4,5,5,6,6],"right_children":[2,4,6,8,10,12,14,-1,-1,-1,-1,-1,-1,-1,-1],"split_conditions":[-4.917962E-1,-1.2180012E0,-1.3060723E-1,-7.56903E-1,-1.7745571E-1,-9.144882E-1,2.0150474E-1,-3.333491E-3,9.039537E-2,4.794121E-2,3.4937742E-3,4.750967E-2,-5.0561195E-3,-5.0107952E-2,-1.2418119E-2],"split_indices":[2,6,9,8,9,4,3,0,0,0,0,0,0,0,0],"split_type":[0,0,0,0,0,0,0,0,0,0,0,0,0,0,0],"sum_hessian":[8.87E2,2.76E2,6.11E2,5E1,2.26E2,1.64E2,4.47E2,9E0,4.1E1,1.14E2,1.12E2,3.2E1,1.32E2,2.03E2,2.44E2],"tree_param":{"num_deleted":"0","num_feature":"10","num_nodes":"15","size_leaf_vector":"1"}},{"base_weights":[1.7669739E-1,1.4766134E0,-5.286463E-1,6.803526E-1,2.8142664E0,-1.7870684E0,-6.579204E-2,6.5178946E-2,-5.601926E-3,3.3113633E-3,1.1221601E-1,-7.4547395E-2,7.7541885E-3,-2.0666284E-2,1.3031919E-2],"categories":[],"categories_nodes":[],"categories_segments":[],"categories_sizes":[],"default_left":[0,0,0,0,0,0,0,0,0,0,0,0,0,0,0],"id":47,"left_children":[1,3,5,7,9,11,13,-1,-1,-1,-1,-1,-1,-1,-1],"loss_changes":[8.339779E2,2.7883807E2,3.4060468E2,3.2470013E2,2.567558E2,2.4703522E2,1.5446544E2,0E0,0E0,0E0,0E0,0E0,0E0,0E0,0E0],"parents":[2147483647,0,0,1,1,2,2,3,3,4,4,5,5,6,6],"right_children":[2,4,6,8,10,12,14,-1,-1,-1,-1,-1,-1,-1,-1],"split_conditions":[-4.917962E-1,-3.9576393E-1,-4.0666696E-1,-1.0220568E0,-4.990868E-1,5.7086533E-1,-3.4530565E-1,6.5178946E-2,-5.601926E-3,3.3113633E-3,1.1221601E-1,-7.4547395E-2,7.7541885E-3,-2.0666284E-2,1.3031919E-2],"split_indices":[2,0,0,2,8,6,8,0,0,0,0,0,0,0,0],"split_type":[0,0,0,0,0,0,0,0,0,0,0,0,0,0,0],"sum_hessian":[8.53E2,2.89E2,5.64E2,2.1E2,7.9E1,1.28E2,4.36E2,6.1E1,1.49E2,2.9E1,5E1,9.1E1,3.7E1,1.9E2,2.46E2],"tree_param":{"num_deleted":"0","num_feature":"10","num_nodes":"15","size_leaf_vector":"1"}},{"base_weights":[1.73722E-4,1.0502183E0,-7.552585E-1,2.1726344E0,3.615281E-1,-1.0671511E0,1.773031E0,8.147205E-2,1.3308082E-2,-2.4220264E-2,2.5166146E-2,-1.5834615E-2,-6.519775E-2,-8.788276E-3,8.771574E-2],"categories":[],"categories_nodes":[],"categories_segments":[],"categories_sizes":[],"default_left":[0,0,0,0,0,0,0,0,0,0,0,0,0,0,0],"id":48,"left_children":[1,3,5,7,9,11,13,-1,-1,-1,-1,-1,-1,-1,-1],"loss_changes":[7.348314E2,2.7382452E2,4.802993E2,9.310388E1,1.749021E2,2.599718E2,1.9475705E2,0E0,0E0,0E0,0E0,0E0,0E0,0E0,0E0],"parents":[2147483647,0,0,1,1,2,2,3,3,4,4,5,5,6,6],"right_children":[2,4,6,8,10,12,14,-1,-1,-1,-1,-1,-1,-1,-1],"split_conditions":[-2.360881E-1,-1.0397117E0,8.5542333E-1,9.7257316E-1,-5.0074464E-1,4.904922E-3,2.5661457E-1,8.147205E-2,1.3308082E-2,-2.4220264E-2,2.5166146E-2,-1.5834615E-2,-6.519775E-2,-8.788276E-3,8.771574E-2],"split_indices":[2,3,0,6,0,9,2,0,0,0,0,0,0,0,0],"split_type":[0,0,0,0,0,0,0,0,0,0,0,0,0,0,0],"sum_hessian":[8.66E2,3.58E2,5.08E2,1.11E2,2.47E2,4.68E2,4E1,7.1E1,4E1,6.5E1,1.82E2,3.45E2,1.23E2,2.2E1,1.8E1],"tree_param":{"num_deleted":"0","num_feature":"10","num_nodes":"15","size_leaf_vector":"1"}},{"base_weights":[1.16664656E-1,1.153956E0,-6.660386E-1,1.5310273E0,-3.9225042E-1,1.5970962E0,-8.466131E-1,1.5928464E-2,7.369666E-2,1.61909E-2,-1.8962013E-2,6.984408E-2,-6.740095E-3,-4.0302545E-2,-1.9317197E-3],"categories":[],"categories_nodes":[],"categories_segments":[],"categories_sizes":[],"default_left":[0,0,0,0,0,0,0,0,0,0,0,0,0,0,0],"id":49,"left_children":[1,3,5,7,9,11,13,-1,-1,-1,-1,-1,-1,-1,-1],"loss_changes":[7.4937616E2,2.5003503E2,2.555881E2,2.5870355E2,3.2899246E1,8.305275E1,1.938006E2,0E0,0E0,0E0,0E0,0E0,0E0,0E0,0E0],"parents":[2147483647,0,0,1,1,2,2,3,3,4,4,5,5,6,6],"right_children":[2,4,6,8,10,12,14,-1,-1,-1,-1,-1,-1,-1,-1],"split_conditions":[-2.527078E-1,4.909709E-1,-2.1501194E-1,-3.8625503E-1,-9.948444E-1,-7.295586E-1,4.280041E-1,1.5928464E-2,7.369666E-2,1.61909E-2,-1.8962013E-2,6.984408E-2,-6.740095E-3,-4.0302545E-2,-1.9317197E-3],"split_indices":[2,3,9,7,4,3,3,0,0,0,0,0,0,0,0],"split_type":[0,0,0,0,0,0,0,0,0,0,0,0,0,0,0],"sum_hessian":[8.64E2,3.66E2,4.98E2,2.95E2,7.1E1,1.9E1,4.79E2,1.65E2,1.3E2,6E0,6.5E1,8E0,1.1E1,2.79E2,2E2],"tree_param":{"num_deleted":"0","num_feature":"10","num_nodes":"15","size_leaf_vector":"1"}},{"base_weights":[1.4588495E-1,1.5385177E0,-4.202968E-1,5.848425E-1,2.4234257E0,-6.862475E-1,1.550878E0,6.0917266E-2,-1.2210737E-2,3.1028232E-3,9.0428144E-2,-5.2457014E-3,-5.0431706E-2,-1.5503168E-5,8.180193E-2],"categories":[],"categories_nodes":[],"categories_segments":[],"categories_sizes":[],"default_left":[0,0,0,0,0,0,0,0,0,0,0,0,0,0,0],"id":50,"left_children":[1,3,5,7,9,11,13,-1,-1,-1,-1,-1,-1,-1,-1],"loss_changes":[7.435564E2,1.8401685E2,3.8492285E2,2.7162808E2,1.670993E2,3.027074E2,1.6512341E2,0E0,0E0,0E0,0E0,0E0,0E0,0E0,0E0],"parents":[2147483647,0,0,1,1,2,2,3,3,4,4,5,5,6,6],"right_children":[2,4,6,8,10,12,14,-1,-1,-1,-1,-1,-1,-1,-1],"split_conditions":[-6.31428E-1,-4.7310472E-1,8.5542333E-1,-1.0535951E0,-4.9295372E-1,-1.7938554E-2,8.0079146E-2,6.0917266E-2,-1.2210737E-2,3.1028232E-3,9.0428144E-2,-5.2457014E-3,-5.0431706E-2,-1.5503168E-5,8.180193E-2],"split_indices":[2,0,0,2,8,9,2,0,0,0,0,0,0,0,0],"split_type":[0,0,0,0,0,0,0,0,0,0,0,0,0,0,0],"sum_hessian":[8.87E2,2.42E2,6.45E2,1.41E2,1.01E2,5.86E2,5.9E1,4.5E1,9.6E1,2.8E1,7.3E1,4.11E2,1.75E2,3.8E1,2.1E1],"tree_param":{"num_deleted":"0","num_feature":"10","num_nodes":"15","size_leaf_vector":"1"}},{"base_weights":[1.5098089E-1,-2.0413901E-1,2.0742836E0,8.7368065E-1,-6.4707714E-1,2.9330912E0,6.150317E-1,2.9448415E-3,5.026769E-2,1.8266814E-2,-2.602055E-2,4.5803497E-3,9.1277614E-2,3.765979E-2,-2.0458538E-2],"categories":[],"categories_nodes":[],"categories_segments":[],"categories_sizes":[],"default_left":[0,0,0,0,0,0,0,0,0,0,0,0,0,0,0],"id":51,"left_children":[1,3,5,7,9,11,13,-1,-1,-1,-1,-1,-1,-1,-1],"loss_changes":[6.2312915E2,3.8863388E2,1.20290344E2,1.4192502E2,1.7379755E2,7.5286255E0,1.01826584E2,0E0,0E0,0E0,0E0,0E0,0E0,0E0,0E0],"parents":[2147483647,0,0,1,1,2,2,3,3,4,4,5,5,6,6],"right_children":[2,4,6,8,10,12,14,-1,-1,-1,-1,-1,-1,-1,-1],"split_conditions":[9.315702E-1,-4.917962E-1,2.9690345E-3,-3.6193493E-1,-8.8341224E-1,-8.361766E-1,-1.519426E-1,2.9448415E-3,5.026769E-2,1.8266814E-2,-2.602055E-2,4.5803497E-3,9.1277614E-2,3.765979E-2,-2.0458538E-2],"split_indices":[4,2,9,7,4,7,2,0,0,0,0,0,0,0,0],"split_type":[0,0,0,0,0,0,0,0,0,0,0,0,0,0,0],"sum_hessian":[8.61E2,7.49E2,1.12E2,2.09E2,5.4E2,5.1E1,6.1E1,1.24E2,8.5E1,7.2E1,4.68E2,5E0,4.6E1,4.2E1,1.9E1],"tree_param":{"num_deleted":"0","num_feature":"10","num_nodes":"15","size_leaf_vector":"1"}},{"base_weights":[1.8170097E-1,1.2546328E0,-4.9980652E-1,1.8189088E0,6.2405303E-2,-7.0680475E-1,1.1274905E0,6.585763E-2,3.8126698E-3,-2.589043E-2,1.2681402E-2,6.354951E-3,-3.1290658E-2,6.651915E-2,-1.8435791E-2],"categories":[],"categories_nodes":[],"categories_segments":[],"categories_sizes":[],"default_left":[0,0,0,0,0,0,0,0,0,0,0,0,0,0,0],"id":52,"left_children":[1,3,5,7,9,11,13,-1,-1,-1,-1,-1,-1,-1,-1],"loss_changes":[6.725386E2,2.3421075E2,2.144794E2,1.4211804E2,5.918562E1,1.6868515E2,1.8486618E2,0E0,0E0,0E0,0E0,0E0,0E0,0E0,0E0],"parents":[2147483647,0,0,1,1,2,2,3,3,4,4,5,5,6,6],"right_children":[2,4,6,8,10,12,14,-1,-1,-1,-1,-1,-1,-1,-1],"split_conditions":[-3.7585077E-1,-1.0200438E-1,9.315702E-1,1.1807178E0,-3.8846433E-1,-1.3060723E-1,2.9690345E-3,6.585763E-2,3.8126698E-3,-2.589043E-2,1.2681402E-2,6.354951E-3,-3.1290658E-2,6.651915E-2,-1.8435791E-2],"split_indices":[2,3,4,6,8,9,9,0,0,0,0,0,0,0,0],"split_type":[0,0,0,0,0,0,0,0,0,0,0,0,0,0,0],"sum_hessian":[8.63E2,3.26E2,5.37E2,2.1E2,1.16E2,4.92E2,4.5E1,1.64E2,4.6E1,2E1,9.6E1,1.34E2,3.58E2,2.3E1,2.2E1],"tree_param":{"num_deleted":"0","num_feature":"10","num_nodes":"15","size_leaf_vector":"1"}},{"base_weights":[1.2857676E-1,8.437539E-1,-6.0270023E-1,1.0267034E-1,1.4984647E0,-2.0518367E0,5.589032E-4,2.5559003E-2,-3.152008E-2,1.9542152E-2,8.1391774E-2,8.252391E-3,-6.96183E-2,4.3647878E-2,-1.0865235E-2],"categories":[],"categories_nodes":[],"categories_segments":[],"categories_sizes":[],"default_left":[0,0,0,0,0,0,0,0,0,0,0,0,0,0,0],"id":53,"left_children":[1,3,5,7,9,11,13,-1,-1,-1,-1,-1,-1,-1,-1],"loss_changes":[4.6736255E2,2.121214E2,3.9023267E2,2.3751855E2,1.8642133E2,1.0312518E2,1.9785014E2,0E0,0E0,0E0,0E0,0E0,0E0,0E0,0E0],"parents":[2147483647,0,0,1,1,2,2,3,3,4,4,5,5,6,6],"right_children":[2,4,6,8,10,12,14,-1,-1,-1,-1,-1,-1,-1,-1],"split_conditions":[-6.9629185E-2,-3.6714637E-1,-3.800749E-1,-1.4803022E-1,-2.991942E-1,-1.1298133E0,-1.4803022E-1,2.5559003E-2,-3.152008E-2,1.9542152E-2,8.1391774E-2,8.252391E-3,-6.96183E-2,4.3647878E-2,-1.0865235E-2],"split_indices":[2,7,0,9,0,4,9,0,0,0,0,0,0,0,0],"split_type":[0,0,0,0,0,0,0,0,0,0,0,0,0,0,0],"sum_hessian":[8.34E2,4.2E2,4.14E2,2.14E2,2.06E2,1.01E2,3.13E2,1.35E2,7.9E1,1.49E2,5.7E1,1E1,9.1E1,4.5E1,2.68E2],"tree_param":{"num_deleted":"0","num_feature":"10","num_nodes":"15","size_leaf_vector":"1"}},{"base_weights":[1.2960778E-1,1.5021098E0,-4.1341665E-1,6.6071403E-1,2.2016666E0,-1.3085763E0,5.680832E-2,5.9229106E-2,-1.0865017E-2,-1.6539366E-3,8.475219E-2,-6.1770644E-2,3.87145E-3,-2.4890708E-2,2.536516E-2],"categories":[],"categories_nodes":[],"categories_segments":[],"categories_sizes":[],"default_left":[0,0,0,0,0,0,0,0,0,0,0,0,0,0,0],"id":54,"left_children":[1,3,5,7,9,11,13,-1,-1,-1,-1,-1,-1,-1,-1],"loss_changes":[6.875093E2,1.0712317E2,2.83398E2,2.4073364E2,1.8893286E2,2.591177E2,3.4548004E2,0E0,0E0,0E0,0E0,0E0,0E0,0E0,0E0],"parents":[2147483647,0,0,1,1,2,2,3,3,4,4,5,5,6,6],"right_children":[2,4,6,8,10,12,14,-1,-1,-1,-1,-1,-1,-1,-1],"split_conditions":[-6.31428E-1,-4.7310472E-1,-3.8465685E-1,-1.0405086E0,-4.9295372E-1,5.0247556E-1,-3.5189304E-1,5.9229106E-2,-1.0865017E-2,-1.6539366E-3,8.475219E-2,-6.1770644E-2,3.87145E-3,-2.4890708E-2,2.536516E-2],"split_indices":[2,0,0,2,8,6,8,0,0,0,0,0,0,0,0],"split_type":[0,0,0,0,0,0,0,0,0,0,0,0,0,0,0],"sum_hessian":[8.66E2,2.31E2,6.35E2,1.32E2,9.9E1,2.01E2,4.34E2,4.6E1,8.6E1,2.7E1,7.2E1,1.24E2,7.7E1,2.03E2,2.31E2],"tree_param":{"num_deleted":"0","num_feature":"10","num_nodes":"15","size_leaf_vector":"1"}},{"base_weights":[1.7481948E-1,2.1619039E0,-2.0855176E-1,2.5072222E0,5.537075E-1,-5.156088E-1,1.257795E0,8.3060704E-2,1.50536345E-2,3.2964353E-2,-9.158228E-3,-5.1787708E-2,-6.654049E-3,5.7514913E-2,3.8165723E-3],"categories":[],"categories_nodes":[],"categories_segments":[],"categories_sizes":[],"default_left":[0,0,0,0,0,0,0,0,0,0,0,0,0,0,0],"id":55,"left_children":[1,3,5,7,9,11,13,-1,-1,-1,-1,-1,-1,-1,-1],"loss_changes":[6.934734E2,3.6925964E1,3.6675854E2,1.37786255E1,4.1291954E1,2.216811E2,9.649486E1,0E0,0E0,0E0,0E0,0E0,0E0,0E0,0E0],"parents":[2147483647,0,0,1,1,2,2,3,3,4,4,5,5,6,6],"right_children":[2,4,6,8,10,12,14,-1,-1,-1,-1,-1,-1,-1,-1],"split_conditions":[-1.1478274E0,9.7257316E-1,7.3170996E-1,2.1202636E0,-2.2972468E-1,-5.3406805E-1,-1.7938554E-2,8.3060704E-2,1.50536345E-2,3.2964353E-2,-9.158228E-3,-5.1787708E-2,-6.654049E-3,5.7514913E-2,3.8165723E-3],"split_indices":[3,6,4,8,9,8,9,0,0,0,0,0,0,0,0],"split_type":[0,0,0,0,0,0,0,0,0,0,0,0,0,0,0],"sum_hessian":[8.6E2,1.17E2,7.43E2,8.2E1,3.5E1,6.31E2,1.12E2,6.2E1,2E1,1.7E1,1.8E1,9.4E1,5.37E2,5.7E1,5.5E1],"tree_param":{"num_deleted":"0","num_feature":"10","num_nodes":"15","size_leaf_vector":"1"}},{"base_weights":[9.717372E-2,1.9836354E0,-3.159217E-1,9.487593E-1,1.04402065E-1,-6.502841E-1,8.5220724E-1,6.773082E-2,-5.7435785E-3,-2.8626965E-2,1.6608955E-3,5.4194007E-2,3.829403E-4],"categories":[],"categories_nodes":[],"categories_segments":[],"categories_sizes":[],"default_left":[0,0,0,0,0,0,0,0,0,0,0,0,0],"id":56,"left_children":[1,3,5,7,-1,9,11,-1,-1,-1,-1,-1,-1],"loss_changes":[7.0780054E2,1.4894434E2,3.089666E2,2.2099338E2,0E0,1.3117186E2,1.4087627E2,0E0,0E0,0E0,0E0,0E0,0E0],"parents":[2147483647,0,0,1,1,2,2,3,3,5,5,6,6],"right_children":[2,4,6,8,-1,10,12,-1,-1,-1,-1,-1,-1],"split_conditions":[-1.0397117E0,8.5542333E-1,5.4952943E-1,-1.8209834E0,1.04402065E-1,5.7086533E-1,-1.000202E-1,6.773082E-2,-5.7435785E-3,-2.8626965E-2,1.6608955E-3,5.4194007E-2,3.829403E-4],"split_indices":[3,0,4,3,0,6,9,0,0,0,0,0,0],"split_type":[0,0,0,0,0,0,0,0,0,0,0,0,0],"sum_hessian":[8.52E2,1.33E2,7.19E2,1.08E2,2.5E1,5.7E2,1.49E2,3.7E1,7.1E1,3.92E2,1.78E2,5.3E1,9.6E1],"tree_param":{"num_deleted":"0","num_feature":"10","num_nodes":"13","size_leaf_vector":"1"}},{"base_weights":[2.0167147E-1,2.135556E0,-2.781477E-2,8.930468E-2,-9.710955E-2,-7.96038E-1,5.2124214E-1,2.4317047E-2,-3.5082422E-2,1.7389087E-2,-3.6156848E-2,-2.0110397E-2,4.0209856E-2],"categories":[],"categories_nodes":[],"categories_segments":[],"categories_sizes":[],"default_left":[0,0,0,0,0,0,0,0,0,0,0,0,0],"id":57,"left_children":[1,3,5,-1,7,9,11,-1,-1,-1,-1,-1,-1],"loss_changes":[4.0197827E2,1.9186569E2,3.6323703E2,0E0,8.232742E1,2.2366905E2,5.1758356E2,0E0,0E0,0E0,0E0,0E0,0E0],"parents":[2147483647,0,0,1,1,2,2,4,4,5,5,6,6],"right_children":[2,4,6,-1,8,10,12,-1,-1,-1,-1,-1,-1],"split_conditions":[-1.613208E0,1.0737057E0,-3.8465685E-1,8.930468E-2,4.1468576E-1,-7.660959E-1,-3.9834327E-1,2.4317047E-2,-3.5082422E-2,1.7389087E-2,-3.6156848E-2,-2.0110397E-2,4.0209856E-2],"split_indices":[3,8,0,0,0,4,8,0,0,0,0,0,0],"split_type":[0,0,0,0,0,0,0,0,0,0,0,0,0],"sum_hessian":[8.67E2,6.6E1,8.01E2,4.1E1,2.5E1,3.29E2,4.72E2,1.7E1,8E0,7.2E1,2.57E2,1.94E2,2.78E2],"tree_param":{"num_deleted":"0","num_feature":"10","num_nodes":"13","size_leaf_vector":"1"}},{"base_weights":[1.6192417E-1,1.4263617E0,-3.5447085E-1,1.7653756E0,-2.4580878E-1,6.107677E-2,-4.850803E-1,6.766224E-2,1.5977941E-2,-1.817233E-2,1.0714817E-2,-3.5605792E-2,-1.637635E-3],"categories":[],"categories_nodes":[],"categories_segments":[],"categories_sizes":[],"default_left":[0,0,0,0,0,0,0,0,0,0,0,0,0],"id":58,"left_children":[1,3,5,7,9,-1,11,-1,-1,-1,-1,-1,-1],"loss_changes":[5.914883E2,1.6306293E2,2.3069672E2,9.528552E1,2.193113E1,0E0,1.901658E2,0E0,0E0,0E0,0E0,0E0,0E0],"parents":[2147483647,0,0,1,1,2,2,3,3,4,4,6,6],"right_children":[2,4,6,8,10,-1,12,-1,-1,-1,-1,-1,-1],"split_conditions":[-5.9387004E-1,2.7005854E-1,-1.8209834E0,7.202011E-1,8.0957997E-1,6.107677E-2,-3.74095E-1,6.766224E-2,1.5977941E-2,-1.817233E-2,1.0714817E-2,-3.5605792E-2,-1.637635E-3],"split_indices":[2,3,3,6,3,0,7,0,0,0,0,0,0],"split_type":[0,0,0,0,0,0,0,0,0,0,0,0,0],"sum_hessian":[8.51E2,2.32E2,6.19E2,1.92E2,4E1,9E0,6.1E2,1.19E2,7.3E1,2.6E1,1.4E1,2.11E2,3.99E2],"tree_param":{"num_deleted":"0","num_feature":"10","num_nodes":"13","size_leaf_vector":"1"}},{"base_weights":[1.0151589E-1,1.2746583E0,-3.9330727E-1,2.5283214E-1,1.9258245E0,-8.442566E-1,7.250196E-1,5.3361565E-2,-2.7702551E-2,6.9705926E-2,-4.0366673E-3,-3.0655384E-2,2.9537048E-2,4.68961E-2,-1.1797322E-2],"categories":[],"categories_nodes":[],"categories_segments":[],"categories_sizes":[],"default_left":[0,0,0,0,0,0,0,0,0,0,0,0,0,0,0],"id":59,"left_children":[1,3,5,7,9,11,13,-1,-1,-1,-1,-1,-1,-1,-1],"loss_changes":[5.331451E2,1.6419705E2,3.4577866E2,3.0320068E2,1.4349591E2,1.8513974E2,2.0894829E2,0E0,0E0,0E0,0E0,0E0,0E0,0E0,0E0],"parents":[2147483647,0,0,1,1,2,2,3,3,4,4,5,5,6,6],"right_children":[2,4,6,8,10,12,14,-1,-1,-1,-1,-1,-1,-1,-1],"split_conditions":[-5.790824E-1,-5.0074464E-1,-4.225064E-2,-1.0535951E0,3.580913E-1,6.739508E-1,-1.871291E-2,5.3361565E-2,-2.7702551E-2,6.9705926E-2,-4.0366673E-3,-3.0655384E-2,2.9537048E-2,4.68961E-2,-1.1797322E-2],"split_indices":[2,0,0,2,3,1,9,0,0,0,0,0,0,0,0],"split_type":[0,0,0,0,0,0,0,0,0,0,0,0,0,0,0],"sum_hessian":[8.61E2,2.42E2,6.19E2,1.11E2,1.31E2,4.47E2,1.72E2,4.2E1,6.9E1,1.07E2,2.4E1,4.2E2,2.7E1,9.2E1,8E1],"tree_param":{"num_deleted":"0","num_feature":"10","num_nodes":"15","size_leaf_vector":"1"}},{"base_weights":[1.4284526E-1,2.1678731E0,-1.0590702E-1,2.5449047E0,1.6373317E-1,-6.9979507E-1,3.014765E-1,1.5216468E-2,9.385861E-2,3.0896422E-2,-2.8663164E-2,-1.5882873E-3,-5.1744007E-2,-2.0739801E-2,3.568783E-2],"categories":[],"categories_nodes":[],"categories_segments":[],"categories_sizes":[],"default_left":[0,0,0,0,0,0,0,0,0,0,0,0,0,0,0],"id":60,"left_children":[1,3,5,7,9,11,13,-1,-1,-1,-1,-1,-1,-1,-1],"loss_changes":[4.517287E2,5.884195E1,2.0294098E2,4.391205E1,7.612376E1,2.2091187E2,4.6691507E2,0E0,0E0,0E0,0E0,0E0,0E0,0E0,0E0],"parents":[2147483647,0,0,1,1,2,2,3,3,4,4,5,5,6,6],"right_children":[2,4,6,8,10,12,14,-1,-1,-1,-1,-1,-1,-1,-1],"split_conditions":[-1.6066284E0,2.1202636E0,-3.9576393E-1,-6.5146244E-1,-2.1633986E-2,-3.0498457E-1,-3.4530565E-1,1.5216468E-2,9.385861E-2,3.0896422E-2,-2.8663164E-2,-1.5882873E-3,-5.1744007E-2,-2.0739801E-2,3.568783E-2],"split_indices":[3,8,0,1,0,1,8,0,0,0,0,0,0,0,0],"split_type":[0,0,0,0,0,0,0,0,0,0,0,0,0,0,0],"sum_hessian":[8.49E2,6.8E1,7.81E2,5E1,1.8E1,3.1E2,4.71E2,2.4E1,2.6E1,1.2E1,6E0,2.1E2,1E2,2.25E2,2.46E2],"tree_param":{"num_deleted":"0","num_feature":"10","num_nodes":"15","size_leaf_vector":"1"}},{"base_weights":[1.5866652E-1,1.6285866E0,-1.9260672E-1,2.0572996E0,1.4419213E-1,-1.0332073E0,1.902739E-1,2.3892727E-2,9.412404E-2,4.5718588E-2,-3.7393738E-2,-3.573905E-2,2.6288535E-2,-2.9209217E-2,2.5199404E-2],"categories":[],"categories_nodes":[],"categories_segments":[],"categories_sizes":[],"default_left":[0,0,0,0,0,0,0,0,0,0,0,0,0,0,0],"id":61,"left_children":[1,3,5,7,9,11,13,-1,-1,-1,-1,-1,-1,-1,-1],"loss_changes":[4.693594E2,1.0026538E2,2.45875E2,1.02243835E2,1.9541483E2,1.0348004E2,4.2896982E2,0E0,0E0,0E0,0E0,0E0,0E0,0E0,0E0],"parents":[2147483647,0,0,1,1,2,2,3,3,4,4,5,5,6,6],"right_children":[2,4,6,8,10,12,14,-1,-1,-1,-1,-1,-1,-1,-1],"split_conditions":[-1.0102668E0,1.0737057E0,-3.9164445E-1,-3.1142822E-1,-2.4073906E0,2.9915988E-1,-4.4608784E-1,2.3892727E-2,9.412404E-2,4.5718588E-2,-3.7393738E-2,-3.573905E-2,2.6288535E-2,-2.9209217E-2,2.5199404E-2],"split_indices":[3,8,8,0,6,9,0,0,0,0,0,0,0,0,0],"split_type":[0,0,0,0,0,0,0,0,0,0,0,0,0,0,0],"sum_hessian":[8.58E2,1.45E2,7.13E2,1.03E2,4.2E1,2.08E2,5.05E2,7.2E1,3.1E1,2E1,2.2E1,2.03E2,5E0,1.75E2,3.3E2],"tree_param":{"num_deleted":"0","num_feature":"10","num_nodes":"15","size_leaf_vector":"1"}},{"base_weights":[9.922721E-2,8.3941853E-1,-6.6286653E-1,3.686152E-2,1.1671119E0,-1.0233225E0,1.3408984E0,4.134231E-2,-2.3781527E-2,8.44255E-3,6.688726E-2,-3.9295666E-2,5.1293853E-3,6.2415045E-2,-3.7154224E-2],"categories":[],"categories_nodes":[],"categories_segments":[],"categories_sizes":[],"default_left":[0,0,0,0,0,0,0,0,0,0,0,0,0,0,0],"id":62,"left_children":[1,3,5,7,9,11,13,-1,-1,-1,-1,-1,-1,-1,-1],"loss_changes":[5.2737537E2,1.2190088E2,3.7453586E2,2.2139503E2,2.929654E2,1.4782028E2,2.3648154E2,0E0,0E0,0E0,0E0,0E0,0E0,0E0,0E0],"parents":[2147483647,0,0,1,1,2,2,3,3,4,4,5,5,6,6],"right_children":[2,4,6,8,10,12,14,-1,-1,-1,-1,-1,-1,-1,-1],"split_conditions":[-6.9629185E-2,-3.3553818E-1,7.9917425E-1,-5.3006965E-1,-4.3914953E-1,-3.737967E-2,1.3115326E0,4.134231E-2,-2.3781527E-2,8.44255E-3,6.688726E-2,-3.9295666E-2,5.1293853E-3,6.2415045E-2,-3.7154224E-2],"split_indices":[2,8,1,1,0,0,8,0,0,0,0,0,0,0,0],"split_type":[0,0,0,0,0,0,0,0,0,0,0,0,0,0,0],"sum_hessian":[8.75E2,4.43E2,4.32E2,1.39E2,3.04E2,3.79E2,5.3E1,4.6E1,9.3E1,1.87E2,1.17E2,3.04E2,7.5E1,4.6E1,7E0],"tree_param":{"num_deleted":"0","num_feature":"10","num_nodes":"15","size_leaf_vector":"1"}},{"base_weights":[9.023304E-2,9.411274E-1,-5.2643615E-1,3.4311005E-1,2.0670738E0,6.312577E-2,-7.4247694E-1,3.9039023E-2,-6.2491423E-3,6.9946855E-2,4.611338E-3,-2.5346324E-2,4.0812235E-2],"categories":[],"categories_nodes":[],"categories_segments":[],"categories_sizes":[],"default_left":[0,0,0,0,0,0,0,0,0,0,0,0,0],"id":63,"left_children":[1,3,5,7,9,-1,11,-1,-1,-1,-1,-1,-1],"loss_changes":[4.8175433E2,2.35547E2,3.4899228E2,1.6139285E2,5.1032898E1,0E0,1.4507947E2,0E0,0E0,0E0,0E0,0E0,0E0],"parents":[2147483647,0,0,1,1,2,2,3,3,4,4,6,6],"right_children":[2,4,6,8,10,-1,12,-1,-1,-1,-1,-1,-1],"split_conditions":[-2.360881E-1,4.9362758E-1,-2.1501194E-1,-7.6157045E-1,5.8428866E-1,6.312577E-2,1.1141686E0,3.9039023E-2,-6.2491423E-3,6.9946855E-2,4.611338E-3,-2.5346324E-2,4.0812235E-2],"split_indices":[2,4,9,3,3,0,9,0,0,0,0,0,0],"split_type":[0,0,0,0,0,0,0,0,0,0,0,0,0],"sum_hessian":[8.59E2,3.55E2,5.04E2,2.58E2,9.7E1,1.8E1,4.86E2,8E1,1.78E2,7.9E1,1.8E1,4.81E2,5E0],"tree_param":{"num_deleted":"0","num_feature":"10","num_nodes":"13","size_leaf_vector":"1"}},{"base_weights":[5.123565E-2,6.847175E-1,-6.7800355E-1,1.8759409E0,1.7975311E-1,-9.526027E-1,1.6434884E0,7.3149696E-2,3.9390796E-3,-3.8398564E-2,1.2815794E-2,-5.351652E-2,-1.5328001E-2,6.786354E-2,-1.4439272E-2],"categories":[],"categories_nodes":[],"categories_segments":[],"categories_sizes":[],"default_left":[0,0,0,0,0,0,0,0,0,0,0,0,0,0,0],"id":64,"left_children":[1,3,5,7,9,11,13,-1,-1,-1,-1,-1,-1,-1,-1],"loss_changes":[4.2600208E2,2.843802E2,3.197556E2,1.2813055E2,1.5280287E2,1.1832379E2,1.0805406E2,0E0,0E0,0E0,0E0,0E0,0E0,0E0,0E0],"parents":[2147483647,0,0,1,1,2,2,3,3,4,4,5,5,6,6],"right_children":[2,4,6,8,10,12,14,-1,-1,-1,-1,-1,-1,-1,-1],"split_conditions":[-1.4043947E-4,-1.0397117E0,8.5542333E-1,9.7257316E-1,-6.421918E-1,-3.800749E-1,-1.7606E-1,7.3149696E-2,3.9390796E-3,-3.8398564E-2,1.2815794E-2,-5.351652E-2,-1.5328001E-2,6.786354E-2,-1.4439272E-2],"split_indices":[2,3,0,6,8,0,7,0,0,0,0,0,0,0,0],"split_type":[0,0,0,0,0,0,0,0,0,0,0,0,0,0,0],"sum_hessian":[8.62E2,4.63E2,3.99E2,1.13E2,3.5E2,3.73E2,2.6E1,7.6E1,3.7E1,3.2E1,3.18E2,9.7E1,2.76E2,1.9E1,7E0],"tree_param":{"num_deleted":"0","num_feature":"10","num_nodes":"15","size_leaf_vector":"1"}},{"base_weights":[2.3369929E-1,1.6542523E0,-5.764903E-2,2.1181989E-1,9.593043E-2,-3.1927863E-1,1.2245095E0,3.0351859E-2,-1.9937493E-2,-2.9991683E-2,4.2753024E-3,1.15239555E-2,5.8784083E-2],"categories":[],"categories_nodes":[],"categories_segments":[],"categories_sizes":[],"default_left":[0,0,0,0,0,0,0,0,0,0,0,0,0],"id":65,"left_children":[1,3,5,7,-1,9,11,-1,-1,-1,-1,-1,-1],"loss_changes":[3.653572E2,3.1021423E2,2.630824E2,9.763315E1,0E0,2.0906102E2,5.72222E1,0E0,0E0,0E0,0E0,0E0,0E0],"parents":[2147483647,0,0,1,1,2,2,3,3,5,5,6,6],"right_children":[2,4,6,8,-1,10,12,-1,-1,-1,-1,-1,-1],"split_conditions":[-2.0223507E-1,-3.9318687E-1,9.315702E-1,-7.6157045E-1,9.593043E-2,-3.74095E-1,3.2879385E-1,3.0351859E-2,-1.9937493E-2,-2.9991683E-2,4.2753024E-3,1.15239555E-2,5.8784083E-2],"split_indices":[9,0,4,3,0,7,1,0,0,0,0,0,0],"split_type":[0,0,0,0,0,0,0,0,0,0,0,0,0],"sum_hessian":[8.42E2,1.2E2,7.22E2,8E1,4E1,6.19E2,1.03E2,4E1,4E1,2.37E2,3.82E2,7E1,3.3E1],"tree_param":{"num_deleted":"0","num_feature":"10","num_nodes":"13","size_leaf_vector":"1"}},{"base_weights":[7.862203E-2,2.3014295E0,-1.7629018E-1,8.701497E-2,3.684375E-1,-9.02905E-1,3.141074E-1,3.3641838E-2,-2.7623348E-2,-4.900947E-3,-5.7301417E-2,5.4069117E-2,-5.931038E-3],"categories":[],"categories_nodes":[],"categories_segments":[],"categories_sizes":[],"default_left":[0,0,0,0,0,0,0,0,0,0,0,0,0],"id":66,"left_children":[1,3,5,-1,7,9,11,-1,-1,-1,-1,-1,-1],"loss_changes":[5.180226E2,7.3523224E1,3.0306946E2,0E0,8.650857E1,2.4254987E2,4.0379346E2,0E0,0E0,0E0,0E0,0E0,0E0],"parents":[2147483647,0,0,1,1,2,2,4,4,5,5,6,6],"right_children":[2,4,6,-1,8,10,12,-1,-1,-1,-1,-1,-1],"split_conditions":[-1.613208E0,1.0737057E0,-3.9576393E-1,8.701497E-2,-1.6411294E-1,-1.519426E-1,-1.429969E-1,3.3641838E-2,-2.7623348E-2,-4.900947E-3,-5.7301417E-2,5.4069117E-2,-5.931038E-3],"split_indices":[3,8,0,0,2,2,9,0,0,0,0,0,0],"split_type":[0,0,0,0,0,0,0,0,0,0,0,0,0],"sum_hessian":[8.59E2,6.4E1,7.95E2,3.7E1,2.7E1,3.11E2,4.84E2,2E1,7E0,2E2,1.11E2,1.05E2,3.79E2],"tree_param":{"num_deleted":"0","num_feature":"10","num_nodes":"13","size_leaf_vector":"1"}},{"base_weights":[1.7518981E-1,-1.1356114E-1,1.6465827E0,1.2639457E0,-3.6841568E-1,1.9273982E0,-1.7182413E-1,5.242422E-2,-2.6296003E-2,3.199595E-3,-2.3653802E-2,7.190351E-2,1.2405387E-2,-1.7740807E-2,1.1820545E-2],"categories":[],"categories_nodes":[],"categories_segments":[],"categories_sizes":[],"default_left":[0,0,0,0,0,0,0,0,0,0,0,0,0,0,0],"id":67,"left_children":[1,3,5,7,9,11,13,-1,-1,-1,-1,-1,-1,-1,-1],"loss_changes":[3.865481E2,2.8479764E2,8.7775635E1,1.7826523E2,1.382999E2,6.125531E1,1.8344933E1,0E0,0E0,0E0,0E0,0E0,0E0,0E0,0E0],"parents":[2147483647,0,0,1,1,2,2,3,3,4,4,5,5,6,6],"right_children":[2,4,6,8,10,12,14,-1,-1,-1,-1,-1,-1,-1,-1],"split_conditions":[9.315702E-1,-1.0102668E0,7.1045065E-1,1.9600013E0,8.758307E-3,1.3330584E0,2.2695076E-1,5.242422E-2,-2.6296003E-2,3.199595E-3,-2.3653802E-2,7.190351E-2,1.2405387E-2,-1.7740807E-2,1.1820545E-2],"split_indices":[4,3,2,5,2,5,1,0,0,0,0,0,0,0,0],"split_type":[0,0,0,0,0,0,0,0,0,0,0,0,0,0,0],"sum_hessian":[8.63E2,7.44E2,1.19E2,9.7E1,6.47E2,1.02E2,1.7E1,8.4E1,1.3E1,3.13E2,3.34E2,6.4E1,3.8E1,1E1,7E0],"tree_param":{"num_deleted":"0","num_feature":"10","num_nodes":"15","size_leaf_vector":"1"}},{"base_weights":[1.0909548E-1,7.298067E-2,-6.5592274E-2,6.3254416E-1,-5.6218433E-1,-2.487114E-2,2.5632314E-2,-4.0353056E-2,-4.273975E-3],"categories":[],"categories_nodes":[],"categories_segments":[],"categories_sizes":[],"default_left":[0,0,0,0,0,0,0,0,0],"id":68,"left_children":[1,-1,3,5,7,-1,-1,-1,-1],"loss_changes":[3.6597263E2,0E0,3.056302E2,1.4028479E2,1.6166647E2,0E0,0E0,0E0,0E0],"parents":[2147483647,0,0,2,2,3,3,4,4],"right_children":[2,-1,4,6,8,-1,-1,-1,-1],"split_conditions":[-2.483957E0,7.298067E-2,-2.360881E-1,-6.421918E-1,-3.6713284E-1,-2.487114E-2,2.5632314E-2,-4.0353056E-2,-4.273975E-3],"split_indices":[6,0,2,8,0,0,0,0,0],"split_type":[0,0,0,0,0,0,0,0,0],"sum_hessian":[8.54E2,3.3E1,8.21E2,3.37E2,4.84E2,3.3E1,3.04E2,1.45E2,3.39E2],"tree_param":{"num_deleted":"0","num_feature":"10","num_nodes":"9","size_leaf_vector":"1"}},{"base_weights":[1.23582475E-1,2.1490657E0,-8.222786E-2,3.5182276E-1,8.4277794E-2,-3.0137575E-1,1.425297E0,3.163321E-2,-2.2737876E-2,-1.4456223E-2,2.3705315E-2,-4.987864E-3,4.6743385E-2],"categories":[],"categories_nodes":[],"categories_segments":[],"categories_sizes":[],"default_left":[0,0,0,0,0,0,0,0,0,0,0,0,0],"id":69,"left_children":[1,3,5,7,-1,9,11,-1,-1,-1,-1,-1,-1],"loss_changes":[3.754604E2,6.567001E1,2.8597043E2,6.871692E1,0E0,1.5888232E2,3.241577E1,0E0,0E0,0E0,0E0,0E0,0E0],"parents":[2147483647,0,0,1,1,2,2,3,3,5,5,6,6],"right_children":[2,4,6,8,-1,10,12,-1,-1,-1,-1,-1,-1],"split_conditions":[-2.3398364E-1,-4.6217334E-1,1.1220901E0,-7.6157045E-1,8.4277794E-2,6.9301057E-1,-7.4987113E-1,3.163321E-2,-2.2737876E-2,-1.4456223E-2,2.3705315E-2,-4.987864E-3,4.6743385E-2],"split_indices":[9,0,4,3,0,0,1,0,0,0,0,0,0],"split_type":[0,0,0,0,0,0,0,0,0,0,0,0,0],"sum_hessian":[8.53E2,5.3E1,8E2,2.7E1,2.6E1,7.2E2,8E1,1.8E1,9E0,6.33E2,8.7E1,5E0,7.5E1],"tree_param":{"num_deleted":"0","num_feature":"10","num_nodes":"13","size_leaf_vector":"1"}},{"base_weights":[1.0275404E-1,6.82841E-1,-5.1061666E-1,-7.961862E-1,8.990155E-1,-8.036556E-1,7.4993086E-1,1.2315183E-2,-3.874241E-2,7.684313E-2,1.4855216E-2,-5.3601827E-2,-1.5522428E-2,4.604449E-2,-4.8377164E-2],"categories":[],"categories_nodes":[],"categories_segments":[],"categories_sizes":[],"default_left":[0,0,0,0,0,0,0,0,0,0,0,0,0,0,0],"id":70,"left_children":[1,3,5,7,9,11,13,-1,-1,-1,-1,-1,-1,-1,-1],"loss_changes":[3.251669E2,1.71209E2,1.8288208E2,6.1603943E1,2.4287592E2,7.604773E1,2.5774744E2,0E0,0E0,0E0,0E0,0E0,0E0,0E0,0E0],"parents":[2147483647,0,0,1,1,2,2,3,3,4,4,5,5,6,6],"right_children":[2,4,6,8,10,12,14,-1,-1,-1,-1,-1,-1,-1,-1],"split_conditions":[-6.9629185E-2,-6.421918E-1,6.9350046E-1,-6.753711E-1,-1.2544239E0,-6.2077016E-1,1.1945053E0,1.2315183E-2,-3.874241E-2,7.684313E-2,1.4855216E-2,-5.3601827E-2,-1.5522428E-2,4.604449E-2,-4.8377164E-2],"split_indices":[2,8,1,1,6,7,8,0,0,0,0,0,0,0,0],"split_type":[0,0,0,0,0,0,0,0,0,0,0,0,0,0,0],"sum_hessian":[8.54E2,4.38E2,4.16E2,4.5E1,3.93E2,3.47E2,6.9E1,1.4E1,3.1E1,4.5E1,3.48E2,4.2E1,3.05E2,6E1,9E0],"tree_param":{"num_deleted":"0","num_feature":"10","num_nodes":"15","size_leaf_vector":"1"}},{"base_weights":[9.8549925E-2,-1.5888569E-1,1.5041485E0,-6.293347E-1,4.5632532E-1,1.9097767E0,-3.5184854E-1,2.5212362E-3,-4.2863008E-2,-1.1497067E-2,4.2711686E-2,7.514663E-2,-2.8319156E-3,-2.9963482E-2,1.6019162E-2],"categories":[],"categories_nodes":[],"categories_segments":[],"categories_sizes":[],"default_left":[0,0,0,0,0,0,0,0,0,0,0,0,0,0,0],"id":71,"left_children":[1,3,5,7,9,11,13,-1,-1,-1,-1,-1,-1,-1,-1],"loss_changes":[3.2766757E2,2.3222484E2,1.2711478E2,2.6215033E2,3.0248755E2,1.5262888E2,4.5117863E1,0E0,0E0,0E0,0E0,0E0,0E0,0E0,0E0],"parents":[2147483647,0,0,1,1,2,2,3,3,4,4,5,5,6,6],"right_children":[2,4,6,8,10,12,14,-1,-1,-1,-1,-1,-1,-1,-1],"split_conditions":[9.315702E-1,-2.973534E-1,6.0392743E-1,-1.040464E-1,-3.4530565E-1,1.0737057E0,-4.6901685E-1,2.5212362E-3,-4.2863008E-2,-1.1497067E-2,4.2711686E-2,7.514663E-2,-2.8319156E-3,-2.9963482E-2,1.6019162E-2],"split_indices":[4,0,2,2,8,8,6,0,0,0,0,0,0,0,0],"split_type":[0,0,0,0,0,0,0,0,0,0,0,0,0,0,0],"sum_hessian":[8.52E2,7.42E2,1.1E2,4.21E2,3.21E2,9E1,2E1,2.36E2,1.85E2,1.81E2,1.4E2,6.4E1,2.6E1,1E1,1E1],"tree_param":{"num_deleted":"0","num_feature":"10","num_nodes":"15","size_leaf_vector":"1"}},{"base_weights":[8.840381E-3,1.7324902E0,-1.9861571E-1,7.2293445E-2,3.1047756E-2,1.4360515E0,-3.3913976E-1,2.7407981E-2,-3.4548756E-2,-8.605583E-3,6.951974E-2,-4.51448E-2,-2.9850844E-3],"categories":[],"categories_nodes":[],"categories_segments":[],"categories_sizes":[],"default_left":[0,0,0,0,0,0,0,0,0,0,0,0,0],"id":72,"left_children":[1,3,5,-1,7,9,11,-1,-1,-1,-1,-1,-1],"loss_changes":[3.2938937E2,1.09399506E2,2.016463E2,0E0,9.290812E1,1.2825687E2,2.115108E2,0E0,0E0,0E0,0E0,0E0,0E0],"parents":[2147483647,0,0,1,1,2,2,4,4,5,5,6,6],"right_children":[2,4,6,-1,8,10,12,-1,-1,-1,-1,-1,-1],"split_conditions":[-1.6066284E0,1.0737057E0,-2.3398364E-1,7.2293445E-2,4.1468576E-1,-4.6217334E-1,-5.292978E-1,2.7407981E-2,-3.4548756E-2,-8.605583E-3,6.951974E-2,-4.51448E-2,-2.9850844E-3],"split_indices":[3,8,9,0,0,0,8,0,0,0,0,0,0],"split_type":[0,0,0,0,0,0,0,0,0,0,0,0,0],"sum_hessian":[8.58E2,6.9E1,7.89E2,4E1,2.9E1,4E1,7.49E2,2.1E1,8E0,2E1,2E1,1E2,6.49E2],"tree_param":{"num_deleted":"0","num_feature":"10","num_nodes":"13","size_leaf_vector":"1"}},{"base_weights":[5.8160633E-2,6.6929954E-1,-5.682143E-1,2.562755E-1,1.570064E0,-1.8987656E0,-5.407169E-2,-4.0115017E-4,4.2091627E-2,2.0443019E-2,8.503105E-2,8.654765E-3,-6.2754065E-2,-6.855945E-3,4.4116784E-2],"categories":[],"categories_nodes":[],"categories_segments":[],"categories_sizes":[],"default_left":[0,0,0,0,0,0,0,0,0,0,0,0,0,0,0],"id":73,"left_children":[1,3,5,7,9,11,13,-1,-1,-1,-1,-1,-1,-1,-1],"loss_changes":[3.483761E2,1.5723976E2,3.02809E2,1.10799934E2,9.3583954E1,7.2262726E1,1.0353137E2,0E0,0E0,0E0,0E0,0E0,0E0,0E0,0E0],"parents":[2147483647,0,0,1,1,2,2,3,3,4,4,5,5,6,6],"right_children":[2,4,6,8,10,12,14,-1,-1,-1,-1,-1,-1,-1,-1],"split_conditions":[-6.9629185E-2,1.8352982E-1,-4.003234E-1,7.531781E-1,-6.295225E-2,-9.144882E-1,2.5439851E0,-4.0115017E-4,4.2091627E-2,2.0443019E-2,8.503105E-2,8.654765E-3,-6.2754065E-2,-6.855945E-3,4.4116784E-2],"split_indices":[2,7,0,4,0,4,2,0,0,0,0,0,0,0,0],"split_type":[0,0,0,0,0,0,0,0,0,0,0,0,0,0,0],"sum_hessian":[8.5E2,4.3E2,4.2E2,3.22E2,1.08E2,9.4E1,3.26E2,2.84E2,3.8E1,9.1E1,1.7E1,6E0,8.8E1,3.16E2,1E1],"tree_param":{"num_deleted":"0","num_feature":"10","num_nodes":"15","size_leaf_vector":"1"}},{"base_weights":[8.033119E-2,9.47424E-1,-3.5833594E-1,-1.9414388E-2,1.3273816E0,-1.262914E0,-0E0,3.886646E-2,-2.3198755E-2,-8.688411E-3,4.7699157E-2,-5.1815532E-2,2.0218752E-2,-1.9376162E-2,1.4066787E-2],"categories":[],"categories_nodes":[],"categories_segments":[],"categories_sizes":[],"default_left":[0,0,0,0,0,0,0,0,0,0,0,0,0,0,0],"id":74,"left_children":[1,3,5,7,9,11,13,-1,-1,-1,-1,-1,-1,-1,-1],"loss_changes":[3.5044003E2,1.15594574E2,2.0027612E2,1.4452611E2,1.09802124E2,1.933404E2,1.5094409E2,0E0,0E0,0E0,0E0,0E0,0E0,0E0,0E0],"parents":[2147483647,0,0,1,1,2,2,3,3,4,4,5,5,6,6],"right_children":[2,4,6,8,10,12,14,-1,-1,-1,-1,-1,-1,-1,-1],"split_conditions":[-4.917962E-1,-5.122424E-1,-4.0666696E-1,-1.0751876E0,-6.421918E-1,8.1122637E-1,-3.7256378E-1,3.886646E-2,-2.3198755E-2,-8.688411E-3,4.7699157E-2,-5.1815532E-2,2.0218752E-2,-1.9376162E-2,1.4066787E-2],"split_indices":[2,0,0,2,8,6,8,0,0,0,0,0,0,0,0],"split_type":[0,0,0,0,0,0,0,0,0,0,0,0,0,0,0],"sum_hessian":[8.63E2,2.79E2,5.84E2,8.6E1,1.93E2,1.45E2,4.39E2,2.3E1,6.3E1,2.6E1,1.67E2,1.2E2,2.5E1,1.79E2,2.6E2],"tree_param":{"num_deleted":"0","num_feature":"10","num_nodes":"15","size_leaf_vector":"1"}},{"base_weights":[6.387653E-2,1.9882609E0,-1.23553194E-1,-2.6060462E-1,8.098115E-2,3.950667E-1,-5.467169E-1,1.4266078E-2,-2.258033E-2,-9.163567E-3,3.08071E-2,-2.283108E-3,-4.492103E-2],"categories":[],"categories_nodes":[],"categories_segments":[],"categories_sizes":[],"default_left":[0,0,0,0,0,0,0,0,0,0,0,0,0],"id":75,"left_children":[1,3,5,7,-1,9,11,-1,-1,-1,-1,-1,-1],"loss_changes":[3.212285E2,1.4987906E2,1.8571164E2,2.7677706E1,0E0,1.7965253E2,2.0214896E2,0E0,0E0,0E0,0E0,0E0,0E0],"parents":[2147483647,0,0,1,1,2,2,3,3,5,5,6,6],"right_children":[2,4,6,8,-1,10,12,-1,-1,-1,-1,-1,-1],"split_conditions":[-2.3591952E-1,-5.0074464E-1,-1.6411294E-1,-8.758871E-1,8.098115E-2,-3.5498634E-1,4.130567E-3,1.4266078E-2,-2.258033E-2,-9.163567E-3,3.08071E-2,-2.283108E-3,-4.492103E-2],"split_indices":[9,0,2,1,0,7,9,0,0,0,0,0,0],"split_type":[0,0,0,0,0,0,0,0,0,0,0,0,0],"sum_hessian":[8.35E2,4.9E1,7.86E2,1.6E1,3.3E1,3.53E2,4.33E2,6E0,1E1,1.74E2,1.79E2,3.12E2,1.21E2],"tree_param":{"num_deleted":"0","num_feature":"10","num_nodes":"13","size_leaf_vector":"1"}},{"base_weights":[4.6578888E-2,9.004942E-1,-5.7920265E-1,1.7662079E0,4.0260354E-1,-1.2431446E0,-9.764912E-2,6.530152E-2,1.3870407E-2,-3.6491197E-2,2.0443141E-2,1.5182479E-2,-4.5114476E-2,-1.87638E-2,2.2519931E-2],"categories":[],"categories_nodes":[],"categories_segments":[],"categories_sizes":[],"default_left":[0,0,0,0,0,0,0,0,0,0,0,0,0,0,0],"id":76,"left_children":[1,3,5,7,9,11,13,-1,-1,-1,-1,-1,-1,-1,-1],"loss_changes":[5.006369E2,1.4718695E2,1.6798795E2,3.9427338E1,1.5569673E2,1.2596738E2,1.6932904E2,0E0,0E0,0E0,0E0,0E0,0E0,0E0,0E0],"parents":[2147483647,0,0,1,1,2,2,3,3,4,4,5,5,6,6],"right_children":[2,4,6,8,10,12,14,-1,-1,-1,-1,-1,-1,-1,-1],"split_conditions":[-2.4537943E-1,-1.0397117E0,-3.2261446E-1,7.202011E-1,-6.421918E-1,-7.771748E-1,6.2083054E-1,6.530152E-2,1.3870407E-2,-3.6491197E-2,2.0443141E-2,1.5182479E-2,-4.5114476E-2,-1.87638E-2,2.2519931E-2],"split_indices":[2,3,0,6,8,4,3,0,0,0,0,0,0,0,0],"split_type":[0,0,0,0,0,0,0,0,0,0,0,0,0,0,0],"sum_hessian":[8.77E2,3.66E2,5.11E2,1.05E2,2.61E2,1.94E2,3.17E2,6.4E1,4.1E1,2.3E1,2.38E2,2.1E1,1.73E2,2.01E2,1.16E2],"tree_param":{"num_deleted":"0","num_feature":"10","num_nodes":"15","size_leaf_vector":"1"}},{"base_weights":[4.8335984E-2,-2.4330483E-1,1.653312E0,5.9006E-2,-3.7565112E-1,1.9822923E0,-3.4050813E-1,-3.7757784E-2,-2.1171854E-3,7.1217485E-2,6.3047362E-3,-2.7216436E-2,1.15722325E-2],"categories":[],"categories_nodes":[],"categories_segments":[],"categories_sizes":[],"default_left":[0,0,0,0,0,0,0,0,0,0,0,0,0],"id":77,"left_children":[1,3,5,-1,7,9,11,-1,-1,-1,-1,-1,-1],"loss_changes":[4.2632123E2,2.4639061E2,1.1372125E2,0E0,1.9910837E2,6.920029E1,2.9540627E1,0E0,0E0,0E0,0E0,0E0,0E0],"parents":[2147483647,0,0,1,1,2,2,4,4,5,5,6,6],"right_children":[2,4,6,-1,8,10,12,-1,-1,-1,-1,-1,-1],"split_conditions":[9.315702E-1,-2.2801294E0,7.1045065E-1,5.9006E-2,-4.5888108E-1,1.0737057E0,-4.6901685E-1,-3.7757784E-2,-2.1171854E-3,7.1217485E-2,6.3047362E-3,-2.7216436E-2,1.15722325E-2],"split_indices":[4,6,2,0,8,8,6,0,0,0,0,0,0],"split_type":[0,0,0,0,0,0,0,0,0,0,0,0,0],"sum_hessian":[8.52E2,7.42E2,1.1E2,1.8E1,7.24E2,9.5E1,1.5E1,1.61E2,5.63E2,6.9E1,2.6E1,5E0,1E1],"tree_param":{"num_deleted":"0","num_feature":"10","num_nodes":"13","size_leaf_vector":"1"}},{"base_weights":[1.8887244E-1,1.8466793E0,-1.5255533E-2,7.420151E-2,-0E0,-6.255614E-1,3.7895715E-1,2.9146068E-2,-3.5020374E-2,-1.7763921E-3,-4.8444107E-2,-1.6381206E-2,3.6015127E-2],"categories":[],"categories_nodes":[],"categories_segments":[],"categories_sizes":[],"default_left":[0,0,0,0,0,0,0,0,0,0,0,0,0],"id":78,"left_children":[1,3,5,-1,7,9,11,-1,-1,-1,-1,-1,-1],"loss_changes":[3.0893292E2,1.1779956E2,2.0825134E2,0E0,9.656369E1,1.859444E2,4.1928293E2,0E0,0E0,0E0,0E0,0E0,0E0],"parents":[2147483647,0,0,1,1,2,2,4,4,5,5,6,6],"right_children":[2,4,6,-1,8,10,12,-1,-1,-1,-1,-1,-1],"split_conditions":[-1.6066284E0,1.1731977E0,-4.046563E-1,7.420151E-2,-1.9879188E-1,-4.8036635E-2,-3.4530565E-1,2.9146068E-2,-3.5020374E-2,-1.7763921E-3,-4.8444107E-2,-1.6381206E-2,3.6015127E-2],"split_indices":[3,8,0,0,2,2,8,0,0,0,0,0,0],"split_type":[0,0,0,0,0,0,0,0,0,0,0,0,0],"sum_hessian":[8.75E2,7E1,8.05E2,4.5E1,2.5E1,3.1E2,4.95E2,1.6E1,9E0,2.18E2,9.2E1,2.37E2,2.58E2],"tree_param":{"num_deleted":"0","num_feature":"10","num_nodes":"13","size_leaf_vector":"1"}},{"base_weights":[1.4619368E-1,1.166696E0,-1.8897001E-1,1.7855796E-1,2.968318E0,1.5163083E0,-3.8211542E-1,-1.4732529E-2,2.253474E-2,9.819569E-2,4.068051E-3,-1.5016261E-2,5.7714187E-2,-3.0201172E-2,-1.1680776E-3],"categories":[],"categories_nodes":[],"categories_segments":[],"categories_sizes":[],"default_left":[0,0,0,0,0,0,0,0,0,0,0,0,0,0,0],"id":79,"left_children":[1,3,5,7,9,11,13,-1,-1,-1,-1,-1,-1,-1,-1],"loss_changes":[3.0653073E2,3.7438806E2,2.4120538E2,7.8428055E1,4.89104E1,9.195134E1,1.3453159E2,0E0,0E0,0E0,0E0,0E0,0E0,0E0,0E0],"parents":[2147483647,0,0,1,1,2,2,3,3,4,4,5,5,6,6],"right_children":[2,4,6,8,10,12,14,-1,-1,-1,-1,-1,-1,-1,-1],"split_conditions":[-1.6816345E-1,-3.018279E-1,-1.8445072E0,-5.0074464E-1,4.7179395E-1,-4.6076226E-1,-4.0666696E-1,-1.4732529E-2,2.253474E-2,9.819569E-2,4.068051E-3,-1.5016261E-2,5.7714187E-2,-3.0201172E-2,-1.1680776E-3],"split_indices":[9,0,6,0,3,5,0,0,0,0,0,0,0,0,0],"split_type":[0,0,0,0,0,0,0,0,0,0,0,0,0,0,0],"sum_hessian":[8.44E2,1.91E2,6.53E2,1.45E2,4.6E1,4.5E1,6.08E2,6.8E1,7.7E1,3.7E1,9E0,6E0,3.9E1,1.94E2,4.14E2],"tree_param":{"num_deleted":"0","num_feature":"10","num_nodes":"15","size_leaf_vector":"1"}},{"base_weights":[1.1133244E-1,-1.2564366E-1,1.4165796E0,8.0393535E-1,-3.9503258E-1,2.3657646E0,1.6621992E-1,-6.2696026E-3,3.7117023E-2,-1.828414E-2,3.2866776E-2,4.2803693E-3,8.9765266E-2,-1.6435204E-2,4.543566E-2],"categories":[],"categories_nodes":[],"categories_segments":[],"categories_sizes":[],"default_left":[0,0,0,0,0,0,0,0,0,0,0,0,0,0,0],"id":80,"left_children":[1,3,5,7,9,11,13,-1,-1,-1,-1,-1,-1,-1,-1],"loss_changes":[2.8624887E2,2.0744978E2,1.541997E2,9.085914E1,2.2251709E2,9.267761E1,1.1635842E2,0E0,0E0,0E0,0E0,0E0,0E0,0E0,0E0],"parents":[2147483647,0,0,1,1,2,2,3,3,4,4,5,5,6,6],"right_children":[2,4,6,8,10,12,14,-1,-1,-1,-1,-1,-1,-1,-1],"split_conditions":[9.315702E-1,-8.194675E-1,2.9690345E-3,-6.5014213E-1,5.876051E-1,-4.5135528E-1,7.560294E-1,-6.2696026E-3,3.7117023E-2,-1.828414E-2,3.2866776E-2,4.2803693E-3,8.9765266E-2,-1.6435204E-2,4.543566E-2],"split_indices":[4,4,9,8,0,0,9,0,0,0,0,0,0,0,0],"split_type":[0,0,0,0,0,0,0,0,0,0,0,0,0,0,0],"sum_hessian":[8.74E2,7.62E2,1.12E2,1.57E2,6.05E2,4.8E1,6.4E1,5.1E1,1.06E2,5.45E2,6E1,1.9E1,2.9E1,5.3E1,1.1E1],"tree_param":{"num_deleted":"0","num_feature":"10","num_nodes":"15","size_leaf_vector":"1"}},{"base_weights":[1.03674516E-1,9.2309535E-1,-2.635926E-1,1.4160043E0,-9.678232E-2,-1.1496178E0,1.1520005E-1,1.4921275E-2,6.448944E-2,1.8117085E-2,-1.3694769E-2,8.600671E-3,-4.180204E-2,-1.5322864E-2,1.8211167E-2],"categories":[],"categories_nodes":[],"categories_segments":[],"categories_sizes":[],"default_left":[0,0,0,0,0,0,0,0,0,0,0,0,0,0,0],"id":81,"left_children":[1,3,5,7,9,11,13,-1,-1,-1,-1,-1,-1,-1,-1],"loss_changes":[2.7098624E2,1.4518303E2,2.1510553E2,9.332721E1,3.7864025E1,7.996918E1,1.5255858E2,0E0,0E0,0E0,0E0,0E0,0E0,0E0,0E0],"parents":[2147483647,0,0,1,1,2,2,3,3,4,4,5,5,6,6],"right_children":[2,4,6,8,10,12,14,-1,-1,-1,-1,-1,-1,-1,-1],"split_conditions":[-5.790824E-1,-4.0943947E-1,-4.046563E-1,-4.8069435E-1,-5.873977E-1,-7.771748E-1,-3.5189304E-1,1.4921275E-2,6.448944E-2,1.8117085E-2,-1.3694769E-2,8.600671E-3,-4.180204E-2,-1.5322864E-2,1.8211167E-2],"split_indices":[2,3,0,0,1,4,8,0,0,0,0,0,0,0,0],"split_type":[0,0,0,0,0,0,0,0,0,0,0,0,0,0,0],"sum_hessian":[8.44E2,2.48E2,5.96E2,1.6E2,8.8E1,1.61E2,4.35E2,9.4E1,6.6E1,2.2E1,6.6E1,2.2E1,1.39E2,1.9E2,2.45E2],"tree_param":{"num_deleted":"0","num_feature":"10","num_nodes":"15","size_leaf_vector":"1"}},{"base_weights":[5.561211E-2,1.0450008E0,-2.8483558E-1,1.5132959E0,1.2061791E-1,-1.8368721E0,7.152425E-2,1.5607627E-2,5.89414E-2,-1.7609911E-2,1.8193547E-2,-6.037329E-2,7.978345E-3,2.5546823E-2,-1.2797827E-2],"categories":[],"categories_nodes":[],"categories_segments":[],"categories_sizes":[],"default_left":[0,0,0,0,0,0,0,0,0,0,0,0,0,0,0],"id":82,"left_children":[1,3,5,7,9,11,13,-1,-1,-1,-1,-1,-1,-1,-1],"loss_changes":[3.0812564E2,9.418503E1,3.829097E2,3.4988525E1,4.9202724E1,6.54285E1,2.378481E2,0E0,0E0,0E0,0E0,0E0,0E0,0E0,0E0],"parents":[2147483647,0,0,1,1,2,2,3,3,4,4,5,5,6,6],"right_children":[2,4,6,8,10,12,14,-1,-1,-1,-1,-1,-1,-1,-1],"split_conditions":[-1.6816345E-1,-1.8807413E-1,-4.9295372E-1,-6.692949E-1,-6.3466734E-1,2.5030848E-1,-1.6411294E-1,1.5607627E-2,5.89414E-2,-1.7609911E-2,1.8193547E-2,-6.037329E-2,7.978345E-3,2.5546823E-2,-1.2797827E-2],"split_indices":[9,3,8,1,7,4,2,0,0,0,0,0,0,0,0],"split_type":[0,0,0,0,0,0,0,0,0,0,0,0,0,0,0],"sum_hessian":[8.56E2,2.04E2,6.52E2,1.22E2,8.2E1,9.9E1,5.53E2,5.9E1,6.3E1,3E1,5.2E1,9.3E1,6E0,2.08E2,3.45E2],"tree_param":{"num_deleted":"0","num_feature":"10","num_nodes":"15","size_leaf_vector":"1"}},{"base_weights":[5.2382346E-2,6.346781E-1,-5.991779E-1,-6.2755823E-1,7.97998E-1,-9.749945E-1,1.1171978E0,2.0992296E-2,-5.5675965E-2,3.2579817E-2,-2.9815105E-3,-4.1326437E-2,-8.750485E-3,6.0668778E-2,-5.2176617E-2],"categories":[],"categories_nodes":[],"categories_segments":[],"categories_sizes":[],"default_left":[0,0,0,0,0,0,0,0,0,0,0,0,0,0,0],"id":83,"left_children":[1,3,5,7,9,11,13,-1,-1,-1,-1,-1,-1,-1,-1],"loss_changes":[3.5100775E2,1.15794525E2,3.144192E2,1.5749905E2,1.19489746E2,8.942761E1,3.436498E2,0E0,0E0,0E0,0E0,0E0,0E0,0E0,0E0],"parents":[2147483647,0,0,1,1,2,2,3,3,4,4,5,5,6,6],"right_children":[2,4,6,8,10,12,14,-1,-1,-1,-1,-1,-1,-1,-1],"split_conditions":[-1.4043947E-4,-6.421918E-1,6.9350046E-1,-1.5112764E-1,4.909709E-1,4.280041E-1,1.3115326E0,2.0992296E-2,-5.5675965E-2,3.2579817E-2,-2.9815105E-3,-4.1326437E-2,-8.750485E-3,6.0668778E-2,-5.2176617E-2],"split_indices":[2,8,1,9,3,3,8,0,0,0,0,0,0,0,0],"split_type":[0,0,0,0,0,0,0,0,0,0,0,0,0,0,0],"sum_hessian":[8.65E2,4.58E2,4.07E2,4.2E1,4.16E2,3.45E2,6.2E1,2.6E1,1.6E1,3.11E2,1.05E2,1.97E2,1.48E2,5.4E1,8E0],"tree_param":{"num_deleted":"0","num_feature":"10","num_nodes":"15","size_leaf_vector":"1"}},{"base_weights":[4.6958037E-2,-2.2531286E-1,1.6075082E0,-3.5807353E-1,1.8660107E0,1.8749871E0,-2.0743892E-1,2.8593135E-3,-2.5936648E-2,-1.1590638E-3,6.654277E-2,1.847624E-2,7.51532E-2,-1.9549703E-2,1.3103403E-2],"categories":[],"categories_nodes":[],"categories_segments":[],"categories_sizes":[],"default_left":[0,0,0,0,0,0,0,0,0,0,0,0,0,0,0],"id":84,"left_children":[1,3,5,7,9,11,13,-1,-1,-1,-1,-1,-1,-1,-1],"loss_changes":[3.8912756E2,2.3537827E2,7.935846E1,1.7776051E2,3.89505E1,4.7387848E1,2.1345438E1,0E0,0E0,0E0,0E0,0E0,0E0,0E0,0E0],"parents":[2147483647,0,0,1,1,2,2,3,3,4,4,5,5,6,6],"right_children":[2,4,6,8,10,12,14,-1,-1,-1,-1,-1,-1,-1,-1],"split_conditions":[9.315702E-1,3.0542405E0,8.078134E-1,2.9042216E-2,-3.8173014E-1,-4.164089E-1,1.02255724E-1,2.8593135E-3,-2.5936648E-2,-1.1590638E-3,6.654277E-2,1.847624E-2,7.51532E-2,-1.9549703E-2,1.3103403E-2],"split_indices":[4,0,2,2,1,0,1,0,0,0,0,0,0,0,0],"split_type":[0,0,0,0,0,0,0,0,0,0,0,0,0,0,0],"sum_hessian":[8.57E2,7.51E2,1.06E2,7.3E2,2.1E1,9.2E1,1.4E1,3.97E2,3.33E2,7E0,1.4E1,5.1E1,4.1E1,9E0,5E0],"tree_param":{"num_deleted":"0","num_feature":"10","num_nodes":"15","size_leaf_vector":"1"}},{"base_weights":[1.0128781E-1,-1.2833694E-1,1.3805901E0,-3.3548045E-1,1.0309181E0,1.9114802E0,3.6368757E-1,2.278814E-2,-1.702239E-2,-1.0704268E-2,6.1698515E-2,1.1252835E-3,6.715455E-2,-1.2312589E-2,4.50076E-2],"categories":[],"categories_nodes":[],"categories_segments":[],"categories_sizes":[],"default_left":[0,0,0,0,0,0,0,0,0,0,0,0,0,0,0],"id":85,"left_children":[1,3,5,7,9,11,13,-1,-1,-1,-1,-1,-1,-1,-1],"loss_changes":[2.6096335E2,1.9242073E2,4.9750946E1,1.826547E2,1.9736803E2,4.4841675E1,9.346704E1,0E0,0E0,0E0,0E0,0E0,0E0,0E0,0E0],"parents":[2147483647,0,0,1,1,2,2,3,3,4,4,5,5,6,6],"right_children":[2,4,6,8,10,12,14,-1,-1,-1,-1,-1,-1,-1,-1],"split_conditions":[9.315702E-1,5.876051E-1,2.9690345E-3,-8.8341224E-1,-5.3406805E-1,-6.60841E-1,7.560294E-1,2.278814E-2,-1.702239E-2,-1.0704268E-2,6.1698515E-2,1.1252835E-3,6.715455E-2,-1.2312589E-2,4.50076E-2],"split_indices":[4,0,9,4,8,1,9,0,0,0,0,0,0,0,0],"split_type":[0,0,0,0,0,0,0,0,0,0,0,0,0,0,0],"sum_hessian":[8.36E2,7.31E2,1.05E2,6.39E2,9.2E1,5.1E1,5.4E1,9.9E1,5.4E2,4.7E1,4.5E1,1.3E1,3.8E1,4.3E1,1.1E1],"tree_param":{"num_deleted":"0","num_feature":"10","num_nodes":"15","size_leaf_vector":"1"}},{"base_weights":[-6.201233E-3,1.1342468E0,-2.4972688E-1,3.291753E-1,1.9231262E0,